,0,1,2,3,4,5,6,7,8,9,10,11,12,13,14,15,16,17,18,19,20,21,22,23,24,25,26,27,28,29,30,31,32,33,34,35,36,37,38,39,40,41,42,43,44,45,46,47,48,49,50,51,52,53,54,55,56,57,58,59,60,61,62,63,64,65,66,67,68,69,70,71,72,73,74,75,76,77,78,79,80,81,82,83,84,85,86,87,88,89,90,91,92,93,94,95,96,97,98,99,100,101,102,103,104,105,106,107,108,109,110,111,112,113,114,115,116,117,118,119,120,121,122,123,124,125,126,127,128,129,130,131,132,133,134,135,136,137,138,139,140,141,142,143,144,145,146,147,148,149,150,151,152,153,154,155,156,157,158,159,160,161,162,163,164,165,166,167,168,169,170,171,172,173,174,175,176,177,178,179,180,181,182,183,184,185,186,187,188,189,190,191,192,193,194,195,196,197,198,199,200,201,202,203,204,205,206,207,208,209,210,211,212,213,214,215,216,217,218,219,220,221,222,223,224,225,226,227,228,229,230,231,232,233,234,235,236,237,238,239,240,241,242,243,244,245,246,247,248,249,250,251,252,253,254,255,256,257,258,259,260,261,262,263,264,265,266,267,268,269,270,271,272,273,274,275,276,277,278,279,280,281,282,283,284,285,286,287,288,289,290,291,292,293,294,295,296,297,298,299,300,301,302,303,304,305,306,307,308,309,310,311,312,313,314,315,316,317,318,319,320,321,322,323,324,325,326,327,328,329,330,331,332,333,334,335,336,337,338,339,340,341,342,343,344,345,346,347,348,349,350,351,352,353,354,355,356,357,358,359,360,361,362,363,364,365,366,367,368,369,370,371,372,373,374,375,376,377,378,379,380,381,382,383,384,385,386,387,388,389,390,391,392,393,394,395,396,397,398,399,400,401,402,403,404,405,406,407,408,409,410,411,412,413,414,415,416,417,418,419,420,421,422,423,424,425,426,427,428,429,430,431,432,433,434,435,436,437,438,439,440,441,442,443,444,445,446,447,448,449,450,451,452,453,454,455,456,457,458,459,460,461,462,463,464,465,466,467,468,469,470,471,472,473,474,475,476,477,478,479,480,481,482,483,484,485,486,487,488,489,490,491,492,493,494,495,496,497,498,499,500,501,502,503,504,505,506,507,508,509,510,511,512,513,514,515,516,517,518,519,520,521,522,523,524,525,526,527,528,529,530,531,532,533,534,535,536,537,538,539,540,541,542,543,544,545,546,547,548,549,550,551,552,553,554,555,556,557,558,559,560,561,562,563,564,565,566,567,568,569,570,571,572,573,574,575,576,577,578,579,580,581,582,583,584,585,586,587,588,589,590,591,592,593,594,595,596,597,598,599,600,601,602,603,604,605,606,607,608,609,610,611,612,613,614,615,616,617,618,619,620,621,622,623,624,625,626,627,628,629,630,631,632,633,634,635,636,637,638,639,640,641,642,643,644,645,646,647,648,649,650,651,652,653,654,655,656,657,658,659,660,661,662,663,664,665,666,667,668,669,670,671,672,673,674,675,676,677,678,679,680,681,682,683,684,685,686,687,688,689,690,691,692,693,694,695,696,697,698,699,700,701,702,703,704,705,706,707,708,709,710,711,712,713,714,715,716,717,718,719,720,721,722,723,724,725,726,727,728,729,730,731,732,733,734,735,736,737,738,739,740,741,742,743,744,745,746,747,748,749,750,751,752,753,754,755,756,757,758,759,760,761,762,763,764,765,766,767,768,769,770,771,772,773,774,775,776,777,778,779,780,781,782,783,784,785,786,787,788,789,790,791,792,793,794,795,796,797,798,799,800,801,802,803,804,805,806,807,808,809,810,811,812,813,814,815,816,817,818,819,820,821,822,823,824,825,826,827,828,829,830,831,832,833,834,835,836,837,838,839,840,841,842,843,844,845,846,847,848,849,850,851,852,853,854,855,856,857,858,859,860,861,862,863,864,865,866,867,868,869,870,871,872,873,874,875,876,877,878,879,880,881,882,883,884,885,886,887,888,889,890,891,892,893,894,895,896,897,898,899,900,901,902,903,904,905,906,907,908,909,910,911,912,913,914,915,916,917,918,919,920,921,922,923,924,925,926,927,928,929,930,931,932,933,934,935,936,937,938,939,940,941,942,943,944,945,946,947,model_num,model_arch,poisoned
0,0.5799195170402527,-0.008392216637730598,-0.008392216637730598,-9.08066572149102e-19,-7.250874996185303,5.084301471710205,0.4464190602302551,0.13936637341976166,0.03102557361125946,0.1083407998085022,4.459723949432373,1.0000001192092896,0.5490742325782776,0.17761904001235962,-0.03798381984233856,0.21560285985469818,5.683809280395508,1.000000238418579,0.515354573726654,-0.00019871816039085388,0.017150290310382843,-0.017349008470773697,-0.05723083019256592,2.616010904312134,1.107409119606018,0.34871506690979004,0.054313868284225464,0.2944011986255646,11.158882141113281,1.0,1.1230124235153198,0.4959263801574707,-0.09561014175415039,0.5915365219116211,15.869644165039062,1.0,1.5258674621582031,-0.007078377529978752,-0.007078377529978752,2.407850901826148e-19,-3.624129295349121,7.576910018920898,0.5375106334686279,0.34736084938049316,0.024143636226654053,0.3232172131538391,5.557773590087891,1.0000001192092896,0.37464088201522827,0.03104434348642826,-0.0006192382425069809,0.03166358172893524,0.4967094957828522,1.0000003576278687,0.9831852912902832,0.003507651388645172,0.005193229764699936,-0.0016855786088854074,5.387752532958984,8.380541801452637,0.8536286354064941,0.22644168138504028,0.0634274035692215,0.1630142778158188,21.738401412963867,0.9999998807907104,0.8423439860343933,0.11788782477378845,-0.006668709218502045,0.1245565339922905,11.317231178283691,0.9999997019767761,0.4970685541629791,0.00467396667227149,-0.004999344702810049,0.00967331137508154,4.038307189941406,3.0330915451049805,0.3421729803085327,0.18577198684215546,-0.003761082887649536,0.189533069729805,17.834110260009766,1.0,0.7091052532196045,0.0839124545454979,0.08380445092916489,0.0001080026340787299,8.055595397949219,1.0,0.7258936166763306,0.0019486905075609684,-2.4990178644657135e-05,0.0019736806862056255,4.489782810211182,8.66591739654541,0.6036738157272339,0.3429196774959564,-0.01807919144630432,0.36099886894226074,8.230072021484375,1.0,0.5195382833480835,0.02770545892417431,0.015094962902367115,0.012610496021807194,0.6649309992790222,1.0,0.808729350566864,-0.0019460724433884025,0.0016946137184277177,-0.00364068616181612,-6.725626468658447,6.161652565002441,0.8153693079948425,0.19963191449642181,0.0424872487783432,0.1571446657180786,28.74699592590332,1.0,1.3225432634353638,0.09378039836883545,-0.019831374287605286,0.11361177265644073,13.504377365112305,0.9999997615814209,0.654197096824646,-0.005021080374717712,0.001381563488394022,-0.006402643863111734,-6.507320404052734,4.239261627197266,0.44214215874671936,0.19793514907360077,-0.011521726846694946,0.20945687592029572,28.502660751342773,1.0,0.9864698052406311,0.035914864391088486,0.07054728269577026,-0.03463241457939148,5.171740531921387,1.0,0.8009935021400452,-0.0019669937901198864,-0.0023981325794011354,0.00043113873107358813,-6.797930717468262,8.865981101989746,0.5769602060317993,0.33325669169425964,-0.02239641547203064,0.3556531071662903,7.998160362243652,1.0,0.34251782298088074,0.021932752802968025,0.0021868012845516205,0.019745951518416405,0.5263860821723938,1.000000238418579,0.8311735391616821,0.0012604326475411654,0.005463121458888054,-0.004202688578516245,4.35605525970459,8.914529800415039,1.1061112880706787,0.21257002651691437,0.02744022011756897,0.1851298063993454,30.610084533691406,1.0,0.6869820952415466,-0.04321642592549324,0.07299263775348663,-0.11620905995368958,-6.223165512084961,1.0,0.4018481969833374,0.01732027903199196,-0.007655050605535507,0.024975329637527466,22.447080612182617,1.4923157691955566,0.5161668062210083,0.19573943316936493,0.01237267255783081,0.18336676061153412,28.186477661132812,1.0,1.0416455268859863,0.18039129674434662,0.05430760979652405,0.12608368694782257,25.976346969604492,1.0,1.098966360092163,-0.0024364152923226357,-0.0010440461337566376,-0.001392369158565998,-11.227002143859863,10.569183349609375,0.7658970952033997,0.36952340602874756,0.02272316813468933,0.3468002378940582,11.824748992919922,1.000000238418579,0.5217704772949219,-0.031848736107349396,-0.005286745727062225,-0.02656199038028717,-1.0191595554351807,1.000000238418579,0.8967951536178589,-0.0024837814271450043,-0.0020513187628239393,-0.0004324627516325563,-15.260353088378906,7.496719837188721,0.7851760387420654,0.17714637517929077,0.05133940279483795,0.12580697238445282,34.01210403442383,1.0000001192092896,0.5500019192695618,0.06476163119077682,-0.002291269600391388,0.06705290079116821,12.434232711791992,1.0,0.5971603393554688,-0.01399614755064249,0.0037348242476582527,-0.017730971798300743,-24.18534278869629,4.062828540802002,0.49092230200767517,0.1542268544435501,0.013792634010314941,0.14043422043323517,29.611557006835938,1.0,0.8392584919929504,-0.02673560567200184,0.03755432367324829,-0.06428992748260498,-5.133236408233643,0.9999998807907104,0.8709309101104736,-8.177633390005212e-06,0.0007518005440942943,-0.0007599781965836883,-0.050243377685546875,11.043135643005371,0.5588222742080688,0.1893361657857895,0.009378328919410706,0.17995783686637878,6.058757305145264,1.0,0.3779290020465851,-0.03171949088573456,0.03595138341188431,-0.06767087429761887,-1.0150237083435059,1.0,0.8251853585243225,0.0003854134993162006,-7.636391092091799e-05,0.0004617774102371186,2.367980480194092,9.445377349853516,0.8035008907318115,0.18814297020435333,0.04541642963886261,0.14272654056549072,36.123451232910156,1.0,0.3455185890197754,0.02155085653066635,-0.002804223448038101,0.024355079978704453,4.1377644538879395,1.0,0.5628870725631714,-0.004793254192918539,0.005524985026568174,-0.010318239219486713,-8.282743453979492,4.864948749542236,0.5343373417854309,0.18554723262786865,0.008583948016166687,0.17696328461170197,35.62506866455078,1.000000238418579,0.664459764957428,-0.0631965845823288,0.01609833538532257,-0.07929491996765137,-12.133744239807129,1.000000238418579,0.7300330996513367,-5.490336843649857e-05,-0.0007770768133923411,0.0007221734267659485,-0.3373262882232666,8.958250045776367,0.5902040600776672,0.19993537664413452,0.011061862111091614,0.1888735145330429,6.397932052612305,1.0,0.35687416791915894,-0.020621858537197113,0.05793511122465134,-0.07855696976184845,-0.6598994731903076,1.0,1.2142624855041504,0.0030896011739969254,-0.001375899650156498,0.004465500824153423,18.98250961303711,11.609001159667969,0.7581766843795776,0.15085777640342712,0.01200777292251587,0.13885000348091125,28.964693069458008,0.9999998807907104,0.6864092350006104,-0.09220245480537415,0.032106198370456696,-0.12430865317583084,-17.702871322631836,1.000000238418579,0.46381163597106934,0.013634197413921356,0.012513226829469204,0.0011209705844521523,23.559892654418945,1.5281776189804077,0.5072169899940491,0.15052872896194458,0.015703290700912476,0.1348254382610321,28.90151596069336,1.0,1.2447861433029175,0.2093803882598877,0.07922236621379852,0.13015802204608917,40.20103454589844,1.0,0.8972621560096741,-0.0037779833655804396,-0.0009276291821151972,-0.0028503541834652424,-46.423858642578125,10.693319320678711,0.6270459890365601,0.32876649498939514,0.01961570978164673,0.3091507852077484,21.04105567932129,1.000000238418579,0.4872089624404907,0.02105310559272766,0.032270558178424835,-0.011217453517019749,1.3473987579345703,1.0,0.8884148001670837,-0.0011900741374120116,-0.0009128525853157043,-0.00027722158120013773,-29.24726104736328,4.109455585479736,0.6871014833450317,0.10224821418523788,0.03920686990022659,0.06304134428501129,39.26331329345703,1.0000001192092896,1.0505874156951904,0.046351831406354904,-0.006975043565034866,0.05332687497138977,17.799102783203125,1.000000238418579,0.6772750020027161,-0.020071029663085938,-0.008650539442896843,-0.011420490220189095,-69.365478515625,4.038074493408203,0.7116115689277649,0.09008588641881943,0.06709930300712585,0.022986583411693573,34.592979431152344,1.0,0.5574438571929932,-0.05508667230606079,0.006611771881580353,-0.061698444187641144,-21.153282165527344,1.0,1.1959500312805176,0.001299746916629374,0.0008661417523398995,0.0004336051642894745,31.942581176757812,2.6006968021392822,0.5384024977684021,0.09696175158023834,0.02404734492301941,0.07291440665721893,6.205552101135254,1.000000238418579,0.5412337183952332,0.017509594559669495,0.009001527912914753,0.008508066646754742,1.1206140518188477,0.9999998807907104,0.789459764957428,-5.272710041026585e-05,0.00021045039466116577,-0.00026317749870941043,-1.295821189880371,5.532434463500977,0.9313515424728394,0.1115747019648552,0.04365858435630798,0.06791611760854721,42.84468460083008,1.0,1.0788954496383667,0.02247137576341629,0.00027605146169662476,0.022195324301719666,8.629008293151855,1.0,0.6733629703521729,-0.008957943879067898,-0.004257848486304283,-0.004700095392763615,-30.95865249633789,4.6224589347839355,0.9794862270355225,0.09416020661592484,0.06618084758520126,0.027979359030723572,36.15752029418945,1.0000001192092896,0.5723892450332642,-0.03641388937830925,0.02185099571943283,-0.05826488509774208,-13.982933044433594,1.0000001192092896,1.192670226097107,-0.0003871738736052066,-0.0003871738736052066,7.183829486140381e-12,-9.515185356140137,2.79106068611145,0.5281609892845154,0.11110389232635498,0.03956283628940582,0.07154105603694916,7.110649108886719,1.0,0.4714180827140808,0.03704160451889038,-0.008751273155212402,0.04579287767410278,2.3706626892089844,1.0,0.9948952198028564,-0.0006724909762851894,-0.00021208199905231595,-0.00046040897723287344,-16.527137756347656,6.23235559463501,0.7052476406097412,0.09984331578016281,0.03695041686296463,0.06289289891719818,38.3398323059082,1.0,0.42406824231147766,-0.004105264786630869,-0.001263688551262021,-0.002841576235368848,-1.5764216184616089,1.0,0.5787437558174133,-0.005035722628235817,-0.0014715963043272495,-0.0035641263239085674,-17.403457641601562,3.5291264057159424,0.8222764134407043,0.09033700823783875,0.05768194794654846,0.03265506029129028,34.68941116333008,1.0000003576278687,0.46998876333236694,-0.04722753167152405,0.013995759189128876,-0.061223290860652924,-18.135372161865234,0.9999998211860657,1.3740357160568237,0.0012253600871190429,0.0004894376615993679,0.000735922425519675,30.11444854736328,2.253204822540283,0.7966445088386536,0.0919763445854187,0.04018039628863335,0.051795948296785355,5.886486053466797,0.9999998807907104,0.40839576721191406,0.002001088112592697,-0.0023008850403130054,0.004301973152905703,0.12806963920593262,1.0,1.0597963333129883,-0.0027564812917262316,-0.0005203401669859886,-0.002236141124740243,-67.7432861328125,17.771581649780273,0.8766424059867859,0.22373361885547638,0.037321195006370544,0.18641242384910583,85.91371154785156,1.0,1.0295484066009521,-0.019753847271203995,0.019082527607679367,-0.03883637487888336,-7.585477352142334,1.0,0.8500086665153503,-0.005563263315707445,0.00836598314344883,-0.013929245993494987,-19.226638793945312,2.3578107357025146,0.5931003093719482,0.15030162036418915,0.0020599812269210815,0.14824163913726807,57.715824127197266,0.9999998807907104,0.7419282793998718,0.06375451385974884,0.06743968278169632,-0.00368516962043941,24.481733322143555,1.0,1.037624478340149,-0.0012747063301503658,-0.001196480356156826,-7.822597399353981e-05,-46.99077224731445,13.504608154296875,0.8167328238487244,0.27732187509536743,0.032354146242141724,0.2449677288532257,26.622900009155273,1.000000238418579,0.5141925811767578,0.0029859428759664297,0.023217501118779182,-0.02023155800998211,0.28665050864219666,1.0000001192092896,0.9072305560112,-0.0005011550383642316,-0.0003895676927641034,-0.00011158733832417056,-27.711868286132812,5.2675604820251465,0.9827741980552673,0.10605481266975403,0.03729379177093506,0.06876102089881897,61.08757400512695,1.000000238418579,0.7115980982780457,-0.006894474383443594,0.006570697296410799,-0.013465171679854393,-3.971217155456543,1.0,0.6155025959014893,-0.009629033505916595,-0.0015626829117536545,-0.008066350594162941,-49.916908264160156,4.115050315856934,1.1333621740341187,0.08476191759109497,0.053981877863407135,0.030780039727687836,48.8228645324707,1.0,0.5081748366355896,-0.05078442394733429,0.018819071352481842,-0.06960349529981613,-29.251827239990234,1.0,1.4212522506713867,0.00043354486115276814,0.000346535089192912,8.700977923581377e-05,23.973297119140625,3.869382381439209,0.36548858880996704,0.08442870527505875,0.02510083094239235,0.0593278743326664,8.105155944824219,1.000000238418579,0.6329418420791626,-0.0019977111369371414,0.013204448856413364,-0.015202159993350506,-0.19178026914596558,0.9999998211860657,1.0150322914123535,0.0002731831045821309,0.0004669910704251379,-0.00019380796584300697,15.10593318939209,7.736448764801025,1.0166205167770386,0.09654206782579422,0.03640466183423996,0.06013740599155426,55.60823059082031,1.000000238418579,0.9739517569541931,-0.0316496342420578,0.0022479556500911713,-0.03389758989214897,-18.23019027709961,1.000000238418579,0.706204354763031,-0.003679056651890278,0.0011166073381900787,-0.004795663990080357,-19.072229385375977,4.633285999298096,1.3583872318267822,0.08383059501647949,0.05401308089494705,0.02981751598417759,48.28642272949219,1.000000238418579,0.4409635365009308,-0.0591781884431839,0.010285429656505585,-0.06946361809968948,-34.08663558959961,0.9999998211860657,1.121898889541626,0.001145840622484684,0.000770952960010618,0.000374887662474066,63.36040115356445,6.112956523895264,0.457584947347641,0.11456633359193802,0.04168920964002609,0.07287712395191193,10.998368263244629,1.0,0.4563118815422058,0.0057113501243293285,0.004834399558603764,0.0008769506239332259,0.5482895970344543,1.0000001192092896,0.9362443685531616,0.0006506838253699243,1.5648489352315664e-05,0.0006350353360176086,35.9802131652832,9.777664184570312,0.7974813580513,0.09958028793334961,0.014440007507801056,0.08514028042554855,57.358245849609375,1.0,0.5439037680625916,-0.10886199027299881,0.016015127301216125,-0.12487711757421494,-62.704505920410156,1.0,0.5462774038314819,0.004028760362416506,0.0029885503463447094,0.0010402100160717964,20.885093688964844,1.5918859243392944,0.7225311398506165,0.08437273651361465,0.03914277255535126,0.0452299639582634,48.598697662353516,1.0,0.916181743144989,0.11106403917074203,0.11178839951753616,-0.0007243567379191518,63.97288513183594,1.000000238418579,1.9479482173919678,-0.0002761180221568793,-0.00033021732815541327,5.409931327449158e-05,-25.447036743164062,7.757340431213379,0.634292721748352,0.21352779865264893,-0.002661585807800293,0.21618938446044922,34.16444778442383,1.0,0.4381578266620636,0.027433767914772034,0.003992155194282532,0.023441612720489502,4.389402866363525,1.0,1.2600551843643188,0.00014690420357510448,-0.00015212607104331255,0.000299030274618417,22.564485549926758,5.319061756134033,0.7710255980491638,0.09905587136745453,0.04116949066519737,0.057886380702257156,95.09363555908203,1.0,0.5952546000480652,0.011615317314863205,-0.016664639115333557,0.028279956430196762,11.150704383850098,1.000000238418579,0.8082365989685059,-0.011739624664187431,-0.0033952733501791954,-0.008344351314008236,-101.43035888671875,4.181785583496094,1.4552881717681885,0.07379679381847382,0.0453692302107811,0.02842756174504757,70.84492492675781,1.0,0.600793719291687,-0.055913250893354416,0.015049140900373459,-0.07096239179372787,-53.676719665527344,1.0,1.4845097064971924,-0.0005759280757047236,-0.0005074825021438301,-6.844559538876638e-05,-88.46255493164062,1.862148642539978,0.5547769069671631,0.05517271161079407,0.04043936729431152,0.014733346179127693,8.82763385772705,0.9999998211860657,0.5067208409309387,0.02993744984269142,-0.00820978358387947,0.03814723342657089,4.789991855621338,1.0000004768371582,1.4061957597732544,0.00022169560543261468,-5.212010000832379e-05,0.00027381570544093847,34.05244445800781,5.880781173706055,0.7170714139938354,0.07954671233892441,0.024295970797538757,0.05525074154138565,76.3648452758789,1.000000238418579,0.2687505781650543,0.0019603369291871786,-0.010524982586503029,0.012485319748520851,1.8819235563278198,1.0,1.1064459085464478,-0.0024745299015194178,-0.000660622725263238,-0.0018139071762561798,-21.37993812561035,2.7904446125030518,1.1470919847488403,0.054506268352270126,0.02945149876177311,0.025054769590497017,52.326019287109375,1.0,0.5348522663116455,-0.09171320497989655,0.004815809428691864,-0.09652901440858841,-88.044677734375,1.0,1.6820600032806396,-0.0009649002458900213,-0.0009228218114003539,-4.207843085168861e-05,-148.20867919921875,1.4390084743499756,0.9178723096847534,0.08568938076496124,0.0789235383272171,0.0067658438347280025,13.71030044555664,0.9999998807907104,0.5158523321151733,0.0268551055341959,0.0008708294481039047,0.025984276086091995,4.296816825866699,0.9999997615814209,1.4782878160476685,0.0009014845127239823,0.0004883846268057823,0.00041309991502203047,138.468017578125,11.971183776855469,0.9850487112998962,0.12629589438438416,0.044698648154735565,0.08159724622964859,121.24406433105469,1.0,0.48972582817077637,-0.06121212616562843,0.0025031305849552155,-0.06371525675058365,-58.763641357421875,0.9999998807907104,0.857169508934021,-0.02358403429389,-0.006304793059825897,-0.017279241234064102,-203.76605224609375,2.5388011932373047,0.7047233581542969,0.08444365113973618,0.0459817610681057,0.03846189007163048,81.06590270996094,0.9999997615814209,0.7919187545776367,0.039198137819767,0.07797178626060486,-0.03877364471554756,37.630210876464844,1.000000238418579,1.4147082567214966,0.0015621236525475979,0.001207230961881578,0.0003548926906660199,479.8843994140625,5.889116287231445,0.7404627203941345,0.2323627769947052,0.007553458213806152,0.22480931878089905,74.35608673095703,1.0,0.5748377442359924,0.012767384760081768,0.009573294781148434,0.0031940899789333344,4.0855631828308105,0.9999998211860657,1.376868486404419,-0.0013235732913017273,0.00034910766407847404,-0.0016726809553802013,-542.1356201171875,14.460810661315918,0.7992544174194336,0.436085045337677,0.00933566689491272,0.4267493784427643,558.1888427734375,0.9999998807907104,-0.21675971150398254,-0.3589748442173004,-0.0020696818828582764,-0.35690516233444214,-459.48779296875,1.0,0.7535879611968994,-0.5381861925125122,-0.014320850372314453,-0.5238653421401978,-81287.640625,1.7921462059020996,0.15872885286808014,-0.12771941721439362,0.0030619949102401733,-0.1307814121246338,-15.070891380310059,0.9999998807907104,id-00000002,classification:mobilenet_v2,False
0,1.477904200553894,0.0016173364128917456,0.0016173364128917456,-7.830502787191399e-18,1.39737868309021,3.119065999984741,3.2481350898742676,0.7639265656471252,0.35237255692481995,0.4115540087223053,24.445650100708008,1.000000238418579,3.91878342628479,0.9153668880462646,-0.6276370286941528,1.5430039167404175,29.29174041748047,1.0000001192092896,2.026291847229004,0.017715249210596085,0.017715249210596085,1.9187703350892432e-17,5.101991653442383,2.7518484592437744,5.392548084259033,1.269363284111023,0.8795133829116821,0.3898499011993408,40.619625091552734,1.0,3.579375982284546,1.2129117250442505,-0.2539886236190796,1.46690034866333,38.813175201416016,1.0,1.6416614055633545,0.009087222628295422,0.009087222628295422,-3.549180235366096e-19,4.652657985687256,6.8268938064575195,4.312392711639404,3.370083808898926,0.09598684310913086,3.274096965789795,53.92134094238281,0.9999998211860657,0.14059479534626007,-0.0495910570025444,0.01598355919122696,-0.06557461619377136,-0.7934569120407104,1.0,0.8424583077430725,0.0010802379110828042,-0.0020696818828582764,0.0031499199103564024,1.659245491027832,7.253011226654053,9.052891731262207,1.1165512800216675,0.5065845251083374,0.6099667549133301,107.18891906738281,1.0,3.9968528747558594,0.8785486817359924,0.08366131782531738,0.794887363910675,84.3406753540039,1.0,0.4668401777744293,0.011022292077541351,0.005919282790273428,0.005103009287267923,9.523260116577148,2.3009884357452393,1.236341118812561,0.5222525000572205,0.01447916030883789,0.5077733397483826,50.1362419128418,1.0,3.8862392902374268,0.3726769685745239,0.32149800658226013,0.0511789545416832,35.7769889831543,0.9999998211860657,0.9053143262863159,0.00010239188122795895,0.0024363340344280005,-0.002333942102268338,0.23591089248657227,10.437233924865723,4.526601314544678,3.3634259700775146,-0.10242724418640137,3.465853214263916,80.72222137451172,1.0,0.17162925004959106,-0.013047133572399616,-0.019330257549881935,0.006283123977482319,-0.3131312131881714,1.0,0.7892025709152222,0.001897878129966557,-0.00016581651289016008,0.002063694642856717,6.5590667724609375,8.804428100585938,2.541947603225708,0.8452410697937012,0.12191617488861084,0.7233248949050903,121.71471405029297,1.0,3.3921468257904053,0.4728585481643677,-0.1835821270942688,0.6564406752586365,68.09162902832031,0.9999998211860657,0.9559959173202515,-0.0035466691479086876,0.005171548575162888,-0.008718217723071575,-4.59648323059082,2.4905316829681396,2.9079713821411133,0.6722447872161865,0.04181092977523804,0.6304338574409485,96.8032455444336,1.0,4.408681392669678,0.24539430439472198,0.3254058361053467,-0.0800115168094635,35.3367805480957,0.9999998807907104,0.6738677620887756,-0.002242178190499544,-0.001236946089193225,-0.0010052321013063192,-7.748968124389648,10.25207805633545,6.2089033126831055,3.051900625228882,0.10428071022033691,2.947619915008545,73.24561309814453,1.0,0.32032251358032227,0.0009036191622726619,0.028057700023055077,-0.02715408056974411,0.0216868594288826,1.0,1.0706144571304321,0.007719036657363176,0.0021596825681626797,0.005559354089200497,26.676990509033203,11.379274368286133,2.6479265689849854,1.0785645246505737,0.11795157194137573,0.960612952709198,155.31329345703125,1.0,3.791611671447754,0.039022862911224365,0.09407521039247513,-0.05505234748125076,5.619292259216309,1.0,0.4094318151473999,0.01868574321269989,-0.03619347885251045,0.05487922206521034,24.216724395751953,1.2991925477981567,2.3144075870513916,0.706142008304596,0.09897428750991821,0.6071677207946777,101.6844482421875,1.0000001192092896,3.267841339111328,0.39307332038879395,0.038360595703125,0.35471272468566895,56.60255813598633,1.000000238418579,0.8180379271507263,-0.0007555868942290545,0.0001641646958887577,-0.0009197515901178122,-3.4817442893981934,16.365156173706055,4.693872451782227,3.1996495723724365,-0.14101862907409668,3.340668201446533,102.38878631591797,0.9999998211860657,0.18455809354782104,-0.01360257901251316,0.011228037998080254,-0.024830617010593414,-0.43528252840042114,0.9999998807907104,0.5677089095115662,-0.0011891870526596904,-0.0006015943363308907,-0.0005875927163287997,-7.306365013122559,9.216739654541016,1.8323026895523071,0.6973806023597717,0.03223991394042969,0.665140688419342,133.89707946777344,1.0000001192092896,2.1600959300994873,0.5778535008430481,-0.16686654090881348,0.7447200417518616,110.94786834716797,0.9999998807907104,0.6660932302474976,-0.013134163804352283,0.016763512045145035,-0.029897674918174744,-22.69583511352539,2.2759366035461426,3.439105987548828,0.6973974108695984,0.10213202238082886,0.5952653884887695,133.90029907226562,1.000000238418579,2.537952184677124,-0.16716621816158295,0.006717011332511902,-0.17388322949409485,-32.09591293334961,0.9999997615814209,0.8966910243034363,-0.0016035400331020355,-0.0009434425737708807,-0.0006600974593311548,-9.852149963378906,11.644693374633789,4.796111583709717,1.7166262865066528,0.41053926944732666,1.3060870170593262,54.93204116821289,0.9999997019767761,0.13545843958854675,-0.022653065621852875,0.005048055201768875,-0.02770112082362175,-0.724898099899292,1.0000001192092896,0.5784754753112793,-0.0008329195552505553,0.0014054840430617332,-0.0022384035401046276,-5.117457866668701,10.967849731445312,1.541734218597412,0.7605295181274414,0.012219607830047607,0.7483099102973938,146.02166748046875,0.9999998211860657,1.917902946472168,0.3267781138420105,-0.11549288034439087,0.44227099418640137,62.741397857666016,1.0,0.6200945973396301,-0.00709581421688199,0.007625918369740248,-0.014721732586622238,-12.261567115783691,3.0584723949432373,5.358819961547852,0.8172041773796082,0.12051838636398315,0.696685791015625,156.9031982421875,1.0,2.310845375061035,-0.45397233963012695,-0.10422021150588989,-0.34975212812423706,-87.16268920898438,1.0,0.628609299659729,-0.0035196831449866295,0.00029318686574697495,-0.0038128700107336044,-21.62493324279785,10.438042640686035,7.973935127258301,1.7341818809509277,0.47511208057403564,1.259069800376892,55.49382019042969,1.000000238418579,0.15414060652256012,-0.030335864052176476,0.010007394477725029,-0.040343258529901505,-0.9707476496696472,0.9999998211860657,0.7960019111633301,0.009045268408954144,-0.0008057346567511559,0.0098510030657053,55.574127197265625,12.844522476196289,1.687939167022705,0.8231422901153564,0.041075706481933594,0.7820665836334229,158.04331970214844,1.0000001192092896,1.5524873733520508,-0.288666307926178,-0.008679717779159546,-0.27998659014701843,-55.42393112182617,0.9999998211860657,0.36359328031539917,0.005820559337735176,-0.001820495817810297,0.007641055155545473,10.057926177978516,1.2866863012313843,1.463012933731079,0.5835151076316833,0.053539395332336426,0.5299757122993469,112.03490447998047,0.9999998211860657,3.428382396697998,0.8750700950622559,0.3709314465522766,0.5041386485099792,168.01345825195312,1.0,0.9052863717079163,0.00281689316034317,-0.0002335116732865572,0.0030504048336297274,34.613983154296875,22.528921127319336,4.146786689758301,2.69287371635437,0.14999985694885254,2.5428738594055176,172.3439178466797,1.000000238418579,0.23109585046768188,-0.022413121536374092,0.0020889174193143845,-0.024502038955688477,-1.434439778327942,0.9999998211860657,0.5680643916130066,0.00034949913970194757,0.00034962964127771556,-1.305127597106548e-07,8.589290618896484,11.165319442749023,1.667043685913086,0.6154768466949463,0.02177715301513672,0.5936996936798096,236.34310913085938,1.0,1.972362995147705,0.41515472531318665,-0.2175610363483429,0.6327157616615295,159.41941833496094,1.0000001192092896,0.5642285943031311,-0.015353037975728512,0.006056881509721279,-0.02140991948544979,-53.06010055541992,3.85312819480896,5.035683631896973,0.7657597661018372,0.11845093965530396,0.6473088264465332,294.0517578125,1.0,1.9265388250350952,-0.3397890627384186,-0.08194050192832947,-0.2578485608100891,-130.47900390625,1.0,0.6244807243347168,-0.000677670119330287,-0.0006769746541976929,-6.95447795351356e-07,-16.654420852661133,14.108388900756836,4.89484977722168,1.2672030925750732,0.26340246200561523,1.003800630569458,81.10099792480469,1.0,0.25848516821861267,-0.012513899244368076,0.005986805073916912,-0.01850070431828499,-0.8008895516395569,1.0,0.8383923172950745,0.0009696108754724264,0.0005720290937460959,0.0003975817817263305,23.82915687561035,12.742107391357422,1.775526762008667,0.6535261273384094,-0.0029821395874023438,0.6565082669258118,250.95404052734375,1.0000001192092896,1.3447448015213013,0.15326657891273499,-0.02495059370994568,0.17821717262268066,58.854366302490234,1.000000238418579,0.5857398509979248,0.0009379966650158167,0.004994960501790047,-0.004056963603943586,3.2417163848876953,2.6502976417541504,5.061753749847412,0.6940398216247559,0.053673624992370605,0.6403661966323853,266.51129150390625,1.0,2.505646228790283,-0.3570576012134552,-0.02029547095298767,-0.33676213026046753,-137.11012268066406,1.0,0.9779844880104065,-0.0007061688229441643,-0.0007061687647365034,-3.190788258611299e-11,-17.35480499267578,12.213415145874023,3.029367208480835,1.3775912523269653,0.2560245990753174,1.121566653251648,88.16584014892578,1.0,0.23362289369106293,-0.008770432323217392,0.0018636547029018402,-0.010634087026119232,-0.5613076686859131,1.0000001192092896,0.594938337802887,-0.0009894095128402114,-0.0012295519700273871,0.00024014247173909098,-24.31572723388672,15.831391334533691,1.1637811660766602,0.643460214138031,-0.0036437511444091797,0.6471039652824402,247.08871459960938,0.9999998807907104,1.3282196521759033,0.010947602801024914,0.07584580034017563,-0.06489820033311844,4.203879356384277,1.0,0.5398411750793457,0.006034967955201864,0.0076754530891776085,-0.0016404850175604224,20.856849670410156,2.4961514472961426,3.633887767791748,0.6010770797729492,0.09185624122619629,0.5092208385467529,230.8135986328125,0.9999998211860657,2.0360262393951416,-0.4138830006122589,-0.09206590056419373,-0.3218171000480652,-158.9310760498047,0.9999998211860657,0.5645713806152344,-0.00017964774451684207,-0.0005628924700431526,0.00038324474007822573,-4.415022850036621,10.308246612548828,4.377011775970459,1.376236915588379,0.5129417181015015,0.8632951974868774,88.07916259765625,1.0,0.15793630480766296,-0.007456459105014801,-0.005731968674808741,-0.0017244905466213822,-0.47721338272094727,1.0,0.6955660581588745,-0.0037918707821518183,-0.00019701523706316948,-0.003594855545088649,-93.18901824951172,23.673131942749023,1.4310898780822754,0.7609567642211914,0.002251744270324707,0.7587050199508667,292.2073974609375,1.000000238418579,2.212642192840576,0.08156375586986542,0.11027263104915619,-0.02870887890458107,31.32048225402832,1.0,0.7600437998771667,-0.009412205778062344,0.010177385993301868,-0.019589591771364212,-32.52858352661133,1.5063832998275757,2.195793867111206,0.5390738844871521,0.02963733673095703,0.5094365477561951,207.00437927246094,1.0000001192092896,3.0076870918273926,0.3287046253681183,0.2015005201101303,0.12720410525798798,126.22257995605469,1.0,0.6074471473693848,0.0010738433338701725,-0.0009011684451252222,0.0019750117789953947,39.586158752441406,23.715017318725586,3.6056478023529053,2.159581422805786,0.18101179599761963,1.9785696268081665,207.31982421875,1.000000238418579,0.2711290121078491,0.008247170597314835,0.003655519336462021,0.004591651260852814,0.7917283773422241,1.0,0.4975922703742981,-0.001299522235058248,0.00048114312812685966,-0.0017806653631851077,-71.85838317871094,11.914045333862305,2.225489616394043,0.6786263585090637,-0.0017206668853759766,0.6803470253944397,390.8887939453125,1.0,1.6521930694580078,-0.07513856887817383,0.10812090337276459,-0.18325947225093842,-43.279815673828125,0.9999998211860657,0.5157394409179688,-0.004895573016256094,0.006922429893165827,-0.01181800290942192,-25.378650665283203,4.1921892166137695,4.3314642906188965,0.6570250391960144,0.04028809070587158,0.6167369484901428,378.4464111328125,1.000000238418579,2.960026741027832,-0.3402736186981201,0.09969323873519897,-0.4399668574333191,-195.9976043701172,0.9999998211860657,0.5003286004066467,-0.001243585254997015,-0.0002755458699539304,-0.0009680393850430846,-68.76528930664062,11.195040702819824,2.2298123836517334,1.0788235664367676,-0.06203484535217285,1.1408584117889404,103.56706237792969,1.0,0.2403031885623932,0.004945868160575628,0.005646305158734322,-0.0007004370563663542,0.4748033285140991,1.0,0.5190320014953613,-0.0005178323481231928,-6.957270670682192e-05,-0.00044825964141637087,-28.634057998657227,12.403108596801758,1.5358549356460571,0.6506508588790894,-0.005552768707275391,0.6562036275863647,374.77490234375,1.0,1.4194352626800537,-0.2112809419631958,0.10622701048851013,-0.31750795245170593,-121.69782257080078,1.0,0.5667416453361511,0.006041007116436958,0.008325241506099701,-0.00228423485532403,31.316579818725586,3.2507097721099854,3.9009783267974854,0.5448305606842041,0.06205323338508606,0.48277732729911804,313.8224182128906,1.0,2.806321620941162,-0.36707720160484314,0.10124558210372925,-0.4683227837085724,-211.43646240234375,1.0,0.4582855701446533,0.0007016125018708408,0.00020413176389411092,0.0004974807379767299,38.796363830566406,9.782225608825684,2.8253960609436035,1.2309699058532715,0.034993886947631836,1.1959760189056396,118.17311096191406,1.0000001192092896,0.2301385998725891,0.007853484712541103,0.002110960427671671,0.0057425242848694324,0.7539345026016235,0.9999998211860657,0.6856555938720703,0.00022019667085260153,-0.0010575649794191122,0.0012777616502717137,12.175994873046875,16.692522048950195,1.1952502727508545,0.7578627467155457,0.004118621349334717,0.7537441253662109,436.5289306640625,1.0,2.324431896209717,-0.698531448841095,0.08750176429748535,-0.7860332131385803,-402.3541259765625,1.000000238418579,0.5543923377990723,0.01762508600950241,-0.02061178907752037,0.03823687508702278,91.36844635009766,1.2881776094436646,1.418636441230774,0.38891634345054626,0.04008835554122925,0.348827987909317,224.01580810546875,1.0,3.0430381298065186,0.646313488483429,0.4513758420944214,0.19493766129016876,372.2765808105469,1.0,0.7115827798843384,0.0005218853475525975,-0.0002986999461427331,0.0008205852936953306,48.096954345703125,17.917184829711914,2.9338510036468506,1.6366344690322876,0.10550105571746826,1.5311334133148193,261.86151123046875,1.000000238418579,0.22707626223564148,-0.010107073001563549,-0.009455043822526932,-0.0006520291208289564,-1.6171317100524902,1.000000238418579,0.4435980021953583,0.0004652036295738071,9.471006342209876e-05,0.00037049356615170836,71.45527648925781,7.414690971374512,1.9762190580368042,0.5942203998565674,0.006109356880187988,0.5881110429763794,570.4515991210938,1.0,1.3571088314056396,0.22692498564720154,-0.12225690484046936,0.3491818904876709,217.84799194335938,1.000000238418579,0.5886995792388916,-0.014650527387857437,0.005538245663046837,-0.020188773050904274,-126.58055877685547,3.588860034942627,3.8981499671936035,0.6187375783920288,0.05839437246322632,0.5603432059288025,593.9880981445312,1.0,1.8995440006256104,-0.5356913805007935,-0.05700749158859253,-0.4786838889122009,-514.2637329101562,1.0,0.7941664457321167,0.003540395526215434,0.00021313014440238476,0.0033272653818130493,543.8047485351562,4.099915981292725,3.1056675910949707,1.0613844394683838,0.1448400616645813,0.9165443778038025,169.82150268554688,1.0,0.25404003262519836,-0.01888074353337288,0.004955030977725983,-0.02383577451109886,-3.020918846130371,1.0000001192092896,0.7753687500953674,0.001216546050272882,5.8687408454716206e-05,0.0011578586418181658,186.86146545410156,9.683655738830566,1.7502052783966064,0.6197291612625122,-0.005848884582519531,0.6255780458450317,594.9400024414062,1.000000238418579,1.9796212911605835,0.03791453316807747,0.06950798630714417,-0.0315934494137764,36.397953033447266,1.0,0.5348642468452454,0.001201989478431642,0.00417051138356328,-0.0029685217887163162,10.385189056396484,2.552403450012207,6.937519550323486,0.584902822971344,0.07827895879745483,0.5066238641738892,561.5067138671875,1.0000003576278687,2.2018134593963623,-0.7855364680290222,-0.0077571868896484375,-0.7777792811393738,-754.114990234375,1.0,0.6054801344871521,0.00026227463968098164,-8.025002898648381e-06,0.00027029964257963,40.28538513183594,3.061004877090454,3.501281976699829,1.2575931549072266,0.16131556034088135,1.0962775945663452,201.21490478515625,1.0,0.24492675065994263,-0.002791589591652155,0.00015584612265229225,-0.002947435714304447,-0.4466543197631836,1.0,0.5277106165885925,0.0006772684282623231,0.00023653038078919053,0.0004407380474731326,104.02843475341797,17.506425857543945,1.8965891599655151,0.6921037435531616,0.013002932071685791,0.6791008114814758,664.4196166992188,1.0,1.7155120372772217,-0.37731656432151794,0.10887634754180908,-0.486192911863327,-362.2239074707031,1.000000238418579,0.5849130749702454,0.0003121845074929297,0.004028123803436756,-0.0037159391213208437,2.6972742080688477,2.039539098739624,2.261629343032837,0.5939673781394958,0.05340069532394409,0.5405666828155518,570.2086791992188,0.9999998211860657,2.782543420791626,0.1444186419248581,0.23870354890823364,-0.09428489953279495,138.6418914794922,1.0000001192092896,0.8173840641975403,0.0009988422971218824,-0.00014800438657402992,0.0011468466836959124,306.8443603515625,9.451807975769043,3.8414931297302246,1.3434332609176636,0.05994904041290283,1.2834842205047607,429.8986511230469,1.0,0.3400464951992035,-0.0021888960618525743,-0.004393556155264378,0.002204660326242447,-0.7004467248916626,1.0,0.5760769248008728,-0.0014839429641142488,0.00028920231852680445,-0.0017731452826410532,-607.8230590820312,11.992833137512207,2.704960346221924,2.2419135570526123,-0.02369999885559082,2.265613555908203,2869.6494140625,0.9999998211860657,-1.6561548709869385,-2.9446983337402344,0.05532717704772949,-3.000025510787964,-3769.2138671875,1.0000001192092896,0.34417280554771423,-0.2764683961868286,-0.023971080780029297,-0.2524973154067993,-23709.9296875,1.90702223777771,0.12076295167207718,-0.06703134626150131,0.00815175473690033,-0.07518310099840164,-4.491100311279297,1.0,id-00000009,classification:mobilenet_v2,False
0,2.377995491027832,-0.02751387096941471,-0.018023420125246048,-0.009490449912846088,-23.771984100341797,4.201810836791992,4.674265384674072,0.8843659162521362,0.4701664447784424,0.41419947147369385,28.29970932006836,1.000000238418579,6.501802921295166,1.6896418333053589,-0.30635499954223633,1.9959968328475952,54.068538665771484,1.000000238418579,3.44063663482666,0.026967328041791916,0.026967328041791916,3.254672483754426e-17,7.766590595245361,2.933922290802002,7.577444553375244,1.7480696439743042,1.1668583154678345,0.5812113285064697,55.938228607177734,1.0,5.91037654876709,1.8475466966629028,-0.4345172643661499,2.2820639610290527,59.12149429321289,1.0000001192092896,3.290696144104004,-0.011942753568291664,-0.011942753568291664,-3.672368004692979e-18,-6.114689826965332,5.397496223449707,6.265406608581543,5.149364948272705,0.08967256546020508,5.0596923828125,82.38983917236328,0.9999998807907104,0.8617891073226929,-0.13064919412136078,-0.015621207654476166,-0.11502798646688461,-2.0903871059417725,1.0,2.0899269580841064,0.016973761841654778,0.0044065359979867935,0.012567225843667984,26.071699142456055,5.739049911499023,13.984918594360352,1.5592784881591797,0.74892258644104,0.8103559017181396,149.69073486328125,1.000000238418579,6.3800764083862305,1.3977891206741333,0.011283636093139648,1.3865054845809937,134.18775939941406,1.0,1.3073439598083496,0.03684234619140625,-0.014663871377706528,0.05150621756911278,31.831787109375,2.2341597080230713,2.2486071586608887,0.7162265777587891,0.08842730522155762,0.6277992725372314,68.75775146484375,1.0000001192092896,5.736477375030518,0.5603033900260925,0.36914485692977905,0.19115854799747467,53.78912353515625,1.0,2.265932321548462,-0.002026389818638563,0.013282222673296928,-0.015308612026274204,-4.668802261352539,10.121764183044434,7.517739295959473,5.397716522216797,-0.26226186752319336,5.65997838973999,129.54519653320312,1.0,1.1888880729675293,0.1467479020357132,0.11188873648643494,0.03485916554927826,3.5219497680664062,1.0,3.107079267501831,0.003986505325883627,-8.784700185060501e-06,0.0039952900260686874,13.777362823486328,9.15290355682373,4.8238606452941895,1.293654441833496,0.1828773021697998,1.1107771396636963,186.28623962402344,1.0,5.947264671325684,0.7857599258422852,-0.05390089750289917,0.8396608233451843,113.14942932128906,1.000000238418579,2.469609260559082,0.005434116814285517,0.016637861728668213,-0.011203745380043983,7.0426154136657715,2.9081594944000244,4.464282512664795,1.05059814453125,0.059376418590545654,0.9912217259407043,151.2861328125,0.9999999403953552,6.227200508117676,0.32378149032592773,0.5381588935852051,-0.21437737345695496,46.624534606933594,1.0,2.5332438945770264,-0.007337253075093031,-0.00892043486237526,0.0015831822529435158,-25.357545852661133,7.718286037445068,9.588872909545898,5.310585021972656,0.1396322250366211,5.170952796936035,127.45404052734375,0.9999998211860657,1.3808238506317139,0.18431322276592255,-0.013432219624519348,0.1977454423904419,4.423517227172852,1.0,2.3756299018859863,0.011608087457716465,0.009124168194830418,0.0024839190300554037,40.117549896240234,9.900223731994629,4.585155487060547,1.5738208293914795,0.17111265659332275,1.4027081727981567,226.6302032470703,1.0000003576278687,6.6152262687683105,-0.04527851939201355,0.25004056096076965,-0.2953190803527832,-6.520106792449951,1.000000238418579,1.194164514541626,0.053013984113931656,-0.08554497361183167,0.13855895400047302,68.70612335205078,1.340577483177185,3.5844602584838867,1.1359784603118896,0.1505066156387329,0.9854718446731567,163.58090209960938,0.9999998807907104,4.930253028869629,0.5959821939468384,0.0889241099357605,0.5070580840110779,85.8214340209961,1.0,2.9192161560058594,-0.006685228552669287,0.005033138673752546,-0.011718367226421833,-30.805532455444336,14.196206092834473,8.766940116882324,5.170139789581299,-0.12708282470703125,5.29722261428833,165.44447326660156,0.9999998807907104,1.1019411087036133,0.2079370617866516,0.05760824680328369,0.15032881498336792,6.653985977172852,1.0000001192092896,1.9518622159957886,-0.000588822818826884,-0.0008787922561168671,0.0002899694663938135,-3.617727279663086,11.492396354675293,3.2701027393341064,1.1215585470199585,0.05579864978790283,1.0657598972320557,215.3392333984375,0.9999997615814209,3.8500335216522217,0.9048473834991455,-0.23567593097686768,1.1405233144760132,173.73069763183594,1.000000238418579,1.6978302001953125,-0.0517110601067543,0.03912453353404999,-0.09083559364080429,-89.3567123413086,2.9671034812927246,5.441266059875488,1.2333025932312012,0.07650244235992432,1.1568001508712769,236.79409790039062,0.9999997615814209,4.890056610107422,-0.3981912136077881,0.10223078727722168,-0.5004220008850098,-76.45271301269531,1.0,2.0310769081115723,0.00627014460042119,0.004090507980436087,0.0021796366199851036,38.52376937866211,11.097176551818848,7.916778564453125,2.834569215774536,0.542177677154541,2.292391538619995,90.70621490478516,1.0,1.0545200109481812,0.141983300447464,0.07002593576908112,0.07195736467838287,4.543465614318848,1.0,2.129039764404297,0.00467329565435648,-0.0014093047939240932,0.006082600448280573,28.71272850036621,10.592269897460938,2.8363704681396484,1.1944938898086548,0.0599900484085083,1.1345038414001465,229.3428192138672,1.000000238418579,3.5088305473327637,0.5006867051124573,-0.1963762640953064,0.6970629692077637,96.13184356689453,1.0,2.0609495639801025,-0.030184222385287285,0.024721557274460793,-0.05490577965974808,-52.1583366394043,3.3971152305603027,8.622464179992676,1.4065345525741577,0.20622575283050537,1.2003087997436523,270.05462646484375,1.0,4.009631156921387,-0.8161728382110596,-0.13839149475097656,-0.677781343460083,-156.70518493652344,0.9999998211860657,1.7891175746917725,-0.0076025668531656265,-0.004765226971358061,-0.0028373398818075657,-46.71017074584961,10.835506439208984,13.712456703186035,2.935875177383423,0.7370941638946533,2.1987810134887695,93.94800567626953,1.0,0.9388242363929749,0.05630242079496384,-0.006109360605478287,0.06241178140044212,1.8016774654388428,1.000000238418579,3.2092604637145996,0.02333996631205082,-0.011174814775586128,0.03451478108763695,143.4007568359375,14.048014640808105,3.0161526203155518,1.1814875602722168,0.09663224220275879,1.084855318069458,226.84561157226562,1.0,2.7293076515197754,-0.6527692079544067,0.1758696436882019,-0.8286388516426086,-125.3316879272461,1.0,1.3212604522705078,0.021958788856863976,0.014394812285900116,0.007563976105302572,37.944786071777344,1.3038690090179443,2.468757390975952,0.8994954228401184,0.04695165157318115,0.8525437712669373,172.703125,1.0,5.7457146644592285,1.4834963083267212,0.5506101846694946,0.9328861236572266,284.831298828125,0.9999998807907104,3.4341514110565186,0.006406095344573259,-0.000994544941931963,0.007400640286505222,78.71810150146484,21.374027252197266,7.296480655670166,4.483429908752441,0.24747371673583984,4.235956192016602,286.93951416015625,1.0,1.1308201551437378,0.04527798667550087,-0.018353652209043503,0.06363163888454437,2.8977911472320557,1.0,2.066398859024048,-0.004685733933001757,0.0019279583357274532,-0.00661369226872921,-115.1565933227539,10.599005699157715,3.371441602706909,1.090572714805603,0.06009817123413086,1.0304745435714722,418.7799072265625,1.000000238418579,3.541761636734009,0.5860995650291443,-0.3153555989265442,0.9014551639556885,225.06222534179688,0.9999998807907104,1.948981523513794,-0.06424469500780106,0.033441849052906036,-0.09768654406070709,-222.02967834472656,4.519629955291748,8.527024269104004,1.2255710363388062,0.18455076217651367,1.0410202741622925,470.6192626953125,1.0,3.806811571121216,-0.7498448491096497,-0.07159668207168579,-0.6782481670379639,-287.9404296875,0.9999998807907104,2.30672287940979,-0.0024009710177779198,-0.0007030687993392348,-0.001697902218438685,-59.006263732910156,13.679850578308105,7.487637519836426,1.9787365198135376,0.4793466329574585,1.499389886856079,126.6391372680664,1.0,1.1313631534576416,-0.0016577653586864471,0.03645645081996918,-0.038114216178655624,-0.10609698295593262,1.0,2.5996077060699463,-0.0035391312558203936,-0.0035391312558203936,-5.6455361219232e-11,-86.97769165039062,11.872262001037598,2.87214994430542,1.0678693056106567,0.043657541275024414,1.0242117643356323,410.06182861328125,1.0,3.131807565689087,0.13642379641532898,0.04326634854078293,0.09315744787454605,52.38673782348633,1.0,1.9741358757019043,-0.005450941156595945,0.0075279767625033855,-0.012978917919099331,-18.83845329284668,4.0399699211120605,8.280376434326172,1.1270078420639038,0.14834880828857422,0.9786590337753296,432.77099609375,1.0,5.464670181274414,-0.7111021876335144,0.01836097240447998,-0.7294631600379944,-273.063232421875,1.0,2.9129345417022705,-0.00615674676373601,-0.0005262740887701511,-0.0056304726749658585,-151.30821228027344,11.436589241027832,4.805954933166504,2.0398054122924805,0.3701901435852051,1.6696152687072754,130.54754638671875,1.0,1.2859725952148438,0.024374190717935562,0.006741287186741829,0.017632903531193733,1.559948205947876,1.0,2.2645316123962402,-0.0011747798416763544,0.0010181393008679152,-0.0021929191425442696,-28.871389389038086,16.253576278686523,2.3884811401367188,1.0496264696121216,0.0010546445846557617,1.0485718250274658,403.05657958984375,1.0000003576278687,2.17187762260437,-0.046383086591959,0.147213414311409,-0.1935964971780777,-17.811105728149414,1.0,2.0236339569091797,0.014247070997953415,0.01588507369160652,-0.0016380029264837503,49.237876892089844,4.024637699127197,5.478971004486084,0.9779353141784668,0.11476832628250122,0.8631669878959656,375.52716064453125,1.0000003576278687,3.243607759475708,-0.8279388546943665,-0.15914267301559448,-0.668796181678772,-317.92852783203125,1.0,2.0864715576171875,0.004609251860529184,0.0036822017282247543,0.0009270502487197518,113.2769775390625,10.790202140808105,7.023377418518066,2.0489864349365234,0.5608437061309814,1.488142728805542,131.1351318359375,1.0,2.0699055194854736,-0.014339059591293335,0.13636966049671173,-0.15070872008800507,-0.9176998138427734,0.9999998807907104,2.9870660305023193,-0.009484588168561459,0.0021939072757959366,-0.011678495444357395,-233.09324645996094,22.923629760742188,2.9847259521484375,1.2051080465316772,0.06556856632232666,1.1395394802093506,462.7615051269531,1.000000238418579,3.4806056022644043,0.01685198023915291,0.19823336601257324,-0.18138138949871063,6.471160411834717,1.0,2.955193519592285,-0.013439624570310116,0.03073708340525627,-0.04417670890688896,-46.44734191894531,1.660549283027649,3.1475186347961426,0.9831270575523376,0.03555452823638916,0.9475725293159485,377.5207824707031,1.0,5.408503532409668,0.5159382224082947,0.29722386598587036,0.2187143713235855,198.12026977539062,1.0,2.4734482765197754,0.006120644044131041,-9.893486276268959e-05,0.00621957890689373,225.6314239501953,22.25898551940918,6.541531562805176,3.574230194091797,0.3648035526275635,3.2094266414642334,343.1260986328125,1.0,4.804505825042725,0.23761563003063202,-0.09522853791713715,0.33284416794776917,22.811100006103516,1.0,2.346644878387451,-0.001861542696133256,-0.000679063843563199,-0.001182478852570057,-102.93586730957031,11.19116497039795,3.3725311756134033,1.0926846265792847,0.04315626621246338,1.0495283603668213,629.3863525390625,0.9999998211860657,2.6291868686676025,-0.19334252178668976,0.14359210431575775,-0.3369346261024475,-111.36529541015625,1.000000238418579,2.295501708984375,-0.017401523888111115,0.01369563676416874,-0.031097160652279854,-90.2094955444336,4.604883193969727,7.03316593170166,1.1268930435180664,0.07300782203674316,1.0538852214813232,649.0903930664062,1.000000238418579,4.5256266593933105,-0.6415785551071167,0.1925312876701355,-0.8341098427772522,-369.54925537109375,1.0,4.3497796058654785,0.00019615294877439737,0.00014823468518443406,4.79182563140057e-05,10.846473693847656,9.112123489379883,3.2150354385375977,1.4800821542739868,0.010536789894104004,1.4695453643798828,142.087890625,1.000000238418579,4.743649005889893,0.26193976402282715,-0.13669508695602417,0.3986348509788513,25.146217346191406,0.9999998211860657,2.0924055576324463,0.00014100341650191694,0.00014100341650191694,1.1772292599836025e-15,7.796924591064453,12.600468635559082,3.321074962615967,1.0561044216156006,0.03835582733154297,1.0177485942840576,608.316162109375,1.000000238418579,2.502650737762451,-0.4356703460216522,0.13402405381202698,-0.5696943998336792,-250.9461212158203,1.0,2.5392754077911377,0.01519728172570467,0.023337282240390778,-0.008140001446008682,78.78270721435547,3.879755973815918,6.011997222900391,0.942617654800415,0.07215917110443115,0.8704584836959839,542.94775390625,1.0,4.515381336212158,-0.6612591743469238,0.18813961744308472,-0.8493987917900085,-380.8852844238281,1.0,2.591618061065674,0.004067673813551664,-0.000571057666093111,0.004638731479644775,224.92608642578125,9.482942581176758,4.655998229980469,1.8155063390731812,0.13581252098083496,1.6796938180923462,174.28860473632812,1.000000238418579,4.062277793884277,0.10925624519586563,-0.060111723840236664,0.1693679690361023,10.48859977722168,1.0,2.323366403579712,-0.0024349738378077745,-0.004611607175320387,0.0021766333375126123,-134.64431762695312,15.999285697937012,2.4576120376586914,1.129595160484314,0.01415717601776123,1.1154379844665527,650.6467895507812,1.0,3.798259973526001,-1.2719913721084595,0.1482161283493042,-1.4202075004577637,-732.6670532226562,1.000000238418579,1.5316091775894165,0.06516428291797638,-0.025779210031032562,0.09094349294900894,337.8116455078125,1.3652801513671875,2.7830119132995605,0.8302584886550903,0.06344419717788696,0.7668142914772034,478.2288818359375,1.0,5.916927337646484,1.1489059925079346,0.7539269924163818,0.3949790298938751,661.7698364257812,1.0000001192092896,3.4122042655944824,0.0032496657222509384,0.00043685734272003174,0.0028128083795309067,299.48919677734375,15.799368858337402,5.107565879821777,2.651129961013794,0.1986703872680664,2.4524595737457275,424.1807861328125,1.0,9.27205753326416,0.14922738075256348,-0.05498473346233368,0.20421211421489716,23.876380920410156,1.000000238418579,2.301234483718872,0.0025309226475656033,0.002394493203610182,0.00013642950216308236,388.7497253417969,8.249516487121582,3.7491347789764404,0.991733968257904,0.06289881467819214,0.9288351535797119,952.0646362304688,1.0,2.1570451259613037,0.2697451412677765,-0.18850243091583252,0.458247572183609,258.955322265625,0.9999997615814209,1.9166150093078613,-0.05581899359822273,0.01641494408249855,-0.07223393768072128,-482.2760925292969,3.939439535140991,5.929161071777344,1.031801700592041,0.05801481008529663,0.9737868905067444,990.5296630859375,1.0,3.6091065406799316,-0.9671974182128906,-0.02222621440887451,-0.9449712038040161,-928.509521484375,1.0,2.6504569053649902,0.00992322713136673,0.002781590912491083,0.007141636218875647,1524.2076416015625,4.888996124267578,5.487347602844238,1.4152055978775024,0.4740324020385742,0.9411731958389282,226.43289184570312,1.0,10.31004524230957,0.2080518752336502,-0.1719617396593094,0.3800136148929596,33.288299560546875,1.0,2.596905469894409,0.004828473553061485,-0.0003141774795949459,0.005142651032656431,741.653564453125,7.218153953552246,3.2353875637054443,0.9768351912498474,0.05324995517730713,0.9235852360725403,937.7617797851562,1.000000238418579,2.750190019607544,-0.05323921889066696,0.08822368830442429,-0.14146290719509125,-51.109649658203125,0.9999997615814209,2.0505521297454834,-0.009683958254754543,0.019795987755060196,-0.029479946941137314,-83.66940307617188,3.7652499675750732,11.405814170837402,0.9195193648338318,0.16412311792373657,0.7553962469100952,882.7385864257812,1.0,3.2257444858551025,-1.4077935218811035,0.0935201644897461,-1.5013136863708496,-1351.4818115234375,1.0,2.6221015453338623,0.006678739562630653,0.0026041027158498764,0.004074636846780777,1025.8543701171875,3.3256969451904297,7.079066276550293,1.8214505910873413,0.47257864475250244,1.3488719463348389,291.4320983886719,0.9999999403953552,8.519515991210938,0.13777585327625275,0.2184804379940033,-0.08070458471775055,22.04413604736328,1.0,4.288304805755615,0.002995717339217663,2.3886794224381447e-05,0.0029718305449932814,460.1421813964844,13.59614372253418,3.23740553855896,1.0594688653945923,0.016701698303222656,1.0427671670913696,1017.090087890625,1.0,2.7899293899536133,-0.6875447034835815,0.14267510175704956,-0.8302198052406311,-660.0429077148438,0.9999998807907104,2.2865066528320312,-0.01578431949019432,0.02965404838323593,-0.04543836787343025,-136.37652587890625,2.486551523208618,4.321218967437744,1.040947675704956,0.12010443210601807,0.920843243598938,999.3097534179688,1.0,5.773715972900391,0.16175611317157745,0.3577461838722229,-0.19599008560180664,155.28587341308594,1.0000001192092896,3.7555034160614014,0.004177417140454054,0.0009232854936271906,0.0032541316468268633,1283.302490234375,2.6366004943847656,8.764925956726074,2.277066946029663,0.1742701530456543,2.102796792984009,728.6614379882812,1.000000238418579,49.708770751953125,-1.2999699115753174,1.0767157077789307,-2.376685619354248,-415.9903564453125,0.9999998807907104,2.760204315185547,-0.009562082588672638,0.001787620596587658,-0.011349703185260296,-3916.629150390625,14.310452461242676,4.6443963050842285,3.5535902976989746,-0.014418601989746094,3.5680088996887207,4548.595703125,1.0,-2.8392493724823,-4.95379114151001,0.0722508430480957,-5.0260419845581055,-6340.8525390625,1.0,2.42004656791687,-1.4761360883712769,-0.04926943778991699,-1.4268666505813599,-134151.25,1.5166207551956177,1.034515142440796,-0.24796228110790253,0.06304703652858734,-0.31100931763648987,-17.605321884155273,1.0,id-00000010,classification:mobilenet_v2,True
0,0.7814392447471619,0.00024370035680476576,0.00024370035680476576,-5.7056222045110926e-18,0.21055710315704346,3.734968662261963,2.327263593673706,0.46494242548942566,0.2048969268798828,0.26004549860954285,14.878157615661621,1.0000001192092896,2.3722152709960938,0.5451047420501709,-0.12441325187683105,0.669517993927002,17.44335174560547,1.0,1.170494556427002,0.005116237327456474,0.005116237327456474,2.334860174381739e-18,1.4734762907028198,2.867258071899414,3.4397504329681396,0.7990564107894897,0.5101929903030396,0.2888633906841278,25.569805145263672,1.0000001192092896,2.679724931716919,0.9262822866439819,0.10791295766830444,0.8183693289756775,29.641033172607422,0.9999999403953552,1.150156855583191,0.003454146906733513,0.003161889035254717,0.00029225798789411783,1.7685232162475586,7.1277971267700195,2.257197618484497,1.8607945442199707,-0.033516764640808105,1.8943113088607788,29.77271270751953,1.0,0.12321409583091736,-0.008756809867918491,0.027436021715402603,-0.03619283065199852,-0.14010895788669586,0.9999998211860657,0.6489932537078857,0.004470946732908487,-0.0008324030786752701,0.005303349811583757,6.867373943328857,6.073775291442871,4.545928478240967,0.6535018086433411,0.2413652241230011,0.41213658452033997,62.736175537109375,1.000000238418579,2.1452972888946533,0.5025306344032288,0.0841405987739563,0.41839003562927246,48.24293899536133,1.0,0.3171619176864624,0.0049823252484202385,0.003744137240573764,0.0012381880078464746,4.304728984832764,2.236926555633545,0.7159993648529053,0.29635342955589294,0.012659072875976562,0.2836943566799164,28.44993019104004,1.0000001192092896,1.9882692098617554,0.22232671082019806,0.1482030153274536,0.07412369549274445,21.343364715576172,1.0000001192092896,0.604159951210022,-0.0026169412303715944,0.001149976858869195,-0.0037669180892407894,-6.029432773590088,11.107650756835938,2.594712018966675,1.8745136260986328,-0.061269521713256836,1.9357831478118896,44.98832702636719,0.9999998211860657,0.20177341997623444,-0.01850121282041073,-0.023847531527280807,0.005346318241208792,-0.4440290927886963,1.0,0.6135580539703369,0.003063785145059228,0.000218493165448308,0.00284529197961092,10.588441848754883,8.11354923248291,1.4648362398147583,0.495145320892334,0.07421407103538513,0.42093124985694885,71.3009262084961,0.9999998211860657,2.0288913249969482,0.292349249124527,-0.08076685667037964,0.3731161057949066,42.09829330444336,1.0000001192092896,0.6458076238632202,-0.0007535433396697044,0.0009977436857298017,-0.001751287025399506,-0.9765921831130981,2.583930015563965,1.732637643814087,0.40101319551467896,0.03165245056152344,0.3693607449531555,57.74589920043945,1.000000238418579,2.8779449462890625,0.1546308994293213,0.20858335494995117,-0.05395245552062988,22.266849517822266,0.9999998211860657,0.7469501495361328,-0.0014073417987674475,-0.0014073417987674475,2.200537209841397e-18,-4.863773345947266,10.2935209274292,3.411130428314209,1.746609091758728,0.040878891944885254,1.7057301998138428,41.918617248535156,1.0,0.21094925701618195,0.02600659243762493,-0.0006870757788419724,0.026693668216466904,0.6241582036018372,1.0,0.7455301284790039,0.005114867817610502,0.0012284372933208942,0.003886430524289608,17.676982879638672,10.398612976074219,1.478981614112854,0.6138730049133301,0.032599449157714844,0.5812735557556152,88.39771270751953,1.0,2.1991171836853027,0.01628793030977249,0.1509309709072113,-0.1346430480480194,2.345461845397949,0.9999998807907104,0.3065360486507416,0.01289964560419321,-0.02489505708217621,0.037794701755046844,16.717941284179688,1.320634126663208,1.1801632642745972,0.4122256338596344,0.04105985164642334,0.37116578221321106,59.36049270629883,0.9999998807907104,1.9967761039733887,0.26480644941329956,0.04287327826023102,0.22193317115306854,38.13212966918945,1.0,0.8921409249305725,-0.0009684643591754138,-0.001323225675150752,0.0003547613450791687,-4.46268367767334,17.473220825195312,2.8003199100494385,1.780730962753296,-0.030509471893310547,1.8112404346466064,56.98339080810547,0.9999998807907104,0.21781185269355774,-0.023586954921483994,0.003874482586979866,-0.02746143750846386,-0.7547825574874878,1.000000238418579,0.5643818974494934,-0.0002541822614148259,-0.0005324080120772123,0.00027822572155855596,-1.5616958141326904,9.498720169067383,1.0866718292236328,0.3974106013774872,0.035735100507736206,0.361675500869751,76.3028335571289,0.9999997615814209,1.2174664735794067,0.3263571262359619,-0.10097765922546387,0.4273347854614258,62.66056823730469,1.0,0.605756938457489,-0.01166541501879692,0.0118474829941988,-0.02351289801299572,-20.1578369140625,2.576915979385376,1.9732067584991455,0.4071630537509918,0.044939517974853516,0.3622235357761383,78.17530822753906,1.0,1.722159743309021,-0.10718097537755966,0.0322582945227623,-0.13943926990032196,-20.578746795654297,1.000000238418579,0.5949437022209167,0.001780713559128344,0.00011675769928842783,0.0016639558598399162,10.940704345703125,10.974408149719238,2.6784303188323975,0.9417520761489868,0.20044469833374023,0.7413073778152466,30.136066436767578,0.9999997019767761,0.22088618576526642,0.010363062843680382,0.0019709980115294456,0.008392064832150936,0.3316180109977722,0.9999997615814209,0.5161532163619995,0.0015063523314893246,-0.00015252933371812105,0.0016588816652074456,9.25502872467041,10.515560150146484,0.9448016285896301,0.43407702445983887,0.022674500942230225,0.41140252351760864,83.34278869628906,1.0,1.1497703790664673,0.17992812395095825,-0.08003583550453186,0.2599639594554901,34.546199798583984,1.0,0.4712948203086853,-0.007618502713739872,0.006098329089581966,-0.013716831803321838,-13.164772987365723,3.345102071762085,3.041888952255249,0.47574615478515625,0.05349847674369812,0.42224767804145813,91.34326171875,1.0,1.4304786920547485,-0.25902268290519714,-0.045934781432151794,-0.21308790147304535,-49.732357025146484,1.0,0.44625356793403625,-0.005053635220974684,0.00016550440341234207,-0.005219139624387026,-31.049535751342773,11.210450172424316,4.6837897300720215,1.0109065771102905,0.2855435013771057,0.7253630757331848,32.3490104675293,1.0,0.3078761398792267,-0.0023161121644079685,0.013679847121238708,-0.01599595881998539,-0.07411558926105499,1.0,0.7188540697097778,0.007540620397776365,-0.001581400167196989,0.009122020564973354,46.32957077026367,13.64645004272461,1.1164829730987549,0.4530453383922577,0.028198421001434326,0.42484691739082336,86.98470306396484,0.9999998211860657,0.9614545106887817,-0.2062581181526184,0.03341563045978546,-0.23967374861240387,-39.601558685302734,0.9999998211860657,0.33158403635025024,0.0026678862050175667,0.004602221772074699,-0.0019343357998877764,4.610107421875,1.2998167276382446,0.8362725377082825,0.33360302448272705,0.01829281449317932,0.31531020998954773,64.0517807006836,1.0,2.0207359790802,0.5199297070503235,0.16631963849067688,0.3536100685596466,99.82650756835938,1.000000238418579,0.7200316190719604,0.0006259717047214508,-0.0007948210695758462,0.001420792774297297,7.6919403076171875,24.51418685913086,2.5153911113739014,1.5332775115966797,0.09149801731109619,1.4417794942855835,98.1297607421875,0.9999998211860657,0.310260146856308,-0.011986871249973774,0.006539377383887768,-0.018526248633861542,-0.7671597599983215,1.0000001192092896,0.6309521794319153,-0.00021674942399840802,0.0002735496964305639,-0.0004902991349808872,-5.326833724975586,10.96069049835205,0.9884129762649536,0.3615712821483612,0.01386222243309021,0.347709059715271,138.84336853027344,1.0000001192092896,1.2143701314926147,0.21918781101703644,-0.11979852616786957,0.338986337184906,84.16812133789062,1.0,0.3816378712654114,-0.01637079194188118,0.005395505577325821,-0.021766297519207,-56.577457427978516,4.224725723266602,2.729562520980835,0.4186427593231201,0.06089404225349426,0.35774871706962585,160.75881958007812,0.9999997615814209,1.0760111808776855,-0.22319667041301727,-0.027495652437210083,-0.1957010179758072,-85.70751953125,0.9999996423721313,0.5997527241706848,-0.003239517332985997,-0.0005902063567191362,-0.002649310976266861,-79.6143798828125,10.627752304077148,2.6182689666748047,0.6791258454322815,0.1577346920967102,0.5213911533355713,43.464054107666016,1.0,0.23825089633464813,-0.004627391695976257,0.0017469972372055054,-0.006374388933181763,-0.29615306854248047,0.9999998807907104,0.7376146912574768,0.0011339475167915225,-0.00023853848688304424,0.0013724860036745667,27.867895126342773,11.466071128845215,1.0329135656356812,0.37877073884010315,0.003776460886001587,0.37499427795410156,145.44796752929688,1.0,0.8148267269134521,0.06797420233488083,-0.018747225403785706,0.08672142773866653,26.102094650268555,1.0,0.557305097579956,-0.0019375018309801817,0.0033872888889163733,-0.005324790719896555,-6.6960062980651855,3.2744667530059814,2.682511568069458,0.38268813490867615,0.039984166622161865,0.3427039682865143,146.95223999023438,1.000000238418579,1.6988533735275269,-0.22610072791576385,0.011808589100837708,-0.23790931701660156,-86.82267761230469,1.0000001192092896,0.7021527886390686,0.0006097506266087294,-0.00014064705464988947,0.0007503976812586188,14.985231399536133,13.063986778259277,1.7190834283828735,0.7114415168762207,0.13904857635498047,0.5723929405212402,45.532257080078125,1.0000001192092896,0.26934656500816345,-0.013635288923978806,0.01687494106590748,-0.030510229989886284,-0.8726584911346436,1.0,0.653386116027832,5.5270171287702397e-05,0.000530345132574439,-0.0004750749794766307,1.3583197593688965,13.757933616638184,0.8838785886764526,0.3572036921977997,0.014879018068313599,0.3423246741294861,137.1662139892578,1.0,0.8146623373031616,-0.005613621324300766,0.052523113787174225,-0.05813673511147499,-2.155630588531494,0.9999998211860657,0.46072009205818176,0.005096140783280134,0.005671050865203142,-0.000574910023715347,17.612262725830078,3.143303155899048,1.9059720039367676,0.33586692810058594,0.04946300387382507,0.28640392422676086,128.972900390625,0.9999997615814209,1.148428201675415,-0.25464558601379395,-0.033870309591293335,-0.2207752764225006,-97.78390502929688,1.0000001192092896,0.5587564706802368,-8.962800347944722e-05,0.00029400529456324875,-0.0003836333053186536,-2.20269775390625,10.991632461547852,2.619316816329956,0.7325842380523682,0.2495148479938507,0.48306939005851746,46.88539123535156,1.0000001192092896,0.2903847396373749,-0.016631580889225006,-0.012966766953468323,-0.003664813470095396,-1.0644211769104004,1.000000238418579,0.7443920373916626,-0.001960358815267682,-0.0003714004997164011,-0.001588958315551281,-48.17778015136719,23.34964942932129,1.015973687171936,0.4561738073825836,0.01436510682106018,0.44180870056152344,175.17074584960938,0.9999997615814209,1.2709234952926636,0.03593992069363594,0.06251084059476852,-0.026570918038487434,13.80093002319336,0.9999997615814209,0.6305730938911438,-0.008255277760326862,0.0064982641488313675,-0.01475354190915823,-28.530241012573242,1.5738571882247925,1.115190863609314,0.33342432975769043,0.016864538192749023,0.3165597915649414,128.03494262695312,1.0000001192092896,1.7347242832183838,0.20476466417312622,0.10249336808919907,0.10227129608392715,78.62963104248047,1.000000238418579,0.5813945531845093,0.0016196542419493198,0.0002603778848424554,0.0013592763571068645,59.706932067871094,24.825231552124023,2.0901317596435547,1.2191115617752075,0.11855792999267578,1.1005536317825317,117.03471374511719,0.9999998211860657,0.19931386411190033,-0.009240907616913319,0.005499112419784069,-0.014740020036697388,-0.8871271014213562,1.0,0.560961902141571,-0.0005043188575655222,-0.00017136326641775668,-0.0003329555911477655,-27.886816024780273,12.754545211791992,1.275303840637207,0.3811115026473999,0.009960681200027466,0.37115082144737244,219.5202178955078,1.0000001192092896,0.9253590106964111,-0.0716438740491867,0.050708845257759094,-0.1223527193069458,-41.26687240600586,1.0,0.39629706740379333,-0.006404666230082512,0.004684231244027615,-0.011088897474110126,-33.20178985595703,4.028824806213379,2.4807398319244385,0.3851710259914398,0.03772273659706116,0.34744828939437866,221.85850524902344,1.0000001192092896,1.6685740947723389,-0.20351240038871765,0.0698285698890686,-0.27334097027778625,-117.22314453125,0.9999998807907104,0.5404526591300964,-0.0003645405813585967,-0.0004745768674183637,0.00011003628605976701,-20.157636642456055,12.436806678771973,1.2245516777038574,0.5565436482429504,-0.0733984112739563,0.6299420595169067,53.42818832397461,1.0,0.24376751482486725,-0.014119434170424938,0.0023035695776343346,-0.016423003748059273,-1.3554656505584717,1.0000004768371582,0.5477903485298157,-0.0004255273670423776,-0.0004255273670423776,-5.746447802905321e-16,-23.52996063232422,12.726835250854492,0.8876062631607056,0.366048663854599,0.005238175392150879,0.3608104884624481,210.84402465820312,1.0,0.9457741975784302,-0.141978457570076,0.06599800288677216,-0.20797646045684814,-81.77959442138672,1.000000238418579,0.5360279083251953,0.0055052610114216805,0.004919541534036398,0.0005857195938006043,28.53927230834961,3.1096861362457275,2.2895801067352295,0.3321823179721832,0.032815903425216675,0.29936641454696655,191.33702087402344,0.9999998211860657,1.540669560432434,-0.20578104257583618,0.0665154755115509,-0.2722965180873871,-118.5298843383789,1.0,0.5206801891326904,0.0008420419762842357,0.00035823628422804177,0.00048380569205619395,46.561553955078125,12.573213577270508,1.702148199081421,0.6665638089179993,0.02420985698699951,0.6423539519309998,63.9901237487793,1.0,0.31669700145721436,-0.003292754292488098,0.008847429417073727,-0.012140183709561825,-0.3161044120788574,1.0,0.6793506145477295,0.0007868282846175134,-0.0008617223356850445,0.001648550620302558,43.50845718383789,15.931394577026367,0.8823531866073608,0.4087427854537964,0.01000484824180603,0.39873793721199036,235.4358367919922,0.9999997615814209,1.3659939765930176,-0.4185240566730499,0.048157960176467896,-0.4666820168495178,-241.06985473632812,0.9999997615814209,0.35526055097579956,0.015408501029014587,-0.014904152601957321,0.03031265363097191,79.87767028808594,1.3100823163986206,1.0338795185089111,0.2564527094364166,0.025313884019851685,0.23113882541656494,147.71676635742188,1.0000001192092896,1.7999671697616577,0.3709794282913208,0.2402287870645523,0.1307506412267685,213.68414306640625,1.0,0.944319486618042,0.00021312762692105025,0.00013644900172948837,7.667861791560426e-05,19.641841888427734,17.323698043823242,1.6403090953826904,0.9170904159545898,0.06443178653717041,0.8526586294174194,146.73446655273438,1.0,0.3472732603549957,0.0012172532733529806,-0.0018898029811680317,0.0031070562545210123,0.1947605311870575,1.0,0.5650153160095215,0.0005961005808785558,0.00030711202998645604,0.00028898855089209974,91.56105041503906,8.405909538269043,1.218139410018921,0.34253695607185364,0.011241763830184937,0.3312951922416687,328.8354797363281,1.0000001192092896,0.9023715257644653,0.11586454510688782,-0.06418989598751068,0.1800544410943985,111.22996520996094,1.0,0.43582990765571594,-0.015093998052179813,0.004633382894098759,-0.019727380946278572,-130.41213989257812,3.766554355621338,2.0595076084136963,0.34346267580986023,0.032584577798843384,0.31087809801101685,329.72418212890625,0.9999998211860657,1.1741011142730713,-0.3236016035079956,-0.023192405700683594,-0.300409197807312,-310.65753173828125,0.9999998211860657,0.6527273058891296,0.003119585569947958,0.001391479279845953,0.001728106290102005,479.1683349609375,5.515376091003418,1.8106193542480469,0.5341591835021973,0.10718134045600891,0.42697784304618835,85.46546936035156,1.0,0.3320818841457367,-0.004199975170195103,-0.007999811321496964,0.0037998356856405735,-0.671995997428894,0.9999998807907104,0.8998688459396362,0.0008822080562822521,-7.316278060898185e-05,0.0009553708368912339,135.5071563720703,12.2958402633667,1.0851757526397705,0.3533676564693451,0.014051258563995361,0.33931639790534973,339.2329406738281,1.0000003576278687,0.9018072485923767,0.004270889796316624,0.023739535361528397,-0.019468646496534348,4.1000542640686035,1.0,0.5478657484054565,0.004041770007461309,0.003456666599959135,0.0005851034075021744,34.920894622802734,3.157008647918701,3.835016965866089,0.3203788697719574,0.042966097593307495,0.2774127721786499,307.563720703125,1.0000001192092896,1.1888949871063232,-0.4689388871192932,0.014677822589874268,-0.4836167097091675,-450.18133544921875,0.9999998211860657,0.7211568355560303,0.0014629968209192157,0.0001862584613263607,0.001276738359592855,224.71630859375,3.15126633644104,2.35235595703125,0.6685314178466797,0.1498417854309082,0.5186896324157715,106.96502685546875,1.0,0.22648444771766663,-0.0037547703832387924,-0.01037682220339775,0.006622051354497671,-0.6007632613182068,0.9999998211860657,0.5650220513343811,-0.00010398866288596764,9.956002031685784e-05,-0.0002035486832028255,-15.972658157348633,19.420503616333008,0.9668306708335876,0.3953098952770233,0.012365251779556274,0.38294464349746704,379.49749755859375,1.0,0.9495649337768555,-0.2222941815853119,0.053002625703811646,-0.27529680728912354,-213.4024200439453,1.0000001192092896,0.5055685043334961,-0.009098663926124573,0.008580222725868225,-0.017678886651992798,-78.61245727539062,2.183712959289551,1.8075261116027832,0.34543853998184204,0.03403159976005554,0.3114069402217865,331.6210021972656,1.000000238418579,1.6860172748565674,0.061144109815359116,0.1377323716878891,-0.07658825814723969,58.69834518432617,1.0,0.9466302990913391,-0.0002780150098260492,-7.110297156032175e-05,-0.00020691203826572746,-85.40621185302734,9.821432113647461,2.6542017459869385,0.7654951214790344,0.023300349712371826,0.7421947717666626,244.95843505859375,0.9999998211860657,1.3274710178375244,-0.01578759402036667,-0.018607528880238533,0.002819934394210577,-5.052030086517334,1.0,0.6480472683906555,-0.0003178363258484751,0.00035328659578226507,-0.0006711229216307402,-130.18576049804688,17.541566848754883,1.7880518436431885,1.337330937385559,-0.007959485054016113,1.3452904224395752,1711.7835693359375,1.0,-0.8944913148880005,-1.6264625787734985,0.02511763572692871,-1.6515802145004272,-2081.8720703125,1.0,0.5155227780342102,-0.40590810775756836,-0.04517722129821777,-0.3607308864593506,-69621.359375,1.7371851205825806,0.20637555420398712,-0.12039032578468323,0.006024256348609924,-0.12641458213329315,-16.13230323791504,1.0000001192092896,id-00000014,classification:mobilenet_v2,True
0,2.356753349304199,0.0025175611954182386,0.0025175611954182386,-4.664586038701362e-18,2.175172805786133,3.5993030071258545,4.98557710647583,1.166941523551941,0.31411463022232056,0.8528268933296204,37.34212875366211,1.0000003576278687,6.522761821746826,1.4442837238311768,-0.7687356472015381,2.213019371032715,46.217079162597656,0.9999997615814209,3.3465821743011475,-0.0004262990551069379,0.016019312664866447,-0.016445612534880638,-0.12277412414550781,2.782949209213257,8.059535026550293,2.191934823989868,1.2617530822753906,0.9301816821098328,70.14191436767578,0.9999998211860657,5.254654884338379,1.7959554195404053,-0.3203890323638916,2.116344451904297,57.47057342529297,1.0,3.291022777557373,4.77316789329052e-05,4.77316789329052e-05,-2.009552414700203e-17,0.02443861961364746,8.855002403259277,7.0874738693237305,5.5980000495910645,0.24263811111450195,5.3553619384765625,89.56800079345703,1.0,1.099745512008667,-0.06216856464743614,0.10179853439331055,-0.163967102766037,-0.9946970343589783,1.0,1.7508857250213623,0.007632959168404341,-0.00290443142876029,0.010537390597164631,11.724225044250488,8.226274490356445,15.045670509338379,1.9225133657455444,0.7364988327026367,1.1860145330429077,184.561279296875,0.9999998211860657,6.384669303894043,1.335025429725647,0.20281922817230225,1.1322062015533447,128.16244506835938,1.000000238418579,1.0352972745895386,0.01715495064854622,-0.02293964847922325,0.04009459912776947,14.821877479553223,3.0989325046539307,1.8418346643447876,0.944468080997467,-0.006836116313934326,0.9513041973114014,90.66893768310547,1.0,5.683254241943359,0.6067972779273987,0.49680840969085693,0.10998888313770294,58.252540588378906,1.0000001192092896,1.804398775100708,0.0051634726114571095,0.010384474880993366,-0.005221002269536257,11.89664077758789,10.81297492980957,8.202923774719238,5.586366653442383,0.10554265975952148,5.480823993682861,134.0727996826172,1.0000001192092896,1.145355463027954,0.11856827884912491,0.006954848766326904,0.111613430082798,2.8456387519836426,0.9999998211860657,2.019404888153076,0.001736471545882523,0.000685475068166852,0.001050996477715671,6.001245498657227,9.167407989501953,3.969348430633545,1.4805898666381836,0.18450438976287842,1.2960854768753052,213.20494079589844,1.0,5.2737135887146,0.7657172679901123,-0.23277658224105835,0.9984938502311707,110.2632827758789,1.0,1.834993839263916,-0.017217226326465607,0.017067916691303253,-0.03428514301776886,-22.313526153564453,3.0029144287109375,4.471020221710205,1.120341181755066,-0.01856255531311035,1.1389037370681763,161.32913208007812,1.0000001192092896,7.385462284088135,0.3367471992969513,0.5496011972427368,-0.21285398304462433,48.49159622192383,1.0,1.500174641609192,-0.003301016055047512,-0.0032701827585697174,-3.083318006247282e-05,-11.40831184387207,8.364203453063965,9.963068962097168,4.849372386932373,0.05889701843261719,4.790475368499756,116.38494110107422,1.0000001192092896,1.932072401046753,0.217690110206604,-0.004125535488128662,0.22181564569473267,5.224562644958496,0.9999998211860657,2.0970754623413086,0.007259339094161987,0.007614993955940008,-0.0003556548326741904,25.088275909423828,10.115913391113281,4.239055156707764,1.73752760887146,0.1765071153640747,1.5610204935073853,250.2039794921875,1.0,6.044519424438477,-0.042019110172986984,0.23648352921009064,-0.2785026431083679,-6.050751686096191,1.0,1.0058519840240479,0.037588994950056076,-0.030989352613687515,0.06857834756374359,48.715335845947266,1.4643287658691406,3.337235450744629,1.1561110019683838,0.1808377504348755,0.9752732515335083,166.47998046875,0.9999998807907104,5.309780120849609,0.5692244172096252,-0.03866851329803467,0.6078929305076599,81.96831512451172,1.0,1.699455738067627,0.0006354970973916352,-0.001391907688230276,0.0020274047274142504,2.928370714187622,13.56106948852539,8.011319160461426,5.378610610961914,-0.10107898712158203,5.479689598083496,172.11553955078125,1.0000001192092896,0.39416560530662537,-0.08239579945802689,-0.0029559284448623657,-0.07943987101316452,-2.6366655826568604,1.0,1.5682158470153809,0.004398867953568697,-0.001497679390013218,0.005896547343581915,27.026643753051758,10.57298469543457,3.139960289001465,1.1709779500961304,0.1048271656036377,1.0661507844924927,224.8277587890625,1.0,3.815051555633545,0.9037613272666931,-0.24310117959976196,1.146862506866455,173.5221710205078,1.000000238418579,1.254543423652649,-0.03775160387158394,0.025896068662405014,-0.06364767253398895,-65.23477172851562,3.1778311729431152,5.722763538360596,1.1056389808654785,0.0693901777267456,1.036248803138733,212.28268432617188,1.0,4.638795375823975,-0.39055895805358887,0.0646999180316925,-0.45525887608528137,-74.98731994628906,0.9999996423721313,1.9276959896087646,0.007050208281725645,-0.004420423414558172,0.011470631696283817,43.31647872924805,10.937110900878906,8.01274585723877,2.729062795639038,0.47203946113586426,2.257023334503174,87.33000946044922,0.9999998211860657,0.7047711610794067,-0.16098031401634216,0.09964638948440552,-0.2606267035007477,-5.151370048522949,0.9999997615814209,1.8471710681915283,0.003236697753891349,-0.0003614812158048153,0.003598178969696164,19.88627052307129,8.976268768310547,2.7109034061431885,1.2452164888381958,0.046718716621398926,1.1984977722167969,239.08155822753906,1.000000238418579,3.1242706775665283,0.44783100485801697,-0.1549449861049652,0.6027759909629822,85.98355102539062,0.9999997615814209,1.2885035276412964,-0.03453146666288376,0.016602162271738052,-0.05113362893462181,-59.670372009277344,4.07185173034668,8.420699119567871,1.3447767496109009,0.12464475631713867,1.2201319932937622,258.1971435546875,0.9999998807907104,4.374341011047363,-0.816728413105011,-0.15667724609375,-0.660051167011261,-156.81185913085938,1.0,1.2721537351608276,-0.010260486975312233,0.005753122270107269,-0.016013609245419502,-63.04043197631836,9.794414520263672,12.106826782226562,2.7081637382507324,0.7213071584701538,1.9868565797805786,86.66123962402344,1.0,1.0352599620819092,-0.1533285528421402,-0.0212651789188385,-0.1320633739233017,-4.906513690948486,1.0000001192092896,2.1022350788116455,0.014227889478206635,-0.005240878090262413,0.019468767568469048,87.41615295410156,12.866082191467285,3.0015103816986084,1.2766178846359253,0.0894695520401001,1.1871483325958252,245.11062622070312,1.0,2.5648996829986572,-0.6033657789230347,0.08297240734100342,-0.6863381862640381,-115.84622955322266,1.0,0.8690521717071533,0.011023981496691704,-0.0029550008475780487,0.013978982344269753,19.049440383911133,1.5504331588745117,2.228843927383423,0.8764946460723877,0.03823345899581909,0.8382611870765686,168.28697204589844,0.9999996423721313,5.578853607177734,1.3120213747024536,0.6033817529678345,0.7086396217346191,251.90811157226562,0.9999998807907104,1.8291170597076416,0.00107917794957757,0.003865261562168598,-0.002786083612591028,13.26093864440918,16.477249145507812,7.1601691246032715,4.434844970703125,0.12274169921875,4.312103271484375,283.830078125,1.0,3.443556785583496,0.002722017467021942,0.23118698596954346,-0.22846496105194092,0.1742091178894043,1.000000238418579,1.4230124950408936,0.0010988981230184436,0.0010982444509863853,6.536743626384123e-07,27.006521224975586,6.697409629821777,2.46455979347229,1.0453619956970215,0.040703773498535156,1.0046582221984863,401.41900634765625,1.000000238418579,3.0419650077819824,0.6686837077140808,-0.33414334058761597,1.0028270483016968,256.7745361328125,1.0000001192092896,1.1611742973327637,-0.04740402102470398,0.024368926882743835,-0.07177294790744781,-163.8282928466797,4.159255504608154,8.218307495117188,1.2494299411773682,0.18122446537017822,1.06820547580719,479.7810974121094,1.0,3.012265920639038,-0.5944123268127441,-0.08174371719360352,-0.5126686096191406,-228.25433349609375,0.9999998211860657,1.5727406740188599,-0.002379781799390912,-0.0009654553141444921,-0.00141432648524642,-58.48551940917969,6.399902820587158,7.67706298828125,1.8761757612228394,0.47446751594543457,1.4017082452774048,120.07524871826172,1.000000238418579,3.5487728118896484,0.041754379868507385,0.038641877472400665,0.0031125012319535017,2.6722803115844727,1.000000238418579,1.4282854795455933,-0.00181636365596205,-0.00181636365596205,-4.2402734101720796e-11,-44.638954162597656,7.269802570343018,2.866730213165283,1.131671667098999,0.0057222843170166016,1.1259493827819824,434.5619201660156,0.9999998807907104,2.1364567279815674,0.2122124433517456,-0.09722921252250671,0.3094416558742523,81.48957824707031,1.0,1.286533236503601,-0.008805111050605774,0.016722798347473145,-0.02552790939807892,-30.430463790893555,3.9766745567321777,8.277284622192383,1.0999563932418823,0.17319190502166748,0.9267644882202148,422.38323974609375,0.9999998211860657,4.1829023361206055,-0.63381028175354,0.013419389724731445,-0.6472296714782715,-243.38314819335938,1.0,1.3018031120300293,-0.0011582738952711225,-0.0011582738952711225,-6.5001294277666766e-12,-28.46573829650879,4.155611515045166,4.976366996765137,2.089672565460205,0.34180545806884766,1.7478671073913574,133.73904418945312,1.0,2.0876266956329346,-0.029381314292550087,-0.041637010872364044,0.012255698442459106,-1.8804041147232056,1.0,1.4111382961273193,-0.002054512267932296,-0.0007108825957402587,-0.001343629672192037,-50.49169158935547,10.081670761108398,2.265432596206665,1.0863755941390991,-0.012396931648254395,1.0987725257873535,417.168212890625,1.0,2.2322330474853516,0.028745809569954872,0.07672978192567825,-0.04798397421836853,11.03839111328125,0.9999998211860657,1.4015916585922241,-0.0011588484048843384,0.010515756905078888,-0.011674605309963226,-4.004980087280273,3.838644504547119,5.78042459487915,0.9191567897796631,0.09500420093536377,0.8241525888442993,352.9562072753906,1.0,3.245229959487915,-0.7576753497123718,-0.1339477300643921,-0.6237276196479797,-290.94732666015625,0.9999997615814209,1.4735451936721802,-0.0069890995509922504,0.003541972953826189,-0.01053107250481844,-171.7641143798828,3.4074547290802,7.213680744171143,1.996960997581482,0.8908439874649048,1.1061170101165771,127.80550384521484,1.0,1.4753262996673584,-0.053560808300971985,-0.09263435006141663,0.03907354176044464,-3.427891731262207,0.9999998807907104,1.7794585227966309,-0.007198233623057604,-0.0006852499209344387,-0.006512983702123165,-176.90379333496094,16.86961555480957,2.4945106506347656,1.2110971212387085,0.023247122764587402,1.187849998474121,465.061279296875,1.000000238418579,3.1048638820648193,0.06559719145298004,0.1871572881937027,-0.12156009674072266,25.189321517944336,0.9999997615814209,1.53177809715271,-0.016696099191904068,0.02162168174982071,-0.03831778094172478,-57.70172119140625,2.02510666847229,3.6562652587890625,0.8404813408851624,0.056543052196502686,0.7839382886886597,322.7448425292969,1.0,5.389312267303467,0.440154105424881,0.396636962890625,0.043517157435417175,169.01918029785156,1.0,1.5917391777038574,0.0012145241489633918,0.0008014005143195391,0.0004131236346438527,44.772216796875,12.143792152404785,6.0724992752075195,3.401445150375366,0.31238889694213867,3.0890562534332275,326.5387268066406,1.0,9.702065467834473,0.13695810735225677,0.3436368703842163,-0.20667874813079834,13.147978782653809,1.0,1.3673267364501953,-0.0004897793405689299,-0.0005434307968243957,5.365144170355052e-05,-27.082839965820312,6.995194911956787,3.9152674674987793,1.1855683326721191,0.0252685546875,1.1602997779846191,682.8873291015625,1.000000238418579,2.5581376552581787,-0.11127599328756332,0.0863574668765068,-0.19763346016407013,-64.094970703125,1.000000238418579,1.4042567014694214,-0.03794869780540466,0.018053565174341202,-0.056002262979745865,-196.72604370117188,4.2443413734436035,7.507566452026367,1.0699936151504517,0.09610217809677124,0.9738914370536804,616.3163452148438,1.000000238418579,5.32229471206665,-0.5938398241996765,0.0946890115737915,-0.688528835773468,-342.0517272949219,1.0,1.6367175579071045,0.0004573749902192503,0.0013938029296696186,-0.0009364279103465378,25.29100799560547,3.8157269954681396,3.717439651489258,1.534371018409729,-0.08437120914459229,1.6187422275543213,147.29962158203125,0.9999998211860657,9.620185852050781,0.15522412955760956,0.27029526233673096,-0.1150711178779602,14.90151596069336,1.0,1.3929539918899536,-2.2311522116069682e-05,-2.2311522116069682e-05,1.1870776326519894e-16,-1.2337379455566406,8.299638748168945,2.9891908168792725,1.1138885021209717,0.0007479190826416016,1.11314058303833,641.5997924804688,0.9999998211860657,2.868709087371826,-0.34213754534721375,0.09208819270133972,-0.43422573804855347,-197.07122802734375,1.000000238418579,1.4394539594650269,-0.0011348392581567168,0.012334483675658703,-0.013469322584569454,-5.883006572723389,3.59952974319458,6.520654201507568,0.8630922436714172,0.09616941213607788,0.7669228315353394,497.1411437988281,0.9999998211860657,5.3184919357299805,-0.6281964182853699,0.1991657018661499,-0.8273621201515198,-361.84112548828125,0.9999997615814209,1.5358176231384277,0.0012959128944203258,0.00022904935758560896,0.0010668635368347168,71.65879821777344,3.6590027809143066,4.521030426025391,1.7974544763565063,0.025756478309631348,1.771697998046875,172.55563354492188,1.0,10.82395076751709,0.18468455970287323,0.47695207595825195,-0.2922675311565399,17.729717254638672,1.0,2.1651997566223145,0.002319051418453455,0.0001761533785611391,0.002142898039892316,128.23426818847656,8.027276039123535,2.5086443424224854,1.187670350074768,0.0147475004196167,1.1729228496551514,684.09814453125,0.9999997615814209,3.5119478702545166,-1.1907975673675537,0.13175106048583984,-1.3225486278533936,-685.8994140625,0.9999998211860657,1.0993685722351074,0.029470670968294144,-0.018830377608537674,0.04830104857683182,152.7759552001953,1.6297460794448853,1.9676393270492554,0.5840281248092651,0.05236715078353882,0.5316609740257263,336.40020751953125,1.000000238418579,5.449580669403076,0.9986990690231323,0.7188854217529297,0.27981364727020264,575.2506713867188,1.000000238418579,1.6931941509246826,0.0009101837640628219,0.0001014412846416235,0.0008087424794211984,83.88253784179688,7.207360744476318,4.9830169677734375,2.560760259628296,0.1387495994567871,2.422010660171509,409.7216491699219,0.9999997019767761,10.388163566589355,-0.11728527396917343,0.4207914173603058,-0.5380766987800598,-18.765644073486328,0.9999998807907104,1.5206048488616943,0.0023028275463730097,0.0019954564049839973,0.0003073711704928428,353.71429443359375,3.9309659004211426,4.087734699249268,1.030684232711792,0.03248870372772217,0.9981955289840698,989.4569091796875,1.000000238418579,2.6088576316833496,0.33964356780052185,-0.18817248940467834,0.5278160572052002,326.0578308105469,0.9999998211860657,1.6411182880401611,-0.04567200690507889,0.0065833888947963715,-0.05225539579987526,-394.60614013671875,2.809532403945923,6.815675735473633,1.0216654539108276,0.09687501192092896,0.9247904419898987,980.798828125,1.0,4.433058261871338,-0.9102717638015747,-0.04877263307571411,-0.8614991307258606,-873.8609008789062,1.0,1.8957302570343018,0.008110770024359226,0.006064681336283684,0.0020460886880755424,1245.814208984375,1.6013391017913818,4.602780342102051,1.5645382404327393,0.18764221668243408,1.3768960237503052,250.3261260986328,0.9999997615814209,6.965386867523193,0.05219930410385132,-0.07366560399532318,0.1258649080991745,8.351888656616211,1.0000001192092896,2.2895379066467285,0.0014921915717422962,-0.00046820822171866894,0.001960399793460965,229.20062255859375,2.6489884853363037,3.041834592819214,1.0345946550369263,0.007806301116943359,1.026788353919983,993.2108764648438,1.0,3.1354103088378906,0.0705149695277214,0.050818730145692825,0.01969623938202858,67.69437408447266,0.9999997615814209,1.479052186012268,-0.010924121364951134,0.0033204006031155586,-0.014244521968066692,-94.38440704345703,2.706131935119629,11.654024124145508,0.9360395073890686,0.13562500476837158,0.800414502620697,898.597900390625,0.9999997615814209,3.563943862915039,-1.3537917137145996,0.026936650276184082,-1.3807283639907837,-1299.6400146484375,0.9999996423721313,1.8339323997497559,-0.006703375373035669,-0.003474563593044877,-0.0032288117799907923,-1029.638427734375,1.6194614171981812,5.478570938110352,1.8660237789154053,0.17572486400604248,1.6902989149093628,298.5638122558594,0.9999998807907104,3.790482521057129,0.11904933303594589,0.13938868045806885,-0.020339347422122955,19.047893524169922,1.0,1.6194268465042114,0.0009560177568346262,-0.001236858544871211,0.0021928763017058372,146.84432983398438,10.521269798278809,3.0523149967193604,1.069601058959961,0.04300522804260254,1.0265958309173584,1026.8170166015625,1.0,3.047369956970215,-0.6350678205490112,0.18222647905349731,-0.8172942996025085,-609.6651000976562,0.9999998807907104,1.313141107559204,-0.019367553293704987,0.01411336287856102,-0.033480916172266006,-167.33566284179688,2.3187994956970215,4.162503719329834,0.875272810459137,0.09032386541366577,0.7849489450454712,840.2619018554688,0.9999998807907104,4.956949234008789,0.19686007499694824,0.4918277859687805,-0.2949677109718323,188.9856719970703,1.0000001192092896,1.955928087234497,0.0011101651471108198,0.00015985569916665554,0.0009503094479441643,341.042724609375,5.942723751068115,7.014944553375244,2.266932964324951,0.15555572509765625,2.111377239227295,725.4185180664062,1.000000238418579,15.716928482055664,-0.44478869438171387,-0.4298253655433655,-0.014963338151574135,-142.33238220214844,1.0000001192092896,1.4991109371185303,-0.006676780059933662,0.0015159063041210175,-0.00819268636405468,-2734.80908203125,6.621353626251221,4.37956428527832,3.4351348876953125,-0.03150796890258789,3.4666428565979004,4396.97265625,1.0000001192092896,-2.858654260635376,-5.061529636383057,0.0943150520324707,-5.155844688415527,-6478.7578125,1.0,0.6960775852203369,-0.5011933445930481,0.020372748374938965,-0.5215660929679871,-26302.626953125,1.695242166519165,0.2781234085559845,-0.13383238017559052,0.015920624136924744,-0.14975300431251526,-5.487127304077148,1.0,id-00000020,classification:mobilenet_v2,False
