,0,1,2,3,4,5,6,7,8,9,10,11,12,13,14,15,16,17,18,19,20,21,22,23,24,25,26,27,28,29,30,31,32,33,34,35,36,37,38,39,40,41,42,43,44,45,46,47,48,49,50,51,52,53,54,55,56,57,58,59,60,61,62,63,64,65,66,67,68,69,70,71,72,73,74,75,76,77,78,79,80,81,82,83,84,85,86,87,88,89,90,91,92,93,94,95,96,97,98,99,100,101,102,103,104,105,106,107,108,109,110,111,112,113,114,115,116,117,118,119,120,121,122,123,124,125,126,127,128,129,130,131,132,133,134,135,136,137,138,139,140,141,142,143,144,145,146,147,148,149,150,151,152,153,154,155,156,157,158,159,160,161,162,163,164,165,166,167,168,169,170,171,172,173,174,175,176,177,178,179,180,181,182,183,184,185,186,187,188,189,190,191,192,193,194,195,196,197,198,199,200,201,202,203,204,205,206,207,208,209,210,211,212,213,214,215,216,217,218,219,220,221,222,223,224,225,226,227,228,229,230,231,232,233,234,235,236,237,238,239,240,241,242,243,244,245,246,247,248,249,250,251,252,253,254,255,256,257,258,259,260,261,262,263,264,265,266,267,268,269,270,271,272,273,274,275,276,277,278,279,280,281,282,283,284,285,286,287,288,289,290,291,292,293,294,295,296,297,298,299,300,301,302,303,304,305,306,307,308,309,310,311,312,313,314,315,316,317,318,319,320,321,322,323,324,325,326,327,328,329,330,331,332,333,334,335,336,337,338,339,340,341,342,343,344,345,346,347,348,349,350,351,352,353,354,355,356,357,358,359,360,361,362,363,364,365,366,367,368,369,370,371,372,373,374,375,376,377,378,379,380,381,382,383,384,385,386,387,388,389,390,391,392,393,394,395,396,397,398,399,400,401,402,403,404,405,406,407,408,409,410,411,412,413,414,415,416,417,418,419,420,421,422,423,424,425,426,427,428,429,430,431,432,433,434,435,436,437,438,439,440,441,442,443,444,445,446,447,448,449,450,451,452,453,454,455,456,457,458,459,460,461,462,463,464,465,466,467,468,469,470,471,472,473,474,475,476,477,478,479,480,481,482,483,484,485,486,487,488,489,490,491,492,493,494,495,496,497,498,499,500,501,502,503,504,505,506,507,508,509,510,511,512,513,514,515,516,517,518,519,520,521,522,523,524,525,526,527,528,529,530,531,532,533,534,535,536,537,538,539,540,541,542,543,544,545,546,547,548,549,550,551,552,553,554,555,556,557,558,559,560,561,562,563,564,565,566,567,568,569,570,571,572,573,574,575,576,577,578,579,580,581,582,583,584,585,586,587,588,589,590,591,592,593,594,595,596,597,598,599,600,601,602,603,604,605,606,607,608,609,610,611,612,613,614,615,616,617,618,619,620,621,622,623,624,625,626,627,628,629,630,631,632,633,634,635,636,637,638,639,640,641,642,643,644,645,646,647,648,649,650,651,652,653,654,655,656,657,658,659,660,661,662,663,664,665,666,667,668,669,670,671,672,673,674,675,676,677,678,679,680,681,682,683,684,685,686,687,688,689,690,691,692,693,694,695,696,697,698,699,700,701,702,703,704,705,706,707,708,709,710,711,712,713,714,715,716,717,718,719,720,721,722,723,724,725,726,727,728,729,730,731,732,733,734,735,736,737,738,739,740,741,742,743,744,745,746,747,748,749,750,751,752,753,754,755,756,757,758,759,760,761,762,763,764,765,766,767,768,769,770,771,772,773,774,775,776,777,778,779,780,781,782,783,784,785,786,787,788,789,790,791,792,793,794,795,796,797,798,799,800,801,802,803,804,805,806,807,808,809,810,811,812,813,814,815,816,817,818,819,820,821,822,823,824,825,826,827,828,829,830,831,832,833,834,835,836,837,838,839,840,841,842,843,844,845,846,847,848,849,850,851,852,853,854,855,856,857,858,859,860,861,862,863,864,865,866,867,868,869,870,871,872,873,874,875,876,877,878,879,880,881,882,883,884,885,886,887,888,889,890,891,892,893,894,895,896,897,898,899,900,901,902,903,904,905,906,907,908,909,910,911,912,913,914,915,916,917,918,919,920,921,922,923,924,925,926,927,928,929,930,931,932,933,934,935,936,937,938,939,940,941,942,943,944,945,946,947,948,949,950,951,952,953,954,955,956,957,958,959,960,961,962,963,964,965,model_num,model_arch,poisoned
0,0.4574214518070221,-0.0012762084370478988,-0.0020767217501997948,0.0008005132549442351,-12.006568908691406,8.794344902038574,1.8377103805541992,0.3744434118270874,0.14120998978614807,0.23323342204093933,23.964378356933594,0.9999998211860657,4.814615249633789,0.5362712144851685,0.04261103272438049,0.49366018176078796,34.32135772705078,1.0,0.5460224747657776,-0.021291278302669525,-0.00656964723020792,-0.014721631072461605,-87.20907592773438,7.87816047668457,1.0279067754745483,0.3454834818840027,0.042889028787612915,0.30259445309638977,22.110942840576172,1.0000001192092896,1.8695365190505981,-0.00024039484560489655,0.04859393835067749,-0.048834335058927536,-0.015385270118713379,1.0000001192092896,0.7875143885612488,0.0003764790890272707,-0.0005337261827662587,0.0009102052426896989,13.878524780273438,9.9828519821167,1.2922730445861816,0.25130295753479004,0.06273883581161499,0.18856412172317505,16.083389282226562,0.9999998807907104,2.3849358558654785,0.16080570220947266,0.07131022959947586,0.0894954726099968,10.29156494140625,1.0,0.9507222175598145,-0.002952216425910592,-0.0027636776212602854,-0.00018853886285796762,-48.36911392211914,9.897098541259766,1.487221360206604,0.5525919198989868,0.050110816955566406,0.5024811029434204,141.46353149414062,1.0,0.6002933979034424,-0.022593166679143906,-0.013778530061244965,-0.008814636617898941,-5.78385066986084,1.0,1.0066554546356201,-0.008213367313146591,-0.006203985773026943,-0.0020093813072890043,-134.56781005859375,10.445473670959473,1.70710289478302,0.6140026450157166,0.02825033664703369,0.5857523083686829,157.18467712402344,1.0,0.6002933979034424,-0.022593166679143906,-0.013778530061244965,-0.008814636617898941,-5.78385066986084,1.0,1.1120017766952515,-0.0055916886776685715,-0.004500245209783316,-0.001091443351469934,-91.61422729492188,7.9403767585754395,1.237744688987732,0.3727888762950897,0.028549611568450928,0.3442392647266388,23.858488082885742,1.0,0.914881706237793,-0.08365274220705032,-0.08751288801431656,0.003860146040096879,-5.353775501251221,1.0000001192092896,0.7696648240089417,-0.005582241341471672,-0.004165858030319214,-0.0014163830783218145,-205.78375244140625,7.306843280792236,0.9044049382209778,0.3564351201057434,0.05305701494216919,0.3033781051635742,22.811847686767578,1.0000001192092896,0.8124096989631653,0.07524782419204712,-0.066841259598732,0.1420890837907791,4.815860748291016,1.0000001192092896,0.9184449911117554,-0.010024258866906166,-0.0005596494302153587,-0.009464609436690807,-164.23745727539062,6.783938884735107,1.5232012271881104,0.270119309425354,0.02265489101409912,0.24746441841125488,69.15054321289062,1.0,0.885368824005127,-0.09453582763671875,0.01037183403968811,-0.10490766167640686,-24.201171875,0.9999998807907104,0.8624308109283447,-0.008490793406963348,-0.0033172867260873318,-0.005173506680876017,-139.1131591796875,9.732460975646973,0.8114092946052551,0.3524516224861145,0.014975816011428833,0.33747580647468567,22.556903839111328,1.0,0.8454691767692566,-0.013636525720357895,-0.03485602140426636,0.021219495683908463,-0.8727376461029053,0.9999998211860657,0.9192193746566772,-0.006176156457513571,-0.002328293863683939,-0.003847862593829632,-227.67782592773438,16.882526397705078,0.6785163879394531,0.31571081280708313,-0.0019487738609313965,0.3176595866680145,20.20549201965332,1.0000001192092896,0.9611213207244873,-0.0031411275267601013,0.11774542182683945,-0.12088654935359955,-0.20103216171264648,1.0,0.9531115293502808,-0.011597496457397938,-0.0009310394525527954,-0.010666457004845142,-190.0133819580078,11.262590408325195,0.8330596089363098,0.26801007986068726,0.035581424832344055,0.2324286550283432,68.61058044433594,1.000000238418579,0.5935753583908081,-0.17665788531303406,-0.018340229988098145,-0.1583176553249359,-45.22441864013672,0.9999997615814209,0.7539047002792358,-0.013228628784418106,-0.003671792335808277,-0.009556836448609829,-433.4757080078125,16.138689041137695,0.8608355522155762,0.4818636178970337,0.0009837746620178223,0.48087984323501587,61.67854309082031,0.9999998211860657,0.44456323981285095,-0.3233598470687866,0.022835582494735718,-0.34619542956352234,-41.39006042480469,1.0,0.4949541985988617,-0.0046677556820213795,-0.002629999304190278,-0.0020377563778311014,-688.28857421875,25.19831657409668,0.9910151362419128,0.3533540964126587,-0.013711243867874146,0.36706534028053284,45.22932434082031,1.0,0.777208149433136,0.1352933943271637,0.044944293797016144,0.09034910053014755,17.317554473876953,1.0000001192092896,0.8180062174797058,-0.007268654648214579,-0.0005484619177877903,-0.006720192730426788,-476.3585510253906,18.117008209228516,0.8138261437416077,0.26858362555503845,-0.02198055386543274,0.2905641794204712,137.5148162841797,1.0000001192092896,0.5223343372344971,-0.012851954437792301,-0.006051263771951199,-0.006800690665841103,-6.580200672149658,0.9999997615814209,0.9366657733917236,-0.004050791263580322,-0.001995187485590577,-0.002055603777989745,-530.9453125,22.861066818237305,0.8095497488975525,0.25004842877388,0.039944201707839966,0.21010422706604004,128.02479553222656,1.0,0.5223343372344971,-0.012851954437792301,-0.006051263771951199,-0.006800690665841103,-6.580200672149658,0.9999997615814209,0.7766189575195312,-0.0006684262189082801,-0.0006684258696623147,-3.2938773930624166e-10,-43.80598068237305,14.955400466918945,0.6397852897644043,0.2633061408996582,0.012237489223480225,0.251068651676178,33.70318603515625,1.0,0.7980458736419678,-0.13155600428581238,-0.007421419024467468,-0.12413458526134491,-16.839168548583984,1.0,0.6222511529922485,-0.00259782955981791,-0.0005638699512928724,-0.0020339596085250378,-383.0655517578125,19.009674072265625,0.6894947290420532,0.36082151532173157,-0.004028528928756714,0.3648500442504883,46.18515396118164,0.9999997615814209,1.1317425966262817,-0.121652752161026,0.032913580536842346,-0.15456633269786835,-15.571552276611328,1.0000001192092896,0.7715243697166443,-0.011856699362397194,-0.00208471342921257,-0.009771985933184624,-777.0406494140625,12.783517837524414,0.9203751683235168,0.1957760751247406,0.028188124299049377,0.16758795082569122,100.23735046386719,0.9999998211860657,0.6066111922264099,-0.17202982306480408,-0.021845147013664246,-0.15018467605113983,-88.07926940917969,1.0,0.6795802116394043,-0.004583284258842468,-0.0012442544102668762,-0.003339029848575592,-300.3701171875,22.615705490112305,0.732230007648468,0.33663180470466614,-0.00820314884185791,0.34483495354652405,43.088871002197266,1.0,0.546065628528595,-0.16284948587417603,-0.0007599592208862305,-0.1620895266532898,-20.84473419189453,1.0,0.8274908661842346,-0.0036794496700167656,-0.001260737655684352,-0.0024187120143324137,-542.5569458007812,25.8485107421875,0.6378942728042603,0.3820227086544037,-0.0111466646194458,0.3931693732738495,48.89890670776367,1.0,0.725214958190918,-0.1984385997056961,0.05737082660198212,-0.2558094263076782,-25.4001407623291,1.0,0.8671462535858154,-0.010503161698579788,-0.0014839787036180496,-0.009019182994961739,-688.335205078125,12.296244621276855,0.7478097081184387,0.18036426603794098,0.024268686771392822,0.15609557926654816,92.34650421142578,1.0,0.7711924314498901,-0.19302979111671448,-0.04266075789928436,-0.15036903321743011,-98.83125305175781,1.0,0.6635623574256897,-0.0063032470643520355,-0.0003828606568276882,-0.005920386407524347,-413.089599609375,19.053462982177734,0.5934937000274658,0.3354281187057495,-0.019551873207092285,0.3549799919128418,42.93479919433594,0.9999998807907104,0.3834887742996216,-0.1636589765548706,0.026060298085212708,-0.1897192746400833,-20.948348999023438,1.0,0.6309075355529785,-0.004358773119747639,-0.0010793195106089115,-0.003279453609138727,-642.7272338867188,22.137380599975586,0.7772325873374939,0.360698401927948,-0.00986182689666748,0.3705602288246155,46.169395446777344,1.0,0.7369645833969116,-0.15506085753440857,0.04023297131061554,-0.1952938288450241,-19.847789764404297,1.0,1.0345953702926636,-0.014113564044237137,-0.001049807295203209,-0.013063756749033928,-924.946533203125,14.5812406539917,0.6989734768867493,0.20796534419059753,0.010544061660766602,0.19742128252983093,106.47825622558594,0.9999997615814209,0.37098395824432373,-0.23794463276863098,0.008924111723899841,-0.24686874449253082,-121.82765197753906,1.0,0.6990125775337219,-0.0020050816237926483,-0.0016457336023449898,-0.0003593479923438281,-262.81005859375,26.283403396606445,0.7730696797370911,0.4283195734024048,0.0073626041412353516,0.42095696926116943,109.64981079101562,0.9999998211860657,0.22916030883789062,-0.4501965045928955,-0.03133422136306763,-0.4188622832298279,-115.25030517578125,1.0,0.6284276843070984,-0.0033573212567716837,-0.0027330885641276836,-0.0006242325762286782,-1980.2286376953125,21.918354034423828,0.6372778415679932,0.3154788911342621,0.0006605386734008789,0.3148183524608612,80.7625961303711,1.0,0.7745393514633179,0.2022593915462494,-0.02924346923828125,0.23150286078453064,51.778404235839844,1.0,1.043867826461792,-0.002592777367681265,-0.0016604973934590816,-0.0009322800324298441,-679.6810302734375,26.997169494628906,0.8081398606300354,0.32085368037223816,-0.013876646757125854,0.334730327129364,328.5541687011719,1.0,0.5278171896934509,-0.04354508966207504,0.00687597319483757,-0.05042106285691261,-44.590171813964844,1.000000238418579,1.064152479171753,0.011275699362158775,0.0007850406691431999,0.010490658693015575,5911.7138671875,11.68952751159668,0.9469139575958252,0.2493819147348404,0.01297178864479065,0.23641012609004974,255.36708068847656,1.000000238418579,0.5278173685073853,-0.043545085936784744,0.006875906139612198,-0.05042099207639694,-44.59016799926758,1.000000238418579,0.9458737969398499,-0.005605790298432112,0.00012396182864904404,-0.005729752127081156,-1469.5242919921875,15.585820198059082,0.6819237470626831,0.2614959180355072,0.0010216236114501953,0.260474294424057,66.94295501708984,1.0,0.7757317423820496,-0.12306715548038483,0.004806801676750183,-0.127873957157135,-31.505191802978516,1.0,0.5952838063240051,-0.0035420628264546394,-0.0007934980094432831,-0.0027485648170113564,-2089.193603515625,18.46324920654297,1.0224970579147339,0.3162357807159424,0.007805079221725464,0.3084307014942169,80.95635986328125,1.0,0.6672930717468262,-0.20296509563922882,0.009966939687728882,-0.2129320353269577,-51.95906448364258,1.0000001192092896,0.6756303906440735,-0.0028846077620983124,4.271487705409527e-05,-0.0029273226391524076,-756.1826171875,12.388124465942383,1.1211100816726685,0.16785088181495667,0.02213427424430847,0.1457166075706482,171.87930297851562,1.0,0.515246570110321,-0.12645146250724792,0.0035000890493392944,-0.12995155155658722,-129.48629760742188,1.000000238418579,1.0472091436386108,-0.002162302378565073,0.0012574288994073868,-0.00341973127797246,-566.8345947265625,13.07610034942627,0.4597175717353821,0.2531472444534302,-0.00252726674079895,0.2556745111942291,64.80569458007812,1.0,0.4617384970188141,-0.21176475286483765,-0.003591760993003845,-0.2081729918718338,-54.21177673339844,1.0,0.7202414274215698,-0.005077367648482323,-0.000999240204691887,-0.004078127443790436,-2994.75341796875,20.274564743041992,0.8894034028053284,0.31105464696884155,0.00222623348236084,0.3088284134864807,79.62998962402344,0.9999998211860657,0.7342966198921204,-0.20401909947395325,-0.0002599954605102539,-0.203759104013443,-52.22888946533203,1.0,0.8827696442604065,-0.0034914319403469563,-0.0015031604561954737,-0.0019882714841514826,-915.2579345703125,8.878667831420898,0.7178943753242493,0.15665650367736816,0.024464353919029236,0.13219214975833893,160.416259765625,1.0000001192092896,0.5336422324180603,-0.13172054290771484,-0.013693705201148987,-0.11802683770656586,-134.8818359375,0.9999998807907104,1.1406872272491455,0.00032020293292589486,0.0006366446614265442,-0.00031644172850064933,83.93927764892578,13.681286811828613,0.669158399105072,0.2576867640018463,0.012832626700401306,0.244854137301445,65.96781158447266,1.0,0.46651995182037354,-0.2337726354598999,-0.012648165225982666,-0.22112447023391724,-59.845794677734375,0.9999998211860657,0.6824333667755127,-0.0006034776451997459,-6.509816739708185e-05,-0.000538379477802664,-355.9455871582031,15.717460632324219,0.9491135478019714,0.27573925256729126,-0.0019414126873016357,0.2776806652545929,70.58924865722656,1.0,0.6331103444099426,-0.1888483762741089,0.033167362213134766,-0.22201573848724365,-48.345184326171875,0.9999998211860657,0.6627106666564941,-0.008825466968119144,-0.0008305888622999191,-0.007994878105819225,-2313.543212890625,7.212289810180664,1.0965301990509033,0.17500938475131989,0.01385168731212616,0.16115769743919373,179.20960998535156,1.0,0.6907751560211182,-0.15558356046676636,-0.01084163784980774,-0.14474192261695862,-159.31756591796875,1.0000001192092896,0.8600761890411377,0.003455029334872961,0.001526865060441196,0.001928164274431765,905.7152099609375,10.487096786499023,0.7402347326278687,0.24288882315158844,0.003460213541984558,0.23942860960960388,62.17953872680664,1.0,0.5495424270629883,-0.29498037695884705,-0.005874007940292358,-0.2891063690185547,-75.51497650146484,1.0000001192092896,0.7416099309921265,-0.00949462503194809,-0.0023451815359294415,-0.007149443496018648,-5600.15771484375,17.62359619140625,0.840294361114502,0.3280954360961914,0.0012977421283721924,0.3267976939678192,83.992431640625,1.000000238418579,0.852057933807373,-0.18307709693908691,0.0172053724527359,-0.20028246939182281,-46.86773681640625,1.0,1.497567057609558,-0.013802062720060349,-0.00547369197010994,-0.008328370749950409,-3618.1279296875,3.985715389251709,0.7450768351554871,0.15383154153823853,0.04036471247673035,0.11346682906150818,157.52349853515625,1.0000001192092896,0.42607444524765015,-0.1817602515220642,-0.04438519477844238,-0.13737505674362183,-186.12249755859375,0.9999998211860657,0.6832718849182129,0.00650072330608964,0.0027391945477575064,0.0037615287583321333,1704.1256103515625,7.867640018463135,0.6110501289367676,0.267463356256485,0.004209071397781372,0.2632542848587036,68.47061920166016,1.0,0.5635586977005005,-0.33039334416389465,-0.020175635814666748,-0.3102177083492279,-84.58069610595703,1.0000001192092896,0.7968220710754395,-0.011760962195694447,-0.0005489718168973923,-0.011211990378797054,-6936.89794921875,7.794683456420898,0.7606077790260315,0.30275559425354004,0.019512474536895752,0.2832431197166443,77.50543212890625,1.0,1.1395623683929443,-0.19560864567756653,0.01770065724849701,-0.21330930292606354,-50.07581329345703,0.9999997615814209,0.6154675483703613,-0.024938885122537613,-0.0034260936081409454,-0.021512791514396667,-6537.5791015625,6.22191858291626,0.7407109141349792,0.19085586071014404,0.02073289453983307,0.17012296617031097,195.4364013671875,0.9999998807907104,0.7034090757369995,-0.1977159082889557,-0.01233413815498352,-0.18538177013397217,-202.46109008789062,1.0,0.9431260824203491,0.015513489954173565,-8.929893374443054e-05,0.015602788887917995,8133.53662109375,13.664019584655762,0.7990900278091431,0.46182605624198914,5.120038986206055e-05,0.4617748558521271,236.45494079589844,1.0,0.7361920475959778,-0.435686320066452,0.0010829269886016846,-0.4367692470550537,-223.07139587402344,1.0,0.7330362796783447,-0.0018517263233661652,-0.002896861871704459,0.001045135548338294,-4368.7705078125,19.14209747314453,0.681763768196106,0.41111984848976135,-0.002443671226501465,0.4135635197162628,210.4933624267578,1.0,0.9726707935333252,0.15499524772167206,0.005890905857086182,0.14910434186458588,79.3575668334961,1.0,0.8003069162368774,0.014590763486921787,-0.001922844909131527,0.016513608396053314,15299.5244140625,19.61341667175293,1.187187671661377,0.6350475549697876,-0.014501392841339111,0.6495489478111267,1300.577392578125,0.9999997019767761,0.49197646975517273,-0.40691325068473816,0.018260926008224487,-0.42517417669296265,-833.3583374023438,1.0,0.8876879811286926,0.04718437045812607,0.003027062863111496,0.04415730759501457,98952.796875,4.083788871765137,1.1630343198776245,0.5305688381195068,0.010434865951538086,0.5201339721679688,1086.60498046875,1.000000238418579,0.49197646975517273,-0.40691322088241577,0.01826077699661255,-0.4251739978790283,-833.3582763671875,1.0,0.8784739971160889,0.006698236335068941,0.006830987520515919,-0.00013275141827762127,7023.60986328125,4.601968288421631,0.6428123116493225,0.23139263689517975,0.005774885416030884,0.22561775147914886,118.47303009033203,1.0000001192092896,0.7213612198829651,-0.2080707550048828,0.00362221896648407,-0.21169297397136688,-106.5322265625,1.0000001192092896,0.6437118053436279,-0.026152759790420532,-0.0019705556333065033,-0.02418220415711403,-61702.1015625,2.8690130710601807,0.7821303009986877,0.28048649430274963,0.00906902551651001,0.2714174687862396,143.6090850830078,1.0,0.5819123387336731,-0.26558977365493774,0.012072503566741943,-0.2776622772216797,-135.98196411132812,1.0,0.5666081309318542,-0.015490813180804253,-8.419156074523926e-05,-0.015406621620059013,-16243.294921875,3.352060079574585,1.11929190158844,0.4203689992427826,-0.0006483495235443115,0.4210173487663269,860.9157104492188,1.000000238418579,0.22231575846672058,-0.5509387850761414,0.003468453884124756,-0.5544072389602661,-1128.3226318359375,1.0000001192092896,1.0646029710769653,0.025820285081863403,0.01715271547436714,0.008667570538818836,27074.53125,3.5542659759521484,0.7399033904075623,0.2296302169561386,0.029033035039901733,0.20059718191623688,117.57067108154297,1.000000238418579,0.3947426378726959,-0.32566434144973755,0.028643131256103516,-0.35430747270584106,-166.74014282226562,1.0,0.5696157813072205,-0.0178677998483181,-0.007272525690495968,-0.010595274157822132,-42155.4296875,4.703944206237793,0.8960052132606506,0.24073278903961182,0.0007988959550857544,0.23993389308452606,123.25518798828125,0.9999998211860657,1.897758960723877,-0.21368516981601715,0.01066829264163971,-0.22435346245765686,-109.40680694580078,0.9999998807907104,0.5526574850082397,-0.015596171841025352,-0.003647511824965477,-0.011948660016059875,-16353.771484375,3.4065122604370117,0.8072409629821777,0.459983766078949,-0.007107764482498169,0.46709153056144714,942.0467529296875,1.0,-0.3358306288719177,-0.6402380466461182,-0.047232627868652344,-0.5930054187774658,-1311.20751953125,1.000000238418579,0.8196271657943726,-0.4845278561115265,-0.028511017560958862,-0.4560168385505676,-118085.25,1.5370253324508667,0.05872730165719986,-0.15850527584552765,0.0049399733543396,-0.16344524919986725,-18.86212730407715,1.0000001192092896,id-00000000,classification:resnet50,True
0,2.791412830352783,-0.002818015404045582,-0.005123869050294161,0.002305853646248579,-26.51188850402832,7.339049816131592,10.802056312561035,2.2295734882354736,0.7226777076721191,1.5068957805633545,142.6927032470703,1.0000003576278687,24.710145950317383,2.8742213249206543,0.15569543838500977,2.7185258865356445,183.95016479492188,1.0,3.535740613937378,-0.08571092784404755,-0.04129592701792717,-0.04441500082612038,-351.07196044921875,6.482783794403076,5.484847545623779,1.912590742111206,0.28004634380340576,1.6325443983078003,122.40580749511719,0.9999998211860657,9.40758228302002,-0.27405813336372375,0.0016376376152038574,-0.2756957709789276,-17.53972053527832,1.0,3.0349502563476562,-0.007576462347060442,0.0007956423796713352,-0.008372104726731777,-279.2987060546875,11.603374481201172,6.550740718841553,1.3901112079620361,0.4073595404624939,0.9827516674995422,88.96711730957031,1.0000001192092896,11.851016998291016,0.9198848605155945,0.35989660024642944,0.559988260269165,58.87263107299805,1.0,2.1553192138671875,-0.011472649872303009,-0.011472503654658794,-1.46379520060691e-07,-187.9678955078125,6.971461772918701,7.864192485809326,3.155836582183838,0.19811606407165527,2.9577205181121826,807.8941650390625,1.0000001192092896,2.7729620933532715,-0.006569297984242439,-0.11843602359294891,0.11186672747135162,-1.6817402839660645,1.0,2.873837471008301,-0.042952291667461395,-0.03636206313967705,-0.0065902299247682095,-703.7303466796875,8.265458106994629,8.196859359741211,3.5806307792663574,0.16444826126098633,3.416182518005371,916.6414794921875,1.0,2.7729620933532715,-0.006569297984242439,-0.11843602359294891,0.11186672747135162,-1.6817402839660645,1.0,2.1193442344665527,-0.02358466014266014,-0.023412829264998436,-0.00017183103773277253,-386.41107177734375,10.85974407196045,6.829352378845215,2.117954969406128,0.07030177116394043,2.0476531982421875,135.5491180419922,1.0,3.199326992034912,-0.25011712312698364,-0.33630138635635376,0.08618425577878952,-16.007495880126953,1.0,3.7307541370391846,-0.010650462470948696,-0.008398408070206642,-0.002252054400742054,-392.61865234375,16.6441650390625,3.81878662109375,1.9199938774108887,0.06696295738220215,1.8530309200286865,122.87960815429688,1.000000238418579,4.8966898918151855,0.6423176527023315,-0.19598156213760376,0.8382992148399353,41.10832977294922,1.000000238418579,3.220950126647949,-0.06817115843296051,-0.006806898862123489,-0.06136425957083702,-1116.916259765625,6.6793413162231445,6.477391719818115,1.2560189962387085,0.13220369815826416,1.1238152980804443,321.5408630371094,1.0000001192092896,4.265847206115723,-0.4211624264717102,-0.12466931343078613,-0.2964931130409241,-107.81758117675781,1.0,2.0128631591796875,-0.03020614944398403,-0.012427441775798798,-0.017778707668185234,-494.8975524902344,12.313875198364258,4.373143196105957,1.9997016191482544,0.0522688627243042,1.9474327564239502,127.98090362548828,1.0,3.452117443084717,-0.2221599519252777,-0.3109263479709625,0.08876639604568481,-14.218236923217773,1.000000238418579,3.176619529724121,-0.025433966889977455,-0.00657244399189949,-0.018861522898077965,-937.5977783203125,18.37246322631836,4.138825416564941,1.755415678024292,0.0264512300491333,1.7289644479751587,112.34660339355469,1.0,5.4001593589782715,0.035721153020858765,0.45119646191596985,-0.4154753088951111,2.286153793334961,0.9999998211860657,3.3926188945770264,-0.046647440642118454,-0.006066314876079559,-0.040581125766038895,-764.2716674804688,9.877947807312012,4.933331489562988,1.3340033292770386,0.18376946449279785,1.1502338647842407,341.5048522949219,1.0,3.022301197052002,-0.9447370767593384,-0.18876665830612183,-0.7559704184532166,-241.85269165039062,1.000000238418579,2.2615411281585693,-0.0493507944047451,-0.011992957442998886,-0.037357836961746216,-1617.1268310546875,14.668047904968262,4.768593788146973,2.6866536140441895,0.11722803115844727,2.569425582885742,343.89166259765625,0.9999998807907104,1.9634679555892944,-1.7670990228652954,0.10029757022857666,-1.867396593093872,-226.1886749267578,0.9999998211860657,2.2550442218780518,-0.014383013360202312,-0.006893264129757881,-0.007489749230444431,-2120.861572265625,26.75819969177246,4.863927364349365,1.93117356300354,-0.13778066635131836,2.0689542293548584,247.19021606445312,1.0,4.751083850860596,0.693374752998352,0.5338163375854492,0.15955840051174164,88.75196838378906,0.9999998211860657,3.48618745803833,-0.02946498617529869,-0.0025138091295957565,-0.026951177045702934,-1931.017333984375,15.584151268005371,4.452315807342529,1.3508304357528687,-0.06557631492614746,1.4164067506790161,691.6251831054688,1.000000238418579,2.34549617767334,-0.10487623512744904,-0.07814328372478485,-0.026732951402664185,-53.696632385253906,0.9999998211860657,3.3735740184783936,-0.02265056222677231,-0.009349283762276173,-0.013301278464496136,-2968.8544921875,26.153711318969727,4.471890926361084,1.2330231666564941,0.2647020220756531,0.9683211445808411,631.307861328125,1.0,2.34549617767334,-0.10487623512744904,-0.07814328372478485,-0.026732951402664185,-53.696632385253906,0.9999998211860657,3.1255576610565186,-0.006155783776193857,-0.0029853489249944687,-0.0031704348511993885,-403.4254455566406,12.63614559173584,4.133697986602783,1.3818591833114624,0.0858839750289917,1.2959752082824707,176.8779754638672,1.000000238418579,3.67447829246521,-0.77369225025177,-0.04027402400970459,-0.7334182262420654,-99.03260803222656,1.0,2.3687596321105957,-0.014853144995868206,-0.0019520623609423637,-0.012901082634925842,-2190.185302734375,23.94556999206543,4.357034206390381,1.8827850818634033,-0.017989397048950195,1.9007744789123535,240.99649047851562,1.0,5.164669036865234,-0.8145586848258972,0.08997440338134766,-0.9045330882072449,-104.26351165771484,0.9999997615814209,2.6125829219818115,-0.04432649910449982,-0.010093752294778824,-0.03423274680972099,-2904.9814453125,6.33000373840332,5.763058662414551,0.9369596838951111,0.1619781255722046,0.7749815583229065,479.7233581542969,0.9999998211860657,2.7934718132019043,-0.9198603630065918,-0.12794208526611328,-0.7919182777404785,-470.968505859375,1.0000004768371582,2.5225212574005127,-0.029305599629878998,-0.003239797428250313,-0.026065802201628685,-1920.57177734375,19.411479949951172,3.7212042808532715,1.7788643836975098,-0.05854237079620361,1.8374067544937134,227.69464111328125,1.0,2.3071649074554443,-0.8942259550094604,-0.05626332759857178,-0.8379626274108887,-114.46092224121094,0.9999998211860657,2.6006739139556885,-0.024275507777929306,-0.004085022956132889,-0.020190484821796417,-3579.5693359375,25.661108016967773,3.577066659927368,2.030752182006836,-0.04905390739440918,2.079806089401245,259.936279296875,0.9999997615814209,4.062973976135254,-0.9857022762298584,0.5001641511917114,-1.4858664274215698,-126.16989135742188,1.0,3.757991075515747,-0.04192698001861572,-0.008563835173845291,-0.03336314484477043,-2747.7265625,9.259864807128906,3.7690491676330566,0.8927276730537415,0.1408044695854187,0.7519232034683228,457.0765686035156,1.000000238418579,4.315377712249756,-1.0107330083847046,-0.2505572438240051,-0.7601757645606995,-517.4953002929688,1.0,2.39878511428833,-0.02935991808772087,-0.0024373363703489304,-0.02692258171737194,-1924.131591796875,19.63446807861328,3.3362412452697754,1.8384361267089844,-0.08964455127716064,1.928080677986145,235.31982421875,1.000000238418579,2.2965071201324463,-0.8505728244781494,0.004773557186126709,-0.8553463816642761,-108.87332153320312,1.0,2.4033641815185547,-0.017319444566965103,-0.0029355203732848167,-0.014383924193680286,-2553.85595703125,20.92676544189453,3.757887601852417,1.9544755220413208,-0.0942610502243042,2.048736572265625,250.17286682128906,1.0,4.921914100646973,-0.8454234600067139,0.2177978754043579,-1.0632213354110718,-108.21420288085938,1.000000238418579,5.045557022094727,-0.06340048462152481,-0.007027018815279007,-0.056373465806245804,-4155.01416015625,10.001336097717285,3.8997421264648438,0.9887840151786804,0.13426268100738525,0.8545213341712952,506.2574157714844,1.0000001192092896,2.171518564224243,-1.2642505168914795,0.026519298553466797,-1.2907698154449463,-647.2962646484375,1.0,2.26332950592041,-0.02146454155445099,-0.005777638405561447,-0.01568690314888954,-2813.400390625,22.42082977294922,4.642214298248291,2.3659327030181885,-0.013309001922607422,2.379241704940796,605.6787719726562,1.0,0.43828487396240234,-2.3646512031555176,-0.18029427528381348,-2.184356927871704,-605.3507080078125,0.9999998807907104,2.5021767616271973,-0.012283574789762497,-0.009957464411854744,-0.0023261099122464657,-7245.1474609375,20.45747947692871,6.031064987182617,1.5916180610656738,-0.0007457733154296875,1.5923638343811035,407.4542236328125,1.0,4.0139617919921875,1.0439509153366089,-0.09144818782806396,1.1353991031646729,267.2514343261719,1.0000001192092896,5.912797927856445,-0.014677920378744602,-0.004763060249388218,-0.009914860129356384,-3847.728759765625,20.089040756225586,3.661062240600586,1.4804023504257202,0.002458333969116211,1.477944016456604,1515.9320068359375,0.9999997615814209,2.509347438812256,-0.26298844814300537,0.019193261861801147,-0.2821817100048065,-269.3001708984375,1.0000001192092896,3.6414334774017334,0.03706558421254158,0.002989787608385086,0.034075796604156494,19433.041015625,13.37869644165039,4.744291305541992,1.16325044631958,0.12822508811950684,1.0350253582000732,1191.16845703125,0.9999998211860657,2.5093483924865723,-0.26298844814300537,0.019192904233932495,-0.28218135237693787,-269.3001708984375,1.0,3.7949957847595215,-0.011849861592054367,0.0035012876614928246,-0.015351149253547192,-3106.3701171875,11.038731575012207,3.7845942974090576,1.2902573347091675,0.03498435020446777,1.2552729845046997,330.3058776855469,0.9999998211860657,2.956376791000366,-0.7879111766815186,-0.047454893589019775,-0.7404562830924988,-201.70526123046875,0.9999997019767761,2.495943546295166,-0.052734725177288055,-0.009191751480102539,-0.043542973697185516,-31104.20703125,13.297987937927246,5.95541524887085,1.5727177858352661,0.057437896728515625,1.5152798891067505,402.6157531738281,1.0000003576278687,3.115265130996704,-1.0498299598693848,-0.027074217796325684,-1.022755742073059,-268.7564697265625,1.0,2.734250545501709,-0.002673242473974824,-0.003425170900300145,0.0007519283681176603,-700.7744750976562,6.9787373542785645,6.243467330932617,0.7632119059562683,0.10076570510864258,0.6624462008476257,781.5289916992188,1.0,3.0281612873077393,-0.6589785218238831,-0.030841708183288574,-0.6281368136405945,-674.7940063476562,1.0,3.7674481868743896,-0.04781731218099594,0.0008289851248264313,-0.04864629730582237,-12535.021484375,14.249146461486816,2.5737321376800537,1.3880332708358765,-0.007168412208557129,1.3952016830444336,355.3365173339844,1.0,2.116367816925049,-1.1065720319747925,-0.0011258125305175781,-1.105446219444275,-283.2824401855469,0.9999998807907104,2.7377078533172607,-0.02381056174635887,-0.003937540575861931,-0.01987302117049694,-14044.041015625,20.522342681884766,3.8683722019195557,1.6098113059997559,-0.04572737216949463,1.6555386781692505,412.1116943359375,1.0,3.095738172531128,-1.0907058715820312,0.0457230806350708,-1.136428952217102,-279.220703125,1.0,4.257725715637207,-0.014737158082425594,-0.006962945684790611,-0.007774212397634983,-3863.257568359375,5.399601936340332,4.089006423950195,0.7193086743354797,0.15115123987197876,0.568157434463501,736.5720825195312,1.0,3.047058582305908,-0.6939908266067505,-0.09256815910339355,-0.6014226675033569,-710.6466064453125,0.9999998211860657,5.0926899909973145,-0.03187501057982445,0.0003156214952468872,-0.032190632075071335,-8355.8427734375,12.009140968322754,2.678006887435913,1.2827948331832886,-0.02162027359008789,1.3044151067733765,328.3954772949219,1.0,2.0478134155273438,-1.354202151298523,-0.12305665016174316,-1.2311455011367798,-346.6757507324219,1.0,3.2003180980682373,-0.020890668034553528,-0.0044181570410728455,-0.016472510993480682,-12321.8173828125,11.93387508392334,3.152902841567993,1.3391070365905762,0.02884232997894287,1.3102647066116333,342.8114013671875,1.000000238418579,5.105821132659912,-0.9716101288795471,0.17638808488845825,-1.1479982137680054,-248.73219299316406,0.9999998807907104,2.616100311279297,-0.037617411464452744,-0.010880574584007263,-0.02673683688044548,-9861.1787109375,7.105101108551025,2.8521151542663574,0.7052187919616699,0.09025180339813232,0.6149669885635376,722.14404296875,1.0,3.4201717376708984,-0.7758689522743225,-0.07548236846923828,-0.7003865838050842,-794.4898071289062,1.0,2.8602702617645264,-0.029830681160092354,0.004437671974301338,-0.03426835313439369,-7819.93408203125,12.177530288696289,3.4275853633880615,1.4142824411392212,0.011122465133666992,1.4031599760055542,362.0563049316406,1.0,2.195809841156006,-1.4636454582214355,0.027269363403320312,-1.4909148216247559,-374.6932373046875,0.9999998807907104,2.541515350341797,-0.029979685321450233,-0.004317944869399071,-0.025661740452051163,-17682.73828125,15.893584251403809,3.324317216873169,1.7906441688537598,-0.012192964553833008,1.8028371334075928,458.4049072265625,1.0,2.735337972640991,-0.9560667872428894,0.14954322576522827,-1.1056100130081177,-244.7530975341797,1.0,5.323483467102051,-0.041326217353343964,-0.0178635586053133,-0.023462658748030663,-10833.419921875,4.2026519775390625,3.5348129272460938,0.765685498714447,0.18632537126541138,0.5793601274490356,784.0619506835938,1.000000238418579,2.6811304092407227,-0.9831370711326599,-0.18881535530090332,-0.7943217158317566,-1006.7323608398438,1.0000003576278687,2.4187674522399902,-0.00935941468924284,0.005699087865650654,-0.015058502554893494,-2453.514404296875,8.610563278198242,3.140040159225464,1.4714181423187256,-0.025963902473449707,1.4973820447921753,376.68304443359375,1.0,2.160919666290283,-1.8091633319854736,-0.09610068798065186,-1.7130626440048218,-463.14581298828125,1.000000238418579,2.1315994262695312,-0.04679185152053833,-0.005306996405124664,-0.041484855115413666,-27598.95703125,8.50811767578125,3.781599521636963,1.5955039262771606,0.053382039070129395,1.5421218872070312,408.4490051269531,1.0000001192092896,11.938679695129395,-0.9911367893218994,-0.0146104097366333,-0.9765263795852661,-253.73101806640625,1.0,6.165846347808838,-0.07985865324735641,-0.034761231392621994,-0.04509742185473442,-20934.466796875,4.034555912017822,3.180802345275879,0.7792395949363708,0.10054534673690796,0.6786942481994629,797.9413452148438,1.0,2.311173439025879,-1.0912585258483887,-0.14503854513168335,-0.9462199807167053,-1117.44873046875,0.9999998211860657,3.734043836593628,0.03075253590941429,0.007548481225967407,0.023204054683446884,16123.185546875,11.001047134399414,3.9199466705322266,2.2045681476593018,-0.010750770568847656,2.2153189182281494,1128.7388916015625,1.000000238418579,1.9760136604309082,-2.3773837089538574,0.05865597724914551,-2.436039686203003,-1217.220458984375,1.0000001192092896,2.345548629760742,-0.0009255593176931143,-0.006879598833620548,0.00595403928309679,-2183.66845703125,18.65017318725586,3.9190785884857178,1.8439056873321533,0.05923926830291748,1.7846664190292358,944.0797119140625,0.9999998211860657,4.615827560424805,0.37247973680496216,-0.16926395893096924,0.5417436957359314,190.70962524414062,0.9999999403953552,2.5543084144592285,0.026360929012298584,0.0037937555462121964,0.022567173466086388,27641.4375,9.905193328857422,4.805581569671631,2.927431106567383,-0.07993531227111816,3.007366418838501,5995.37890625,1.0,2.111254930496216,-2.7587223052978516,0.09975099563598633,-2.858473300933838,-5649.86328125,1.000000238418579,2.5858421325683594,0.08556494116783142,0.013544328510761261,0.07202061265707016,179442.6875,7.495240688323975,6.001382350921631,2.4273838996887207,0.0038394927978515625,2.423544406890869,4971.2822265625,1.0000001192092896,2.1112537384033203,-2.7587223052978516,0.09974861145019531,-2.858470916748047,-5649.86328125,1.000000238418579,3.7297537326812744,0.044517822563648224,0.014662262052297592,0.02985556051135063,46680.3203125,3.3196277618408203,3.4028420448303223,1.387440800666809,0.040021300315856934,1.3474195003509521,710.3696899414062,1.0,2.7065062522888184,-0.9318453669548035,-0.0647960901260376,-0.8670492768287659,-477.1048278808594,1.0,1.9983010292053223,-0.09425389766693115,-0.016344331204891205,-0.07790956646203995,-222372.84375,3.9866139888763428,4.055505275726318,1.727333664894104,0.018618345260620117,1.7087153196334839,884.3948364257812,1.000000238418579,3.468158721923828,-1.2823313474655151,0.06961417198181152,-1.3519455194473267,-656.5536499023438,0.9999997019767761,1.864589810371399,0.0032491714227944613,-0.0009027731139212847,0.004151944536715746,3407.003173828125,7.325493812561035,5.307299613952637,1.8488893508911133,0.010556936264038086,1.8383324146270752,3786.525390625,1.0,1.3646924495697021,-3.362611770629883,0.03378152847290039,-3.396393299102783,-6886.62890625,1.0,3.148786783218384,-0.02937202900648117,-0.0016764309257268906,-0.02769559808075428,-30798.8046875,6.786355495452881,3.571359634399414,1.688388705253601,0.05097508430480957,1.6374136209487915,864.4550170898438,1.0,1.6203280687332153,-1.34477961063385,0.09340405464172363,-1.4381836652755737,-688.5271606445312,1.000000238418579,2.138434648513794,-0.06284783035516739,-0.03291871398687363,-0.029929116368293762,-148276.640625,5.008780479431152,4.848739147186279,1.4418256282806396,0.01905655860900879,1.4227690696716309,738.2147216796875,1.0,8.59792423248291,-0.937930703163147,0.08625853061676025,-1.0241892337799072,-480.22052001953125,1.0,3.1124939918518066,-0.05582129582762718,-0.031413204967975616,-0.024408090859651566,-58532.87109375,3.1368448734283447,4.717167854309082,1.8939025402069092,0.04231226444244385,1.8515902757644653,3878.71240234375,1.0,-2.1489737033843994,-3.7862138748168945,-0.11772441864013672,-3.668489456176758,-7754.166015625,1.0,1.6757835149765015,-0.8930168151855469,-0.09782958030700684,-0.79518723487854,-219467.8125,1.4405426979064941,0.8370761871337891,-0.1758410483598709,0.0403871089220047,-0.2162281572818756,-21.10092544555664,1.0,id-00000003,classification:resnet50,True
0,1.6756142377853394,0.003793030045926571,-0.00390267139300704,0.007695701438933611,35.6848258972168,11.088793754577637,8.167902946472168,2.171441078186035,0.45144128799438477,1.7199997901916504,138.97222900390625,1.0,20.392976760864258,2.388986110687256,0.12520217895507812,2.2637839317321777,152.89511108398438,1.0,0.8340944647789001,-0.02352720871567726,-0.01481423806399107,-0.008712970651686192,-96.36744689941406,11.38829517364502,4.840528964996338,2.0509676933288574,0.12419867515563965,1.9267690181732178,131.26193237304688,1.0,6.641872882843018,-0.03617730736732483,0.06352876126766205,-0.09970606863498688,-2.315347671508789,1.0,1.2207320928573608,-0.0011803818633779883,0.0008127152686938643,-0.0019930971320718527,-43.51359558105469,13.43828296661377,4.467095375061035,1.3607066869735718,0.3478633165359497,1.012843370437622,87.0852279663086,1.000000238418579,9.93349552154541,0.7945855855941772,0.1610168218612671,0.6335687637329102,50.853477478027344,1.000000238418579,0.7590832114219666,-0.002712549176067114,-0.002541607478633523,-0.00017094174108933657,-44.442405700683594,6.389741897583008,7.028375625610352,2.842031478881836,0.18225455284118652,2.6597769260406494,727.56005859375,1.000000238418579,2.4141056537628174,-0.04028025269508362,-0.05249229818582535,0.012212047353386879,-10.311744689941406,1.0,0.8369216918945312,-0.00889535527676344,-0.008893629536032677,-1.7254045587833389e-06,-145.7415008544922,6.4937920570373535,7.3891682624816895,3.1239254474639893,0.22688603401184082,2.8970394134521484,799.7249145507812,1.0,2.4141056537628174,-0.04028025269508362,-0.05249229818582535,0.012212047353386879,-10.311744689941406,1.0,0.6808867454528809,-0.0062325987964868546,-0.004124421626329422,-0.002108177402988076,-102.11489868164062,12.45974063873291,6.340405464172363,1.8839904069900513,0.208251953125,1.6757384538650513,120.57538604736328,1.0,2.8416478633880615,-0.27858680486679077,-0.1417039930820465,-0.13688281178474426,-17.82955551147461,1.0000001192092896,0.9092010259628296,-0.0024461564607918262,-0.0015735761262476444,-0.0008725802763365209,-90.17510986328125,17.977317810058594,3.5068776607513428,1.6949529647827148,0.08727884292602539,1.6076741218566895,108.47698974609375,1.0000001192092896,4.3391571044921875,0.6298842430114746,-0.014243483543395996,0.6441277265548706,40.312591552734375,0.9999997615814209,0.6831483840942383,-0.009561827406287193,-0.0005788896232843399,-0.008982937783002853,-156.66098022460938,15.964447021484375,6.3926286697387695,1.082950472831726,0.08610868453979492,0.9968417882919312,277.2353210449219,0.9999998211860657,4.011056423187256,-0.33419716358184814,-0.03708595037460327,-0.2971112132072449,-85.55447387695312,0.9999997615814209,0.5308960676193237,-0.005132852587848902,-0.0019355772528797388,-0.003197275334969163,-84.0966567993164,11.947608947753906,3.939640522003174,1.6644173860549927,0.0441129207611084,1.6203044652938843,106.52271270751953,0.9999999403953552,3.271328926086426,-0.13919244706630707,-0.34613680839538574,0.20694434642791748,-8.908316612243652,1.000000238418579,0.7841196656227112,-0.0017513260245323181,-0.0009373780339956284,-0.0008139479905366898,-64.56088256835938,18.588289260864258,3.594231367111206,1.426242470741272,0.02276313304901123,1.4034793376922607,91.2795181274414,1.0,4.237112998962402,0.1668020784854889,0.48409977555274963,-0.31729769706726074,10.675333023071289,1.0000001192092896,0.8408180475234985,-0.007563356775790453,-0.0002520708367228508,-0.007311285939067602,-123.91803741455078,15.917502403259277,4.731121063232422,1.1361749172210693,0.18088072538375854,0.9552941918373108,290.86077880859375,1.0,3.0389411449432373,-0.6203534007072449,-0.1801595389842987,-0.44019386172294617,-158.8104705810547,1.0000001192092896,0.7834817171096802,-0.009194672107696533,-0.0015120906755328178,-0.007682581432163715,-301.291015625,21.261972427368164,4.323602199554443,2.4110071659088135,0.06782007217407227,2.343187093734741,308.6089172363281,1.0,1.4738085269927979,-1.2593159675598145,-0.031017661094665527,-1.228298306465149,-161.19244384765625,0.9999998211860657,0.4563615024089813,-0.0028706900775432587,-0.0008898328524082899,-0.0019808572251349688,-423.30047607421875,24.396678924560547,4.072527885437012,1.6264331340789795,-0.030334115028381348,1.6567672491073608,208.18344116210938,1.000000238418579,3.7030649185180664,0.7107393145561218,0.4986082911491394,0.21213102340698242,90.9746322631836,1.0,0.8256160020828247,-0.005087635014206171,0.00021029310300946236,-0.005297928117215633,-333.4232482910156,23.56492805480957,4.437999248504639,1.1925495862960815,-0.020434856414794922,1.2129844427108765,610.5853881835938,0.9999998807907104,1.8585408926010132,0.02882714755833149,-0.017634177580475807,0.0464613251388073,14.759499549865723,1.0,1.212533712387085,-0.004888506606221199,-0.001021427335217595,-0.003867079271003604,-640.746337890625,21.27651596069336,3.865227699279785,1.0304499864578247,0.24396347999572754,0.7864865064620972,527.5903930664062,1.0,1.8585408926010132,0.02882714755833149,-0.017634177580475807,0.0464613251388073,14.759499549865723,1.0,0.7021781206130981,-0.00450328690931201,-0.0004281909205019474,-0.004075095988810062,-295.1274108886719,12.813994407653809,3.8167006969451904,1.356804370880127,0.1304856538772583,1.2263187170028687,173.67095947265625,1.0,2.6271541118621826,-0.45546871423721313,-0.07904526591300964,-0.3764234483242035,-58.29999542236328,0.9999998211860657,0.7118175029754639,-0.00312515115365386,-0.0002170880325138569,-0.002908063121140003,-460.8222961425781,22.236528396606445,3.640289783477783,1.7235581874847412,-0.014711737632751465,1.7382699251174927,220.61544799804688,1.0,3.5814483165740967,-0.4376571476459503,0.059653133153915405,-0.4973102807998657,-56.02011489868164,1.000000238418579,0.6521111130714417,-0.008241909556090832,-0.0019293278455734253,-0.0063125817105174065,-540.1417846679688,13.980671882629395,5.341902256011963,0.926436185836792,0.16908913850784302,0.757347047328949,474.3353271484375,1.0,2.5780789852142334,-0.6717429757118225,-0.0732877254486084,-0.5984552502632141,-343.9324035644531,1.0000001192092896,0.6839267015457153,-0.0033653450664132833,-0.0008834712207317352,-0.002481873845681548,-220.55125427246094,19.48937225341797,4.097041130065918,1.6112210750579834,0.019571542739868164,1.5916495323181152,206.23629760742188,1.0000001192092896,1.7867227792739868,-0.6474905014038086,-0.16120192408561707,-0.48628857731819153,-82.8787841796875,1.0000001192092896,0.674420952796936,-0.004473813343793154,-0.001023707678541541,-0.0034501056652516127,-659.6906127929688,25.782567977905273,3.694089651107788,1.908050775527954,0.01177966594696045,1.8962711095809937,244.23049926757812,1.0,3.2619786262512207,-0.5978190302848816,0.36608362197875977,-0.9639026522636414,-76.52083587646484,0.9999995827674866,0.8595508337020874,-0.007653646171092987,-0.000525355339050293,-0.007128290832042694,-501.58935546875,14.710769653320312,3.753875970840454,0.8305503129959106,0.11622244119644165,0.714327871799469,425.24176025390625,1.0000001192092896,3.2239043712615967,-0.7271324396133423,-0.2373557984828949,-0.4897766411304474,-372.29180908203125,0.9999998807907104,0.515021562576294,-0.0060176607221364975,-0.00042830919846892357,-0.005589351523667574,-394.3734130859375,20.31610107421875,2.7113871574401855,1.6093167066574097,-0.06631934642791748,1.6756360530853271,205.99253845214844,1.0,1.7083959579467773,-0.6300621032714844,0.07792842388153076,-0.7079905271530151,-80.64794921875,1.0,0.619319498538971,-0.004367877263575792,-0.0006280967500060797,-0.0037397805135697126,-644.0697021484375,20.0230655670166,3.847416639328003,1.6593313217163086,-0.024686217308044434,1.684017539024353,212.3944091796875,1.0,4.192993640899658,-0.48687899112701416,0.24147045612335205,-0.7283494472503662,-62.32051086425781,1.0,0.7118740081787109,-0.00937395915389061,-0.0005553727969527245,-0.008818586356937885,-614.331787109375,13.220215797424316,3.720902919769287,0.9013432264328003,0.10235697031021118,0.7989862561225891,461.48773193359375,0.9999997019767761,2.0519275665283203,-0.8508620858192444,-0.03836268186569214,-0.8124994039535522,-435.6413879394531,1.0,0.7519904971122742,-0.004771169740706682,-2.2728927433490753e-06,-0.004768896847963333,-625.3667602539062,22.65874671936035,4.016729354858398,2.2187302112579346,0.0430905818939209,2.1756396293640137,567.9949340820312,1.000000238418579,0.8853387832641602,-1.714650273323059,-0.2249586582183838,-1.4896916151046753,-438.9504699707031,1.0,0.5596436858177185,-0.0014882027171552181,-0.0011805071262642741,-0.00030769561999477446,-877.7777099609375,15.408270835876465,4.790794372558594,1.3281666040420532,0.04831886291503906,1.2798477411270142,340.0106506347656,1.0,3.0547990798950195,0.7983341813087463,0.036580026149749756,0.7617541551589966,204.37355041503906,1.0,1.1624467372894287,-0.005103054456412792,-0.0007917103357613087,-0.0043113441206514835,-1337.735107421875,19.997690200805664,3.1632232666015625,1.3258776664733887,-0.006945610046386719,1.3328232765197754,1357.69873046875,1.0,1.8984301090240479,-0.15668490529060364,0.004576757550239563,-0.1612616628408432,-160.44534301757812,1.0,0.9784646034240723,0.0017243820475414395,0.0005140748107805848,0.0012103072367608547,904.0728149414062,23.34358024597168,3.6333703994750977,0.9594075083732605,0.10620522499084473,0.8532022833824158,982.4332885742188,0.9999997615814209,1.8984289169311523,-0.15668490529060364,0.004575997591018677,-0.16126090288162231,-160.44534301757812,1.0,0.9203479290008545,-0.005602073390036821,-0.0006364849396049976,-0.004965588450431824,-1468.5499267578125,11.808802604675293,3.9035303592681885,1.223634958267212,0.05030417442321777,1.1733307838439941,313.25054931640625,1.0,1.7348674535751343,-0.5671712756156921,-0.007435500621795654,-0.5597357749938965,-145.1958465576172,0.9999998211860657,0.6376073360443115,-0.006451670546084642,0.00018320465460419655,-0.006634875200688839,-3805.35009765625,15.803680419921875,5.591250419616699,1.4985136985778809,0.07208621501922607,1.4264274835586548,383.6195068359375,1.000000238418579,2.321261167526245,-0.7258179187774658,0.032323598861694336,-0.7581415176391602,-185.80938720703125,1.0,0.6462967395782471,-0.005681193899363279,-0.0007175542414188385,-0.004963639657944441,-1489.2908935546875,8.702922821044922,6.059916019439697,0.7620465159416199,0.09571313858032227,0.6663333773612976,780.3356323242188,1.0,2.6863632202148438,-0.46664896607398987,0.024623513221740723,-0.4912724792957306,-477.8485412597656,0.9999996423721313,0.763360321521759,-0.00809461809694767,-0.00011840090155601501,-0.007976217195391655,-2121.95556640625,13.048813819885254,2.1668307781219482,1.2739461660385132,0.016002416610717773,1.2579437494277954,326.1302185058594,0.9999997615814209,1.0105565786361694,-0.9053071141242981,-0.09260702133178711,-0.812700092792511,-231.7586212158203,0.9999998807907104,0.5531635284423828,-0.004532104358077049,2.8996728360652924e-05,-0.004561101086437702,-2673.14404296875,17.709226608276367,3.5771450996398926,1.4139235019683838,0.018843650817871094,1.3950798511505127,361.96441650390625,1.0000001192092896,2.5060391426086426,-0.7785713076591492,0.07277518510818481,-0.851346492767334,-199.3142547607422,0.9999998211860657,0.6166807413101196,-0.009211007505655289,-0.0006902096793055534,-0.008520797826349735,-2414.6103515625,12.42933464050293,4.140491008758545,0.7013001441955566,0.055063843727111816,0.6462363004684448,718.13134765625,1.0,2.3216662406921387,-0.4715697169303894,-0.09921509027481079,-0.3723546266555786,-482.88739013671875,1.0,0.7508420944213867,-0.005285453516989946,0.0004321439191699028,-0.005717597436159849,-1385.5499267578125,13.388855934143066,2.7633581161499023,1.2995119094848633,0.03537726402282715,1.2641346454620361,332.675048828125,0.9999998807907104,1.2398767471313477,-0.9897279739379883,-0.14761853218078613,-0.8421094417572021,-253.370361328125,1.000000238418579,0.8220319151878357,-0.005597738549113274,0.0004764110781252384,-0.006074149627238512,-3301.680419921875,12.369268417358398,3.032708168029785,1.3426449298858643,-0.0014889240264892578,1.3441338539123535,343.71710205078125,0.9999998211860657,2.3276054859161377,-0.6764733195304871,0.10897058248519897,-0.785443902015686,-173.1771697998047,1.000000238418579,0.5975654721260071,-0.01451088860630989,-0.00033220741897821426,-0.014178681187331676,-3803.9423828125,5.438897609710693,3.050715446472168,0.7156609892845154,0.0790523886680603,0.6366086006164551,732.8368530273438,1.0,2.3196187019348145,-0.577974259853363,-0.06480735540390015,-0.5131669044494629,-591.8456420898438,1.0,0.9590549468994141,-0.004692826885730028,0.0005377847701311111,-0.005230611655861139,-1230.1964111328125,12.084149360656738,3.310330390930176,1.2991812229156494,0.011070847511291504,1.288110375404358,332.59039306640625,1.0,1.0067179203033447,-1.1474907398223877,-0.033554673194885254,-1.1139360666275024,-293.75762939453125,0.9999998211860657,0.6067150831222534,-0.005254010204225779,8.541066199541092e-05,-0.0053394208662211895,-3098.94140625,15.661677360534668,2.4551713466644287,1.491153597831726,-0.047476887702941895,1.538630485534668,381.7353210449219,1.0,3.089263677597046,-0.771075963973999,0.17584443092346191,-0.9469203948974609,-197.39544677734375,1.0,0.5561436414718628,-0.011876762844622135,-0.0008231503888964653,-0.01105361245572567,-3113.422119140625,7.1404643058776855,3.4923019409179688,0.7568253874778748,0.10424166917800903,0.6525837182998657,774.9891967773438,1.0,2.035229206085205,-0.7573191523551941,-0.2356904149055481,-0.521628737449646,-775.4948120117188,1.0,0.6343140006065369,-0.0048973215743899345,0.0009236219339072704,-0.005820943508297205,-1283.803466796875,11.690195083618164,2.62713360786438,1.3884799480438232,0.05949532985687256,1.3289846181869507,355.45086669921875,1.0,0.8805222511291504,-1.3622316122055054,-0.03843486309051514,-1.3237967491149902,-348.7312927246094,1.0000001192092896,0.4317953884601593,-0.0065183211117982864,0.00032505812123417854,-0.006843379233032465,-3844.662353515625,9.380961418151855,3.2982711791992188,1.4607712030410767,0.032308340072631836,1.4284628629684448,373.9574279785156,1.0,2.204652786254883,-0.7128516435623169,0.024000465869903564,-0.7368521094322205,-182.49002075195312,0.9999998211860657,0.5196438431739807,-0.019671279937028885,-0.0010383706539869308,-0.018632909283041954,-5156.7080078125,4.42960262298584,2.913081169128418,0.75367671251297,0.08664906024932861,0.6670276522636414,771.7649536132812,1.0,1.6176553964614868,-0.8047545552253723,-0.1346631646156311,-0.6700913906097412,-824.0686645507812,1.000000238418579,0.7818337082862854,0.0003699036024045199,0.0014153377851471305,-0.0010454341536387801,193.93601989746094,17.34723472595215,2.752218246459961,1.987849473953247,-0.006734967231750488,1.9945844411849976,1017.7789306640625,1.0,1.043431043624878,-2.0342347621917725,0.006119489669799805,-2.0403542518615723,-1041.5281982421875,1.0,1.0180754661560059,-0.007241684477776289,0.0001183580607175827,-0.007360042538493872,-17085.27734375,8.028375625610352,2.4872093200683594,1.5462839603424072,-0.022749781608581543,1.5690337419509888,791.6973876953125,1.0,3.977830410003662,-0.04345326870679855,0.04144570231437683,-0.08489897102117538,-22.24807357788086,1.000000238418579,0.7969431281089783,-0.00897376611828804,0.00038781482726335526,-0.009361580945551395,-9409.67578125,6.921372413635254,4.147474765777588,2.6801371574401855,-0.08703231811523438,2.76716947555542,5488.9208984375,0.9999998807907104,2.0363035202026367,-2.216458797454834,0.10555386543273926,-2.3220126628875732,-4539.3076171875,1.0,0.7027841210365295,0.004324632231146097,0.0009549418464303017,0.0033696903847157955,9069.4111328125,15.40736198425293,5.246938228607178,2.266566038131714,0.017002105712890625,2.2495639324188232,4641.92724609375,1.0,2.036302089691162,-2.216459035873413,0.10555219650268555,-2.3220112323760986,-4539.30810546875,0.9999998211860657,0.9837915301322937,-0.0055078561417758465,0.0016622268594801426,-0.007170083001255989,-5775.40576171875,5.891097545623779,2.7881007194519043,1.3482810258865356,0.06099510192871094,1.2872859239578247,690.3198852539062,0.9999998807907104,1.292155385017395,-0.8588343858718872,-0.02986133098602295,-0.8289730548858643,-439.72320556640625,1.0,0.46628570556640625,-0.009161289781332016,-0.0026518497616052628,-0.006509440019726753,-21614.193359375,5.29992151260376,3.398219585418701,1.5356426239013672,0.024286985397338867,1.5113556385040283,786.2490234375,1.0,2.662775754928589,-1.2039984464645386,0.0045146942138671875,-1.2085131406784058,-616.4472045898438,0.9999997615814209,0.4792468249797821,-0.004968805238604546,-1.0138843208551407e-05,-0.004958666395395994,-5210.169921875,4.768134593963623,4.913026332855225,1.7331241369247437,0.026354551315307617,1.706769585609436,3549.438232421875,1.0,0.9078937768936157,-2.780930757522583,0.03155994415283203,-2.812490701675415,-5695.34619140625,0.9999997615814209,0.8812965750694275,-0.002856202656403184,0.0038786830846220255,-0.006734885741025209,-2994.945556640625,5.461966037750244,2.768873929977417,1.4602861404418945,0.07928407192230225,1.3810020685195923,747.66650390625,1.0,0.8958644866943359,-1.2291337251663208,-0.0010007619857788086,-1.228132963180542,-629.3164672851562,1.0,0.4509235620498657,-0.00795823521912098,-0.002685221377760172,-0.005273013841360807,-18775.83203125,3.176936149597168,3.331693649291992,1.314859390258789,0.00731050968170166,1.3075488805770874,673.2080078125,1.0,5.5431437492370605,-0.871690034866333,0.06860089302062988,-0.9402909278869629,-446.3052978515625,1.0,0.38314148783683777,-0.014641531743109226,-0.0039223190397024155,-0.01071921270340681,-15352.7587890625,2.499268054962158,4.192837715148926,1.8731614351272583,0.04495441913604736,1.828207015991211,3836.234619140625,1.0,-1.489689588546753,-3.0995001792907715,-0.1040956974029541,-2.9954044818878174,-6347.7763671875,1.000000238418579,0.15605401992797852,-0.08741585165262222,0.005365394055843353,-0.09278124570846558,-2685.4150390625,1.855422019958496,0.09572785347700119,-0.048328664153814316,0.026879917830228806,-0.07520858198404312,-0.7249299883842468,0.9999997019767761,id-00000004,classification:resnet50,False
0,1.170065999031067,0.0008950273040682077,-0.0011090980842709541,0.002004125388339162,8.420416831970215,10.865556716918945,5.844273090362549,1.3605164289474487,0.35628950595855713,1.0042269229888916,87.07305145263672,1.0,13.369257926940918,1.6234409809112549,0.010538935661315918,1.612902045249939,103.90022277832031,0.9999997019767761,0.7015249729156494,-0.023795675486326218,-0.013385926373302937,-0.010409749113023281,-97.46708679199219,8.087662696838379,3.20520281791687,1.2793943881988525,0.0990670919418335,1.180327296257019,81.88124084472656,0.9999998807907104,4.824149131774902,-0.003883548080921173,-0.07781610637903214,0.07393255829811096,-0.24854707717895508,1.0,1.0257737636566162,0.0029252220410853624,0.0016609341837465763,0.0012642878573387861,107.83538818359375,12.742104530334473,3.495013475418091,0.8379514813423157,0.17434567213058472,0.663605809211731,53.6288948059082,1.0,6.634581089019775,0.5092365145683289,0.14296793937683105,0.3662685751914978,32.59113693237305,1.000000238418579,0.6968854665756226,-0.004142283461987972,-0.004139962140470743,-2.3214549855765654e-06,-67.86717224121094,6.500637054443359,4.51207971572876,1.8488306999206543,0.10386204719543457,1.7449686527252197,473.3006591796875,0.9999997615814209,1.5695087909698486,-0.006709580309689045,-0.05378245189785957,0.0470728725194931,-1.7176525592803955,1.0,0.8448980450630188,-0.01241081953048706,-0.011411056853830814,-0.0009997626766562462,-203.3388671875,8.839866638183594,4.7119879722595215,2.0558879375457764,0.14631569385528564,1.9095722436904907,526.3073120117188,1.0,1.5695087909698486,-0.006709580309689045,-0.05378245189785957,0.0470728725194931,-1.7176525592803955,1.0,0.6423280835151672,-0.00857786275446415,-0.0077668167650699615,-0.000811045931186527,-140.53970336914062,12.798432350158691,4.145741939544678,1.2400494813919067,0.08247971534729004,1.1575697660446167,79.36316680908203,1.0,2.034132719039917,-0.15706932544708252,-0.17881515622138977,0.021745827049016953,-10.052436828613281,1.0000001192092896,0.8261111378669739,-0.0016074718441814184,-0.0016074718441814184,-1.249970071025286e-12,-59.257843017578125,18.684961318969727,2.2350194454193115,1.1081997156143188,0.0537182092666626,1.0544815063476562,70.9247817993164,1.0,2.9257285594940186,0.3861842453479767,-0.1184021532535553,0.504586398601532,24.715791702270508,1.0,0.9630788564682007,-0.016799351200461388,-0.0026824520900845528,-0.014116899110376835,-275.2405700683594,7.752433776855469,4.0565643310546875,0.6924886703491211,0.04946213960647583,0.6430265307426453,177.277099609375,1.0,2.48905611038208,-0.2273065447807312,-0.05411824584007263,-0.17318829894065857,-58.19047546386719,1.0,0.6009618043899536,-0.006821887567639351,-0.003696434898301959,-0.003125452669337392,-111.76980590820312,12.347314834594727,2.4894299507141113,1.1021850109100342,0.037953853607177734,1.0642311573028564,70.53984069824219,0.9999998211860657,1.9025509357452393,-0.09780866652727127,-0.2794654965400696,0.1816568374633789,-6.259754657745361,1.000000238418579,0.8798555135726929,-0.006283433176577091,-0.0016270782798528671,-0.004656354896724224,-231.63247680664062,19.71523094177246,2.152181625366211,0.9403269290924072,-0.00857996940612793,0.9489068984985352,60.18092346191406,0.9999998807907104,2.9267737865448,0.07732222974300385,0.3348882794380188,-0.25756606459617615,4.948622703552246,1.0000001192092896,0.8123323917388916,-0.012931324541568756,-0.0016705887392163277,-0.011260735802352428,-211.8668212890625,5.347040176391602,2.970252752304077,0.7381502389907837,0.15103542804718018,0.5871148109436035,188.96646118164062,1.0,1.7804609537124634,-0.4611325263977051,-0.1654072403907776,-0.2957252860069275,-118.0499267578125,1.0000001192092896,0.7237842679023743,-0.013796720653772354,-0.004158042371273041,-0.009638678282499313,-452.0909423828125,15.441193580627441,2.849407434463501,1.56138277053833,0.06412053108215332,1.4972622394561768,199.85699462890625,1.0,0.9780409336090088,-0.8979763984680176,-0.012567877769470215,-0.8854085206985474,-114.94097900390625,1.0,0.5392367243766785,-0.0029310788959264755,-0.0021221651695668697,-0.0008089137263596058,-432.2051696777344,27.114185333251953,2.781827688217163,1.0774874687194824,-0.026534676551818848,1.1040221452713013,137.91839599609375,1.0,2.4007513523101807,0.4205585718154907,0.30559247732162476,0.11496608704328537,53.83149719238281,1.0,0.9815300703048706,-0.0067761666141450405,-0.00026386743411421776,-0.006512299180030823,-444.0828552246094,14.0845308303833,2.84663724899292,0.7762865424156189,-0.03148508071899414,0.807771623134613,397.4587097167969,1.0,1.1657010316848755,-0.027054915204644203,-0.02887636423110962,0.001821449026465416,-13.852116584777832,1.000000238418579,1.0331063270568848,-0.00566917285323143,-0.002225834410637617,-0.003443338442593813,-743.06982421875,26.71280288696289,2.548536539077759,0.6821126937866211,0.1639416217803955,0.5181710720062256,349.24169921875,0.9999997615814209,1.1657010316848755,-0.027054915204644203,-0.02887636423110962,0.001821449026465416,-13.852116584777832,1.000000238418579,1.0378284454345703,-0.003379583591595292,-0.0014191197697073221,-0.00196046382188797,-221.48439025878906,14.83117961883545,2.4907495975494385,0.8388012647628784,0.08430135250091553,0.7544999122619629,107.36656188964844,0.9999998807907104,1.8604837656021118,-0.3754518926143646,-0.035342276096343994,-0.34010961651802063,-48.05784225463867,1.0,0.7636074423789978,-0.003915355075150728,-0.0007943811360746622,-0.003120973939076066,-577.3425903320312,25.75844383239746,2.6069769859313965,1.1028742790222168,-0.006098747253417969,1.1089730262756348,141.16790771484375,0.9999998211860657,2.5391931533813477,-0.337169885635376,0.05743023753166199,-0.39460012316703796,-43.157745361328125,1.0,0.7077333927154541,-0.0092840027064085,-0.002351440954953432,-0.006932561751455069,-608.4364013671875,10.318563461303711,3.302816867828369,0.5657104253768921,0.10529720783233643,0.46041321754455566,289.64373779296875,1.0,1.5925993919372559,-0.49024254083633423,-0.07059627771377563,-0.4196462631225586,-251.00418090820312,1.0,0.8283872604370117,-0.006683540530502796,-0.002064105123281479,-0.004619435407221317,-438.01251220703125,21.321569442749023,2.58302903175354,1.0295751094818115,-0.006236672401428223,1.0358117818832397,131.78561401367188,1.0000001192092896,1.2982982397079468,-0.4758654534816742,-0.05732142925262451,-0.4185440242290497,-60.9107780456543,1.0000001192092896,0.7161068916320801,-0.00683516776189208,-0.0016230451874434948,-0.0052121225744485855,-1007.886474609375,25.55825424194336,2.275393009185791,1.2147676944732666,-0.011741161346435547,1.2265088558197021,155.49026489257812,0.9999998211860657,2.1846299171447754,-0.46774226427078247,0.24987250566482544,-0.7176147699356079,-59.871009826660156,1.000000238418579,1.0944042205810547,-0.009694427251815796,-0.0006164656952023506,-0.009077961556613445,-635.333984375,12.147441864013672,2.4801831245422363,0.5154979825019836,0.07924163341522217,0.4362563490867615,263.9349670410156,1.0000001192092896,2.196722984313965,-0.5299432277679443,-0.1495111882686615,-0.38043203949928284,-271.3309326171875,1.000000238418579,0.6316739320755005,-0.006987839005887508,-8.799461647868156e-05,-0.006899844389408827,-457.95501708984375,22.461166381835938,1.8062406778335571,1.0489137172698975,-0.06968533992767334,1.1185990571975708,134.26095581054688,0.9999998211860657,1.1398731470108032,-0.45109260082244873,0.02713233232498169,-0.4782249331474304,-57.73985290527344,1.0,0.6172465085983276,-0.0057175955735147,-0.00040805060416460037,-0.0053095449693500996,-843.09375,22.149585723876953,2.3559083938598633,1.0831118822097778,-0.05294394493103027,1.136055827140808,138.63832092285156,1.0,2.7932329177856445,-0.38840430974960327,0.1574346423149109,-0.5458389520645142,-49.71575164794922,1.0000001192092896,0.9590002298355103,-0.014772351831197739,-0.001019354909658432,-0.013752996921539307,-968.120849609375,10.957858085632324,2.4191582202911377,0.5587611198425293,0.058887362480163574,0.4998737573623657,286.085693359375,0.9999997615814209,1.3206787109375,-0.6328866481781006,-0.026476144790649414,-0.6064105033874512,-324.0379638671875,0.9999997615814209,0.8371166586875916,-0.0069069694727659225,-0.0013955673202872276,-0.005511402152478695,-905.310302734375,22.81155776977539,2.6175119876861572,1.3952332735061646,0.036580562591552734,1.3586527109146118,357.1797180175781,0.9999998807907104,0.41723278164863586,-1.2610291242599487,-0.12194550037384033,-1.1390836238861084,-322.8234558105469,1.0,0.638451099395752,-0.002823911141604185,-0.0016964534297585487,-0.0011274577118456364,-1665.610595703125,28.22699546813965,3.201326608657837,0.8652852177619934,0.022166907787322998,0.8431183099746704,221.5130157470703,1.000000238418579,2.035282611846924,0.5102062821388245,0.011877715587615967,0.4983285665512085,130.61280822753906,1.0,1.17582106590271,-0.0037700841203331947,-0.0008959348779171705,-0.002874149242416024,-988.304931640625,26.566072463989258,2.0461068153381348,0.8620495796203613,-0.012007296085357666,0.874056875705719,882.73876953125,0.9999998807907104,1.2999480962753296,-0.15325777232646942,0.006205171346664429,-0.15946294367313385,-156.9359588623047,1.0,1.0425081253051758,0.004580886103212833,-0.00017612148076295853,0.004757007583975792,2401.70361328125,25.310224533081055,2.4158918857574463,0.626663327217102,0.06610161066055298,0.5605617165565491,641.7032470703125,1.0,1.2999472618103027,-0.15325777232646942,0.006204709410667419,-0.15946248173713684,-156.9359588623047,1.0,1.2465009689331055,-0.008128647692501545,-0.0005823825486004353,-0.00754626514390111,-2130.876220703125,14.742013931274414,2.591822385787964,0.7776244878768921,0.023963451385498047,0.753661036491394,199.07186889648438,0.9999998211860657,1.3961340188980103,-0.4147651493549347,-0.02517002820968628,-0.3895951211452484,-106.17987823486328,1.000000238418579,0.6584140658378601,-0.0071480656042695045,-0.0016764961183071136,-0.005471569485962391,-4216.1005859375,21.75902557373047,3.6864123344421387,0.9356420040130615,0.046856820583343506,0.888785183429718,239.52435302734375,1.000000238418579,1.6806896924972534,-0.5504920482635498,0.03474646806716919,-0.585238516330719,-140.92596435546875,1.0,0.6417432427406311,-0.0022480254992842674,-0.0004731703083962202,-0.0017748551908880472,-589.306396484375,10.917472839355469,3.784026861190796,0.46441027522087097,0.061593979597091675,0.4028162956237793,475.5561218261719,1.0,1.7500320672988892,-0.36428365111351013,0.022608548402786255,-0.3868921995162964,-373.0264587402344,1.0000001192092896,0.9951193332672119,-0.008781961165368557,-0.0006762566044926643,-0.008105704560875893,-2302.138427734375,16.63452911376953,1.2934657335281372,0.8068841099739075,-0.01259678602218628,0.8194808959960938,206.5623321533203,1.0,0.738716721534729,-0.6382459402084351,-0.04658585786819458,-0.5916600823402405,-163.39096069335938,0.9999997019767761,0.6444448828697205,-0.007117125671356916,-0.0015503563918173313,-0.005566769279539585,-4197.8515625,21.475433349609375,2.256960391998291,0.9068641662597656,-0.03104037046432495,0.9379045367240906,232.1572265625,1.0,1.8071504831314087,-0.5849499106407166,0.030601322650909424,-0.615551233291626,-149.74717712402344,1.0,0.9807860851287842,-0.0060599083080887794,-0.002222102601081133,-0.0038378057070076466,-1588.568603515625,7.644696235656738,2.5862157344818115,0.42412856221199036,0.04244843125343323,0.38168013095855713,434.3076477050781,1.0,1.5133585929870605,-0.36528900265693665,-0.06211385130882263,-0.303175151348114,-374.0559387207031,1.0,1.1576268672943115,-0.008518273010849953,-0.0010296646505594254,-0.007488608360290527,-2233.01416015625,11.82162094116211,1.6061418056488037,0.7830464839935303,-0.006271541118621826,0.7893180251121521,200.45989990234375,0.9999998211860657,0.8862515687942505,-0.7179402112960815,-0.07391929626464844,-0.6440209150314331,-183.79269409179688,1.000000238418579,0.771934986114502,-0.005143329035490751,-0.0015614335425198078,-0.0035818954929709435,-3033.658935546875,17.15378761291504,1.7666181325912476,0.8209606409072876,-0.002823352813720703,0.8237839937210083,210.16592407226562,0.9999997019767761,1.7056505680084229,-0.5102975964546204,0.061374545097351074,-0.5716721415519714,-130.6361846923828,1.000000238418579,0.731239914894104,-0.01392283570021391,-0.0023889411240816116,-0.011533894576132298,-3649.787841796875,6.022448539733887,1.958404541015625,0.4410468339920044,0.045436859130859375,0.395609974861145,451.6319580078125,1.0,1.5816948413848877,-0.4163356423377991,-0.042222023010253906,-0.37411361932754517,-426.32769775390625,1.0,1.0013937950134277,-0.007023172453045845,-0.0004981867969036102,-0.006524985656142235,-1841.08251953125,14.732747077941895,2.0879149436950684,0.8053836226463318,0.001973748207092285,0.8034098744392395,206.17820739746094,1.0000001192092896,0.8747780323028564,-0.8202972412109375,-0.043365299701690674,-0.7769319415092468,-209.99609375,0.9999997615814209,0.7079165577888489,-0.009262547828257084,-0.002024054992944002,-0.007238492835313082,-5463.27294921875,18.843791961669922,1.721474528312683,0.9479407668113708,-0.04365485906600952,0.9915956258773804,242.67283630371094,1.0000001192092896,1.7632540464401245,-0.5802329182624817,0.09538096189498901,-0.6756138801574707,-148.5396270751953,1.0000003576278687,0.8985298871994019,-0.017733218148350716,-0.004794619046151638,-0.012938599102199078,-4648.65673828125,3.8632609844207764,2.1619153022766113,0.4733600616455078,0.09727683663368225,0.37608322501182556,484.720703125,1.0,0.9926265478134155,-0.5297888517379761,-0.14651596546173096,-0.3832728862762451,-542.5037841796875,1.0,0.7513412833213806,-0.0033413958735764027,0.0010130489245057106,-0.004354444798082113,-875.9268798828125,17.927364349365234,1.6891781091690063,0.8939908742904663,0.017371773719787598,0.8766191005706787,228.86166381835938,1.0,0.8502695560455322,-0.9410774111747742,-0.05603969097137451,-0.8850377202033997,-240.9158172607422,1.0,0.6527870893478394,-0.0076490845531225204,-0.0010263528674840927,-0.006622731685638428,-4511.61376953125,11.01756477355957,2.0261318683624268,0.9696923494338989,0.021713852882385254,0.9479784965515137,248.24124145507812,1.0,1.7902891635894775,-0.5198085904121399,0.027068912982940674,-0.5468775033950806,-133.0709991455078,1.0,0.8412004709243774,-0.022572554647922516,-0.002847731113433838,-0.019724823534488678,-5917.259765625,5.683164596557617,1.8874510526657104,0.4818708896636963,0.06629380583763123,0.41557708382606506,493.435791015625,0.9999998211860657,1.060891032218933,-0.5874049663543701,-0.09726759791374207,-0.49013736844062805,-601.502685546875,1.0000001192092896,1.0163086652755737,0.0029040873050689697,0.000340029364451766,0.0025640579406172037,1522.578125,26.235279083251953,1.8446482419967651,1.291614294052124,-0.004815578460693359,1.2964298725128174,661.3065185546875,1.0,0.8014527559280396,-1.3864154815673828,0.0163041353225708,-1.4027196168899536,-709.8447265625,1.000000238418579,0.9808343648910522,-0.007339824456721544,-0.0016216826625168324,-0.005718141794204712,-17316.818359375,22.72026252746582,1.6570466756820679,1.0479928255081177,-0.011149287223815918,1.0591421127319336,536.5723266601562,1.0,2.606971502304077,0.026639670133590698,-0.007109262049198151,0.03374893218278885,13.639511108398438,1.000000238418579,0.9125760197639465,0.0029819991905242205,0.000497845932841301,0.0024841532576829195,3126.852783203125,20.040369033813477,2.9583170413970947,1.7898988723754883,-0.05704391002655029,1.8469427824020386,3665.712890625,1.0,1.2731812000274658,-1.4735691547393799,0.07041645050048828,-1.5439856052398682,-3017.86962890625,1.000000238418579,0.9224827885627747,0.017189649865031242,0.0011263974010944366,0.016063252463936806,36049.30859375,12.171738624572754,3.4163131713867188,1.5038577318191528,0.012561798095703125,1.4912959337234497,3079.900634765625,1.000000238418579,1.2731808423995972,-1.4735692739486694,0.07041573524475098,-1.5439850091934204,-3017.869873046875,1.000000238418579,1.2470393180847168,-0.01371646299958229,-0.002331651747226715,-0.011384811252355576,-14382.75390625,7.5457024574279785,1.8294159173965454,0.8846282362937927,0.03220665454864502,0.8524215817451477,452.9296569824219,0.9999998807907104,0.9985015988349915,-0.5544723272323608,0.01331096887588501,-0.5677832961082458,-283.88983154296875,1.0000003576278687,0.6691217422485352,-0.016009695827960968,-0.007203241810202599,-0.00880645401775837,-37771.609375,5.574867248535156,2.1564781665802,1.0209649801254272,0.011192083358764648,1.0097728967666626,522.7340698242188,1.0,1.66204035282135,-0.7741091847419739,-0.0052381157875061035,-0.7688710689544678,-396.3439025878906,1.0000001192092896,0.5695851445198059,-0.007866807281970978,-0.0012194919399917126,-0.006647315341979265,-8248.9453125,5.590865135192871,3.4074745178222656,1.1473784446716309,0.012162208557128906,1.135216236114502,2349.8310546875,1.0000001192092896,0.5310134887695312,-1.8458926677703857,0.016570210456848145,-1.8624628782272339,-3780.38818359375,0.9999996423721313,0.954866886138916,-0.007412467617541552,0.0009506125934422016,-0.008363080210983753,-7772.53564453125,6.435600280761719,2.010464906692505,0.9452662467956543,0.044885218143463135,0.9003810286521912,483.976318359375,0.9999998211860657,0.5552048683166504,-0.8214796781539917,0.04709732532501221,-0.8685770034790039,-420.59759521484375,1.0,0.6275044679641724,-0.016606198623776436,-0.009923277422785759,-0.00668292073532939,-39178.9375,4.575175762176514,2.126922130584717,0.8570420742034912,-0.016647934913635254,0.8736900091171265,438.8055419921875,0.9999998211860657,4.049635410308838,-0.5847989320755005,-0.01334691047668457,-0.5714520215988159,-299.41705322265625,1.000000238418579,0.6605420112609863,-0.015579438768327236,-0.006899479776620865,-0.008679958991706371,-16336.2255859375,2.9164695739746094,2.799663543701172,1.2481672763824463,0.01675713062286377,1.2314101457595825,2556.24658203125,1.0000001192092896,-1.089331030845642,-2.079014301300049,-0.08256983757019043,-1.9964444637298584,-4257.8212890625,1.0,0.4585982859134674,-0.21304930746555328,-0.0009956061840057373,-0.21205370128154755,-32288.048828125,1.6469873189926147,0.18863075971603394,-0.04919842630624771,0.013045430183410645,-0.062243856489658356,-3.64068341255188,0.9999998211860657,id-00000005,classification:resnet50,True
0,1.9381837844848633,0.0015532254474237561,-0.0008049189345911145,0.0023581443820148706,14.61274528503418,10.598897933959961,8.994148254394531,2.4910411834716797,0.4676787853240967,2.023362398147583,159.4266357421875,1.0000001192092896,22.619962692260742,2.6436803340911865,0.1463930606842041,2.4972872734069824,169.19554138183594,1.000000238418579,0.9109982252120972,-0.020550258457660675,-0.015683168545365334,-0.004867089446634054,-84.17385864257812,10.451508522033691,5.354173183441162,2.319309949874878,0.1484677791595459,2.170842170715332,148.4358367919922,1.000000238418579,7.485519886016846,-0.03417089581489563,-0.06235136464238167,0.028180468827486038,-2.1869373321533203,1.000000238418579,1.3090423345565796,-0.00015001205611042678,0.0013035513693466783,-0.0014535634545609355,-5.5300445556640625,13.4265775680542,4.763457298278809,1.5370535850524902,0.3451944589614868,1.1918591260910034,98.37142944335938,0.9999997615814209,11.097753524780273,0.8926669359207153,0.2427297830581665,0.6499371528625488,57.13068389892578,1.0,0.8041222095489502,-0.0037795433308929205,-0.0024859285913407803,-0.0012936146231368184,-61.92403793334961,6.321278095245361,7.724952220916748,3.1719775199890137,0.20218777656555176,2.969789743423462,812.0262451171875,1.0,2.5294787883758545,-0.053542427718639374,-0.06332330405712128,0.009780874475836754,-13.70686149597168,1.0,0.94777911901474,-0.008091566152870655,-0.008091566152870655,-2.467413495743642e-10,-132.5722198486328,5.778009414672852,8.195484161376953,3.489231824874878,0.22564196586608887,3.263589859008789,893.2433471679688,0.9999998807907104,2.5294787883758545,-0.053542427718639374,-0.06332330405712128,0.009780874475836754,-13.70686149597168,1.0,0.7671594023704529,-0.00429576076567173,-0.00429575378075242,-7.166075732811805e-09,-70.38174438476562,15.424906730651855,7.071990489959717,2.1016037464141846,0.25566017627716064,1.845943570137024,134.5026397705078,1.0,3.170043706893921,-0.31620529294013977,-0.15543046593666077,-0.160774827003479,-20.237138748168945,0.9999997615814209,0.975761353969574,-0.0008549127378500998,-0.0005766556714661419,-0.00027825706638395786,-31.5155029296875,21.884262084960938,3.8262510299682617,1.895485281944275,0.11181533336639404,1.7836699485778809,121.3110580444336,1.0000001192092896,4.736576557159424,0.705021858215332,0.039843857288360596,0.6651780009269714,45.12139892578125,1.000000238418579,0.7860711216926575,-0.00773110194131732,-0.001188904047012329,-0.006542197894304991,-126.66637420654297,19.244382858276367,7.190133571624756,1.1974828243255615,0.0740729570388794,1.1234098672866821,306.55560302734375,1.0,4.391504764556885,-0.3803842067718506,-0.040598273277282715,-0.33978593349456787,-97.37835693359375,1.000000238418579,0.44780898094177246,-0.0038519566878676414,-0.0017760503105819225,-0.002075906377285719,-63.11045837402344,14.51722240447998,4.426409721374512,1.860060453414917,0.08533203601837158,1.7747284173965454,119.04386901855469,1.0,3.6558175086975098,-0.1834438145160675,-0.31754612922668457,0.13410231471061707,-11.74040412902832,1.0000001192092896,0.7540038228034973,-0.001874374458566308,0.00038176123052835464,-0.0022561356890946627,-69.09693908691406,22.30394172668457,3.9685146808624268,1.590775489807129,0.06580889225006104,1.5249665975570679,101.80963134765625,0.9999998211860657,4.654659748077393,0.2366872876882553,0.4992861747741699,-0.2625989019870758,15.14798641204834,1.0,0.7806244492530823,-0.006692058872431517,-0.0012393654324114323,-0.005452693440020084,-109.64269256591797,17.379165649414062,5.198686122894287,1.258022427558899,0.2104243040084839,1.047598123550415,322.0537414550781,1.0000001192092896,3.2888083457946777,-0.6930057406425476,-0.20479676127433777,-0.48820897936820984,-177.4094696044922,0.9999998807907104,0.8266605138778687,-0.00785521324723959,-0.001859163399785757,-0.005996049847453833,-257.3996276855469,19.4894962310791,4.844577789306641,2.6928956508636475,0.09905362129211426,2.593842029571533,344.6906433105469,1.0,1.50046968460083,-1.3613977432250977,-0.0874183177947998,-1.2739794254302979,-174.2589111328125,1.0,0.4836324155330658,-0.0020545709412544966,-0.000530533492565155,-0.0015240374486893415,-302.95880126953125,28.534360885620117,4.522238254547119,1.807863712310791,-0.03293156623840332,1.8407952785491943,231.40655517578125,1.0,4.099517822265625,0.8210664987564087,0.5683388710021973,0.2527276575565338,105.09651184082031,1.0,0.8560377359390259,-0.002650124952197075,0.00017057149671018124,-0.002820696448907256,-173.6785888671875,27.03129768371582,4.988161087036133,1.3245136737823486,-0.03550362586975098,1.3600172996520996,678.1510009765625,1.0000003576278687,2.085099935531616,0.04677114263176918,-0.032540034502744675,0.07931117713451385,23.94682502746582,0.9999997019767761,1.2675127983093262,-0.00396184204146266,-0.0010765395127236843,-0.0028853025287389755,-519.2865600585938,21.188907623291016,4.290618419647217,1.148802638053894,0.26597142219543457,0.8828312158584595,588.1869506835938,1.0,2.085099935531616,0.04677114263176918,-0.032540034502744675,0.07931117713451385,23.94682502746582,0.9999997019767761,0.5116397142410278,-0.0030813533812761307,0.0008935155346989632,-0.003974868915975094,-201.9395751953125,17.88263511657715,4.133877754211426,1.53449547290802,0.11601567268371582,1.4184798002243042,196.41542053222656,1.0,2.8174493312835693,-0.4819486737251282,-0.10787719488143921,-0.37407147884368896,-61.689430236816406,1.0,0.7884082794189453,-0.00219227303750813,0.0001541576348245144,-0.0023464306723326445,-323.2638244628906,27.579435348510742,4.028446674346924,1.9278234243392944,-0.009454011917114258,1.9372774362564087,246.7613983154297,0.9999998211860657,3.872359037399292,-0.4754822850227356,0.009172052145004272,-0.48465433716773987,-60.861732482910156,1.0,0.6811245083808899,-0.006014307029545307,-0.0018226662650704384,-0.004191640764474869,-394.15362548828125,18.418527603149414,5.921620845794678,1.0519243478775024,0.1876956820487976,0.8642286658287048,538.5852661132812,1.0,2.90118145942688,-0.7241449356079102,-0.0915989875793457,-0.6325459480285645,-370.76220703125,0.9999997019767761,0.6966608166694641,-0.0035781264305114746,-0.00034875795245170593,-0.0032293684780597687,-234.49609375,24.715320587158203,4.584959030151367,1.8032855987548828,0.053223252296447754,1.750062346458435,230.820556640625,0.9999998807907104,1.8654210567474365,-0.7017373442649841,-0.18869388103485107,-0.5130434632301331,-89.82238006591797,0.9999997615814209,0.8560178279876709,-0.004052469041198492,-0.00045845378190279007,-0.003594015259295702,-597.5608520507812,32.78208923339844,4.228533744812012,2.129535675048828,0.009377241134643555,2.1201584339141846,272.58056640625,1.0,3.572822332382202,-0.6241049766540527,0.38777804374694824,-1.011883020401001,-79.88543701171875,1.0,0.7678658366203308,-0.0049292114563286304,-0.000158003531396389,-0.0047712079249322414,-323.0408020019531,23.528148651123047,4.276316165924072,0.9437848925590515,0.13917571306228638,0.8046091794967651,483.2178649902344,1.0,3.4037294387817383,-0.7787894010543823,-0.2794702351093292,-0.4993191659450531,-398.74017333984375,0.9999998807907104,0.5241997838020325,-0.0031358208507299423,8.001690730452538e-05,-0.0032158377580344677,-205.5091552734375,25.86863899230957,3.0792155265808105,1.8023327589035034,-0.03065192699432373,1.8329846858978271,230.69859313964844,1.0,1.7966980934143066,-0.6834770441055298,0.09759366512298584,-0.7810707092285156,-87.48506164550781,0.9999998807907104,0.5892528295516968,-0.0031443266198039055,-2.243323251605034e-06,-0.0031420832965523005,-463.64984130859375,25.541229248046875,4.2928147315979,1.8467135429382324,0.03509986400604248,1.81161367893219,236.37933349609375,1.0,4.663392543792725,-0.49499398469924927,0.30127954483032227,-0.7962735295295715,-63.359230041503906,1.0000001192092896,0.6970887780189514,-0.006911562755703926,-0.0006318469531834126,-0.0062797158025205135,-452.9561767578125,15.72817611694336,4.07997465133667,1.005835771560669,0.1314442753791809,0.874391496181488,514.9879150390625,1.0000001192092896,2.1625008583068848,-0.9180459976196289,-0.06831860542297363,-0.8497273921966553,-470.03955078125,1.000000238418579,0.7372035980224609,-0.004654399119317532,-0.0002617994323372841,-0.0043925996869802475,-610.0614013671875,23.957250595092773,4.490327835083008,2.4606542587280273,0.02952742576599121,2.431126832962036,629.927490234375,1.000000238418579,0.9536631107330322,-1.8916748762130737,-0.20404267311096191,-1.6876322031021118,-484.2687683105469,1.0,0.5380613207817078,-0.0017828779527917504,-0.0006531772669404745,-0.001129700685851276,-1051.584228515625,23.785228729248047,5.343199253082275,1.4483952522277832,0.05961179733276367,1.3887834548950195,370.7891845703125,1.0000001192092896,3.501708984375,0.8570882678031921,0.07582151889801025,0.7812667489051819,219.4145965576172,1.0000003576278687,0.7971778512001038,-0.003729627002030611,-0.0002778787165880203,-0.0034517482854425907,-977.6993408203125,26.011417388916016,3.554731607437134,1.4612319469451904,-0.006725788116455078,1.4679577350616455,1496.301513671875,0.9999998211860657,2.060134172439575,-0.21090608835220337,-9.970366954803467e-05,-0.21080638468265533,-215.96783447265625,1.000000238418579,0.9268432855606079,-0.0024563742335885763,-6.220932118594646e-05,-0.00239416491240263,-1287.8475341796875,25.185958862304688,3.829636573791504,1.0071916580200195,0.11638098955154419,0.8908106684684753,1031.3642578125,1.0,2.0601329803466797,-0.21090608835220337,-9.933114051818848e-05,-0.21080675721168518,-215.96783447265625,1.000000238418579,0.7617441415786743,-0.004048880655318499,0.0005578296259045601,-0.004606710281223059,-1061.3897705078125,10.869526863098145,4.376573085784912,1.3699041604995728,0.06381213665008545,1.3060920238494873,350.6954650878906,1.0,1.633286714553833,-0.6515687704086304,0.0069563984870910645,-0.6585251688957214,-166.80160522460938,1.0,0.5204479098320007,-0.003618501126766205,-0.00015011709183454514,-0.0034683840349316597,-2134.27880859375,14.255306243896484,6.084312438964844,1.6612529754638672,0.08519375324249268,1.5760592222213745,425.28076171875,1.0,2.5849249362945557,-0.8085705041885376,0.043683409690856934,-0.8522539138793945,-206.99404907226562,0.9999996423721313,0.6236128807067871,-0.004882384557276964,-0.0009406162425875664,-0.003941768314689398,-1279.8878173828125,16.02850341796875,6.653557300567627,0.8611642122268677,0.12600940465927124,0.7351548075675964,881.8321533203125,1.0000003576278687,2.9506242275238037,-0.5537543296813965,0.038646161556243896,-0.5924004912376404,-567.04443359375,0.9999998807907104,0.6883614659309387,-0.0045706648379564285,0.0004057474434375763,-0.004976412281394005,-1198.17236328125,18.83930778503418,2.326477289199829,1.4102604389190674,0.015203118324279785,1.3950573205947876,361.02667236328125,0.9999998807907104,1.0289381742477417,-1.050168514251709,-0.08528220653533936,-0.9648863077163696,-268.8431396484375,1.0000001192092896,0.5334451794624329,-0.0035888468846678734,0.00012705335393548012,-0.0037159002386033535,-2116.7880859375,28.398710250854492,3.859889030456543,1.5474973917007446,0.013888001441955566,1.533609390258789,396.1593322753906,0.9999998211860657,2.6494834423065186,-0.8952112197875977,0.07183951139450073,-0.9670507311820984,-229.174072265625,0.9999998807907104,0.5851157903671265,-0.005754430312663317,-0.00035298801958560944,-0.005401442293077707,-1508.4893798828125,15.00908088684082,4.538259029388428,0.7749292850494385,0.06312590837478638,0.7118033766746521,793.527587890625,1.0,2.5584354400634766,-0.5486904382705688,-0.12112024426460266,-0.4275701940059662,-561.8590087890625,1.000000238418579,0.7025917172431946,-0.003600948490202427,0.0007983110845088959,-0.004399259574711323,-943.967041015625,18.972753524780273,2.8948452472686768,1.452867031097412,0.04766523838043213,1.40520179271698,371.9339599609375,1.0,1.3829902410507202,-1.0964152812957764,-0.12163776159286499,-0.9747775197029114,-280.68231201171875,1.0,0.6711958646774292,-0.0039644078351557255,0.0002537909895181656,-0.004218198824673891,-2338.302978515625,18.294445037841797,3.262477159500122,1.4786739349365234,0.006143689155578613,1.4725302457809448,378.54052734375,1.000000238418579,2.523562431335449,-0.7490949630737305,0.12538349628448486,-0.8744784593582153,-191.768310546875,1.0,0.6394423842430115,-0.006292920559644699,-8.236384019255638e-05,-0.006210556719452143,-1649.6513671875,10.572469711303711,3.5204505920410156,0.7968617677688599,0.08951419591903687,0.707347571849823,815.9864501953125,1.0,2.5317509174346924,-0.6665098667144775,-0.07596933841705322,-0.5905405282974243,-682.506103515625,1.0000001192092896,0.8098642230033875,-0.003283449914306402,0.0005317796021699905,-0.0038152295164763927,-860.7366943359375,22.152324676513672,3.4950969219207764,1.4390172958374023,0.007527709007263184,1.4314895868301392,368.388427734375,1.0000003576278687,1.1747456789016724,-1.2860840559005737,-0.04403996467590332,-1.2420440912246704,-329.2375183105469,1.0000003576278687,0.5394922494888306,-0.003164383117109537,0.0003894802648574114,-0.0035538633819669485,-1866.4290771484375,25.91649055480957,2.658897876739502,1.6415115594863892,-0.06311476230621338,1.7046263217926025,420.2269592285156,0.9999998211860657,3.4065518379211426,-0.8719869256019592,0.21116334199905396,-1.0831502676010132,-223.22865295410156,0.9999998211860657,0.5357023477554321,-0.006923954468220472,-0.00021677976474165916,-0.006707174703478813,-1815.0731201171875,10.593001365661621,3.731583595275879,0.8470205068588257,0.13664740324020386,0.7103731036186218,867.3489990234375,0.9999998211860657,2.0842723846435547,-0.8584496974945068,-0.27147912979125977,-0.5869705677032471,-879.052490234375,1.000000238418579,0.6601834893226624,-0.0036293016746640205,0.001240463461726904,-0.0048697651363909245,-951.399658203125,17.201440811157227,2.960137128829956,1.5591460466384888,0.05453693866729736,1.5046091079711914,399.1413879394531,1.000000238418579,0.8424323797225952,-1.494938611984253,-0.09513223171234131,-1.3998063802719116,-382.70428466796875,0.9999998807907104,0.37204933166503906,-0.003271532943472266,0.0006176570896059275,-0.0038891900330781937,-1929.628662109375,12.401311874389648,3.6539244651794434,1.6331814527511597,0.02272319793701172,1.610458254814148,418.0944519042969,1.0000003576278687,2.4952592849731445,-0.7850165367126465,0.045310378074645996,-0.8303269147872925,-200.9642333984375,1.0,0.529453694820404,-0.010522491298615932,-0.0002517895773053169,-0.010270701721310616,-2758.407958984375,7.461894989013672,3.1257948875427246,0.8432730436325073,0.0879010558128357,0.7553719878196716,863.5115966796875,1.0000004768371582,1.9522322416305542,-0.9013605117797852,-0.1328412890434265,-0.7685192227363586,-922.9931640625,1.0,0.7905564308166504,-0.0048106079921126366,0.001136135309934616,-0.005946743302047253,-2522.14404296875,19.584375381469727,3.0065746307373047,2.145962715148926,-0.0012671947479248047,2.1472299098968506,1098.73291015625,1.0,1.1049877405166626,-2.349740982055664,-0.005251646041870117,-2.344489336013794,-1203.0673828125,1.0,0.7268430590629578,-0.007825738750398159,0.00028381310403347015,-0.00810955185443163,-18463.234375,11.516417503356934,2.528200149536133,1.6524922847747803,-0.03984212875366211,1.6923344135284424,846.0760498046875,1.0,4.3755998611450195,-0.179239422082901,0.07434698939323425,-0.25358641147613525,-91.77058410644531,1.0,0.7329798340797424,-0.005679224617779255,0.0018506431952118874,-0.007529867812991142,-5955.0986328125,11.271174430847168,4.683850288391113,2.9879047870635986,-0.10364246368408203,3.0915472507476807,6119.22900390625,1.000000238418579,2.391272783279419,-2.4827752113342285,0.12592363357543945,-2.608698844909668,-5084.7236328125,1.0,0.5867512226104736,-0.0009119384340010583,0.0009188310359604657,-0.001830769469961524,-1912.4735107421875,17.88833999633789,5.856364727020264,2.510373115539551,0.02378249168395996,2.486590623855591,5141.244140625,1.0000004768371582,2.3912739753723145,-2.4827752113342285,0.12592267990112305,-2.6086978912353516,-5084.7236328125,1.0,0.8684220314025879,-0.003995093517005444,0.0019916887395083904,-0.005986782256513834,-4189.1591796875,10.663938522338867,3.107433795928955,1.509930968284607,0.06604957580566406,1.4438813924789429,773.0846557617188,0.9999998211860657,1.4133446216583252,-0.9641739726066589,-0.06311511993408203,-0.9010588526725769,-493.6570739746094,1.0000001192092896,0.4105662405490875,-0.004581941291689873,8.176453411579132e-05,-0.004663705825805664,-10810.15625,10.51999568939209,3.7034926414489746,1.7308566570281982,0.026805520057678223,1.70405113697052,886.1986083984375,1.0,2.990540027618408,-1.3362547159194946,0.0002734661102294922,-1.3365281820297241,-684.1624145507812,1.0,0.5508947372436523,-0.003450155258178711,0.0010868264362215996,-0.0045369816944003105,-3617.75,8.530596733093262,5.583521842956543,1.9408888816833496,0.030518651008605957,1.9103702306747437,3974.9404296875,1.0,1.0481287240982056,-3.0868210792541504,0.03183865547180176,-3.118659734725952,-6321.8095703125,0.9999997019767761,0.8278507590293884,-0.003943460527807474,0.0021960651502013206,-0.006139525678008795,-4135.01806640625,9.283748626708984,3.112360954284668,1.6286392211914062,0.09038031101226807,1.5382589101791382,833.86328125,1.000000238418579,0.893530547618866,-1.3756579160690308,-0.01426398754119873,-1.361393928527832,-704.3368530273438,1.0,0.4530503451824188,-0.00392882851883769,0.00014606397598981857,-0.004074892494827509,-9269.26953125,6.725350856781006,3.6566596031188965,1.4791591167449951,-0.016162514686584473,1.4953216314315796,757.3294677734375,0.9999998211860657,6.067967891693115,-0.978035569190979,0.08575093746185303,-1.063786506652832,-500.75421142578125,0.9999999403953552,0.4743224084377289,-0.009886519983410835,-0.0014907624572515488,-0.008395757526159286,-10366.767578125,3.6750125885009766,4.738717079162598,2.110440731048584,0.04985213279724121,2.0605885982513428,4322.1826171875,0.9999998807907104,-1.5861775875091553,-3.433018922805786,-0.11311769485473633,-3.31990122795105,-7030.82275390625,1.0000003576278687,0.1016722023487091,-0.0217446256428957,0.0006769206374883652,-0.022421546280384064,-445.3299255371094,3.298499584197998,0.05716560408473015,-0.012753558345139027,0.01557930652052164,-0.028332864865660667,-0.12753558158874512,0.9999998211860657,id-00000006,classification:resnet50,False
