,0,1,2,3,4,5,6,7,8,9,10,11,12,13,14,15,16,17,18,19,20,21,22,23,24,25,26,27,28,29,30,31,32,33,34,35,36,37,38,39,40,41,42,43,44,45,46,47,48,49,50,51,52,53,54,55,56,57,58,59,60,61,62,63,64,65,66,67,68,69,70,71,72,73,74,75,76,77,78,79,80,81,82,83,84,85,86,87,88,89,90,91,92,93,94,95,96,97,98,99,100,101,102,103,104,105,106,107,108,109,110,111,112,113,114,115,116,117,118,119,120,121,122,123,124,125,126,127,128,129,130,131,132,133,134,135,136,137,138,139,140,141,142,143,144,145,146,147,148,149,150,151,152,153,154,155,156,157,158,159,160,161,162,163,164,165,166,167,168,169,170,171,172,173,174,175,176,177,178,179,180,181,182,183,184,185,186,187,188,189,190,191,192,193,194,195,196,197,198,199,200,201,202,203,204,205,206,207,208,209,210,211,212,213,214,215,216,217,218,219,220,221,222,223,224,225,226,227,228,229,230,231,232,233,234,235,236,237,238,239,240,241,242,243,244,245,246,247,248,249,250,251,252,253,254,255,256,257,258,259,260,261,262,263,264,265,266,267,268,269,270,271,272,273,274,275,276,277,278,279,280,281,282,283,284,285,286,287,288,289,290,291,292,293,294,295,296,297,298,299,300,301,302,303,304,305,306,307,308,309,310,311,312,313,314,315,316,317,318,319,320,321,322,323,324,325,326,327,328,329,330,331,332,333,334,335,336,337,338,339,340,341,342,343,344,345,346,347,348,349,350,351,352,353,354,355,356,357,358,359,360,361,362,363,364,365,366,367,368,369,370,371,372,373,374,375,376,377,378,379,380,381,382,383,384,385,386,387,388,389,390,391,392,393,394,395,396,397,398,399,400,401,402,403,404,405,406,407,408,409,410,411,412,413,414,415,416,417,418,419,420,421,422,423,424,425,426,427,428,429,430,431,432,433,434,435,436,437,438,439,440,441,442,443,444,445,446,447,448,449,450,451,452,453,454,455,456,457,458,459,460,461,462,463,464,465,466,467,468,469,470,471,472,473,474,475,476,477,478,479,480,481,482,483,484,485,486,487,488,489,490,491,492,493,494,495,496,497,498,499,500,501,502,503,504,505,506,507,508,509,510,511,512,513,514,515,516,517,518,519,520,521,522,523,524,525,526,527,528,529,530,531,532,533,534,535,536,537,538,539,540,541,542,543,544,545,546,547,548,549,550,551,552,553,554,555,556,557,558,559,560,561,562,563,564,565,566,567,568,569,570,571,572,573,574,575,576,577,578,579,580,581,582,583,584,585,586,587,588,589,590,591,592,593,594,595,596,597,598,599,600,601,602,603,604,605,606,607,608,609,610,611,612,613,614,615,616,617,618,619,620,621,622,623,624,625,626,627,628,629,630,631,632,633,634,635,636,637,638,639,640,641,642,643,644,645,646,647,648,649,650,651,652,653,654,655,656,657,658,659,660,661,662,663,664,665,666,667,668,669,670,671,672,673,674,675,676,677,678,679,680,681,682,683,684,685,686,687,688,689,690,691,692,693,694,695,696,697,698,699,700,701,702,703,704,705,706,707,708,709,710,711,712,713,714,715,716,717,718,719,720,721,722,723,724,725,726,727,728,729,730,731,732,733,734,735,736,737,738,739,740,741,742,743,744,745,746,747,748,749,750,751,752,753,754,755,756,757,758,759,760,761,762,763,764,765,766,767,768,769,770,771,772,773,774,775,776,777,778,779,780,781,782,783,784,785,786,787,788,789,790,791,792,793,794,795,796,797,798,799,800,801,802,803,804,805,806,807,808,809,810,811,812,813,814,815,816,817,818,819,820,821,822,823,824,825,826,827,828,829,830,831,832,833,834,835,836,837,838,839,840,841,842,843,844,845,846,847,848,849,850,851,852,853,854,855,856,857,858,859,860,861,862,863,864,865,866,867,868,869,870,871,872,873,874,875,876,877,878,879,880,881,882,883,884,885,886,887,888,889,890,891,892,893,894,895,896,897,898,899,900,901,902,903,904,905,906,907,908,909,910,911,model_num,model_arch,poisoned
0,9.62921142578125,-0.013256639242172241,0.010190427303314209,-0.02344706654548645,-10.181098937988281,1.000000238418579,15.274505615234375,0.002322959015145898,0.0020977845415472984,0.0002251745027024299,115.96211242675781,0.9999986886978149,0.6351386308670044,0.000404047459596768,-3.188024857081473e-05,0.00043592770816758275,953.267578125,47.27587890625,9.437151908874512,0.011521617881953716,-0.003843412734568119,0.015365030616521835,8.848602294921875,0.9999998807907104,0.8213446140289307,0.21611106395721436,0.027855277061462402,0.18825578689575195,165.97329711914062,1.0,1.6612575054168701,0.0005033112829551101,0.0006561325280927122,-0.00015282125968951732,0.38654306530952454,1.000000238418579,2.3965554237365723,-3.4571192372823134e-05,-3.000440847245045e-05,-4.566783445625333e-06,-61.172760009765625,21.64310646057129,4.638391494750977,-0.0041656494140625,-0.0034286612644791603,-0.0007369882659986615,-9.59765625,1.0000001192092896,2.516091823577881,-4.6667704737046733e-05,-3.601363641791977e-05,-1.0654068319126964e-05,-27.525732040405273,8.23577880859375,4.0929646492004395,0.01151072233915329,-0.009265927597880363,0.020776649937033653,8.840234756469727,1.0,2.6577470302581787,0.8755027651786804,0.24429291486740112,0.6312098503112793,672.3861083984375,0.9999997615814209,1.9007396697998047,0.007771225180476904,0.007753803860396147,1.742139647831209e-05,5.968300819396973,0.9999998211860657,1.275377869606018,-0.0008454683120362461,6.108480738475919e-05,-0.0009065531194210052,-1994.7099609375,15.616148948669434,0.7104959487915039,-1.7025147676467896,-0.14357495307922363,-1.558939814567566,-5230.12548828125,1.000000238418579,1.38347589969635,-0.00030074326787143946,0.00029490876477211714,-0.0005956520326435566,-709.5424194335938,25.15888023376465,5.368829727172852,0.038307979702949524,-0.01689472794532776,0.05520270764827728,29.420528411865234,0.9999997019767761,1.1463340520858765,0.20996467769145966,0.014139518141746521,0.19582515954971313,161.25286865234375,1.0000003576278687,4.103488922119141,0.003787147579714656,0.005133750848472118,-0.0013466033851727843,2.908529281616211,1.000000238418579,1.7970967292785645,-4.821318725589663e-05,-3.120182373095304e-05,-1.7011361705954187e-05,-85.31188201904297,18.212963104248047,5.38569450378418,0.021272076293826103,0.01664726249873638,0.004624813795089722,49.0108642578125,1.0,1.3721380233764648,1.6159398001036607e-05,5.3887626563664526e-05,-3.7728226743638515e-05,9.531200408935547,31.05353355407715,2.999621868133545,0.008213823661208153,-0.0025219693779945374,0.01073579303920269,6.308216571807861,1.000000238418579,1.5285594463348389,0.4304618835449219,-0.00859418511390686,0.43905606865882874,330.5947265625,1.0000003576278687,2.957589626312256,0.0023154777009040117,0.007408169098198414,-0.005092691630125046,1.7782869338989258,0.9999998211860657,1.1406474113464355,-0.00016864533245097846,-8.815152250463143e-05,-8.049380994634703e-05,-397.8842468261719,22.353784561157227,0.49044039845466614,-1.3309245109558105,-0.1815042495727539,-1.1494202613830566,-4088.60009765625,0.9999997615814209,2.022617816925049,0.00016807251085992903,0.00014055913197807968,2.7513371605891734e-05,396.5328063964844,24.27515983581543,2.0765764713287354,0.01354182418435812,-0.017115797847509384,0.03065762296319008,10.400120735168457,0.9999997615814209,1.2571989297866821,0.28623491525650024,0.010342687368392944,0.2758922278881073,219.8284149169922,1.000000238418579,4.7316155433654785,-0.0010075628524646163,0.0015785418218001723,-0.0025861046742647886,-0.7738083004951477,1.0,1.1746742725372314,9.260907063435297e-06,9.892448724713176e-05,-8.966358291218057e-05,16.38691520690918,39.643009185791016,4.3555006980896,0.010231412947177887,0.007570827379822731,0.002660585567355156,23.57317543029785,1.000000238418579,1.489932656288147,-1.3020019650866743e-05,0.0001197156379930675,-0.00013273565855342895,-7.679520130157471,43.73116683959961,2.310110092163086,0.006162928882986307,-0.01035032793879509,0.01651325635612011,4.733129501342773,0.9999997019767761,1.7206758260726929,0.5026448965072632,-0.027862489223480225,0.5305073857307434,386.0312805175781,1.0,2.190335273742676,-0.002061280654743314,0.0012418197002261877,-0.0033031003549695015,-1.5830634832382202,1.0,1.196223497390747,-0.0006035194383002818,-5.133793456479907e-05,-0.0005521815037354827,-1423.8809814453125,22.684162139892578,0.3930326998233795,-1.2181318998336792,-0.19119513034820557,-1.0269367694854736,-3742.10107421875,0.9999997615814209,1.4651929140090942,-0.0001842417404986918,0.00014839755021966994,-0.00033263929071836174,-434.6807861328125,30.529802322387695,1.312657117843628,0.004512592684477568,-0.015203973278403282,0.019716566428542137,3.4656710624694824,1.0000001192092896,1.4318207502365112,0.3600042760372162,0.016531556844711304,0.3434727191925049,276.4832763671875,1.0,5.290795803070068,-0.003121328307315707,0.002376553835347295,-0.005497882142663002,-2.3971800804138184,1.000000238418579,1.0665706396102905,2.7653968572849408e-05,3.3729520509950817e-06,2.4281016521854326e-05,48.93292236328125,28.827621459960938,3.867398500442505,-0.01780058443546295,-0.018904972821474075,0.0011043886188417673,-41.01254653930664,1.000000238418579,1.5860706567764282,5.1765135140158236e-05,-2.9102215194143355e-05,8.086735033430159e-05,30.532320022583008,21.802017211914062,1.3432163000106812,0.007944935001432896,-0.015712495893239975,0.023657431825995445,6.101710319519043,1.0,1.8241946697235107,0.4449966847896576,-0.0018957257270812988,0.4468924105167389,341.7574462890625,1.0,2.1431031227111816,-0.0067845918238162994,0.004171248525381088,-0.010955840349197388,-5.210566520690918,1.000000238418579,1.341098666191101,-0.0005429231096059084,-0.00016602876712568104,-0.00037689434248022735,-1280.9163818359375,25.260408401489258,0.15213988721370697,-1.2666000127792358,-0.09306800365447998,-1.1735320091247559,-3890.9951171875,1.0,1.9318585395812988,-0.0005028259474784136,0.00023213186068460345,-0.000734957808163017,-1186.315185546875,24.533708572387695,1.120300054550171,0.007960234768688679,-0.014188001863658428,0.022148236632347107,6.113460540771484,0.9999994039535522,1.5788285732269287,0.3485325276851654,0.015728086233139038,0.33280444145202637,267.6729736328125,1.0,6.190523624420166,-0.0024920941796153784,0.004642831161618233,-0.007134925574064255,-1.9139282703399658,1.0000001192092896,1.0823018550872803,-7.100936636561528e-05,-3.989494871348143e-06,-6.701987149426714e-05,-125.64908599853516,49.33734893798828,5.797582626342773,0.00701811583712697,0.004021292552351952,0.0029968235176056623,16.16973876953125,1.0000001192092896,1.263171672821045,6.264002877287567e-05,0.0001545997802168131,-9.195975871989504e-05,36.94659423828125,20.1940975189209,1.1643189191818237,0.012539167888462543,-0.021887466311454773,0.03442663326859474,9.630081176757812,1.000000238418579,2.140669107437134,0.38502082228660583,0.015835046768188477,0.36918577551841736,295.69598388671875,1.000000238418579,2.1366052627563477,-0.005339473020285368,0.004471200052648783,-0.00981067307293415,-4.100715160369873,1.0000001192092896,0.9981467723846436,-0.0005343525554053485,-0.00013454866711981595,-0.0003998038882855326,-1260.69580078125,15.596168518066406,0.16970181465148926,-1.296303153038025,-0.045552968978881836,-1.250750184059143,-3982.243408203125,1.000000238418579,1.5862846374511719,-0.0007866310770623386,0.0002728429972194135,-0.0010594740742817521,-1855.8955078125,22.86176300048828,1.1336089372634888,0.011415708810091019,-0.013013418763875961,0.02442912757396698,8.767264366149902,1.0,1.6055816411972046,0.35364365577697754,0.021601349115371704,0.33204230666160583,271.59832763671875,1.0,5.2071638107299805,-0.0050950441509485245,0.005907900631427765,-0.01100294478237629,-3.912993907928467,1.0000001192092896,1.2603700160980225,-1.2285756383789703e-05,0.00011851487215608358,-0.0001308006321778521,-21.739301681518555,43.982643127441406,4.889921188354492,-0.00992356613278389,-0.007870905101299286,-0.0020526607986539602,-22.8638973236084,1.0,1.4398410320281982,-0.0001429684489266947,-1.8525752238929272e-06,-0.00014111587370280176,-84.32622528076172,21.508487701416016,1.1549019813537598,0.010376418940722942,-0.019725162535905838,0.030101582407951355,7.969089984893799,0.9999998807907104,1.9349926710128784,0.43269774317741394,0.016092658042907715,0.4166050851345062,332.3118591308594,1.000000238418579,2.4437198638916016,-0.010077419690787792,0.002802460454404354,-0.012879880145192146,-7.739458084106445,0.9999999403953552,1.2459825277328491,0.0002999726857524365,-0.00014040834503248334,0.00044038103078491986,707.724365234375,20.53632926940918,-0.08955977857112885,-1.2933675050735474,-0.050156354904174805,-1.2432111501693726,-3973.224853515625,1.0000003576278687,1.9580022096633911,-0.0007482128567062318,0.00020793278235942125,-0.0009561456390656531,-1765.255615234375,26.234237670898438,1.1535741090774536,0.009113325737416744,-0.014634220860898495,0.02374754659831524,6.9990339279174805,0.9999998211860657,1.6874815225601196,0.3765549659729004,0.01531270146369934,0.36124226450920105,289.1942138671875,0.9999996423721313,4.561625957489014,-0.005373889114707708,0.00874791108071804,-0.014121799729764462,-4.1271467208862305,0.9999998211860657,1.440744161605835,-1.2165725820523221e-05,-8.268507372122258e-06,-3.897217993653612e-06,-21.52691078186035,44.18038558959961,4.483767509460449,0.009941905736923218,0.004032855853438377,0.00590904988348484,22.906150817871094,0.9999998211860657,1.6648937463760376,3.285712591605261e-05,-0.0001364902127534151,0.0001693473313935101,19.379920959472656,18.153728485107422,1.1325613260269165,0.010534171015024185,-0.023123078048229218,0.0336572490632534,8.090243339538574,0.9999998211860657,1.9934451580047607,0.4820859432220459,0.014725983142852783,0.4673599600791931,370.24200439453125,1.0,2.155681610107422,-0.013421408832073212,0.004425704479217529,-0.01784711331129074,-10.307641983032227,0.9999998807907104,1.5484737157821655,0.0009409020422026515,4.596519283950329e-05,0.0008949368493631482,2219.866455078125,15.838963508605957,1.5639011859893799,-1.2900007963180542,-0.013772726058959961,-1.2762280702590942,-3962.88232421875,0.9999998211860657,1.7798941135406494,-0.0006924050394445658,0.00023892824538052082,-0.0009313332848250866,-1633.58837890625,27.546058654785156,1.2150799036026,0.007173322141170502,-0.008274964056909084,0.015448286198079586,5.509111404418945,1.0000001192092896,1.6476913690567017,0.4328666031360626,0.022775381803512573,0.41009122133255005,332.4415588378906,0.9999998211860657,4.627643585205078,-0.006273727864027023,0.01027158834040165,-0.016545316204428673,-4.818222999572754,1.0,0.8771658539772034,3.373571234988049e-05,-1.9430051906965673e-05,5.316576425684616e-05,59.69439697265625,41.41740798950195,4.050965309143066,-0.011485680937767029,-0.016501225531101227,0.005015544593334198,-26.463008880615234,1.0,2.024054527282715,-2.0738112652907148e-05,-9.103212505578995e-05,7.02940160408616e-05,-12.231836318969727,10.99929428100586,1.102425456047058,0.00635942118242383,-0.02225589007139206,0.028615310788154602,4.884035587310791,1.0,1.8389214277267456,0.7202131152153015,0.012993156909942627,0.7072199583053589,553.1236572265625,1.0,0.9926065802574158,-0.0305448267608881,0.003072669729590416,-0.033617496490478516,-23.45842742919922,1.0,0.7289901971817017,0.002583140740171075,-0.00014285650104284286,0.0027259972412139177,6094.3935546875,9.541105270385742,4.521777153015137,-1.2662369012832642,0.004953145980834961,-1.2711900472640991,-3889.8798828125,0.9999998211860657,2.7694661617279053,-0.00014731223927810788,0.00030965395853854716,-0.00045696619781665504,-347.5531921386719,16.7884578704834,1.3067089319229126,-0.00018773732881527394,-0.009814356453716755,0.009626619517803192,-0.1441822648048401,1.000000238418579,1.3610132932662964,0.48511746525764465,0.019196242094039917,0.46592122316360474,372.5702209472656,1.0,2.9604098796844482,-0.00836081150919199,0.011104739271104336,-0.019465550780296326,-6.421103477478027,1.0,0.7559683322906494,-5.8546345826471224e-05,-1.9406659703236073e-05,-3.913968612323515e-05,-103.59612274169922,37.971702575683594,5.274896144866943,0.0031238857191056013,0.0009662655647844076,0.0021576201543211937,7.197432518005371,1.000000238418579,1.9776726961135864,2.0712606783490628e-05,-4.96479551657103e-05,7.036056194920093e-05,12.216793060302734,10.796658515930176,2.343963384628296,-0.001515677198767662,-0.019731799140572548,0.018216121941804886,-1.1640400886535645,1.0,4.3850603103637695,1.5415000915527344,0.02136814594268799,1.5201319456100464,1183.8720703125,1.0,2.654968500137329,-0.08980823308229446,-0.007220461964607239,-0.08258777111768723,-68.97272491455078,1.0,0.9710572957992554,0.0020373535808175802,1.7545651644468307e-05,0.002019807929173112,4806.72021484375,13.634574890136719,2.986037015914917,-1.1469157934188843,-0.052896857261657715,-1.0940189361572266,-3523.3251953125,1.0,1.99309504032135,3.678147913888097e-05,1.1175377949257381e-05,2.5606101189623587e-05,86.77839660644531,59.73122024536133,3.2133054733276367,-0.003006194019690156,-0.024920595809817314,0.021914402022957802,-2.3087570667266846,1.000000238418579,1.4893920421600342,0.5878655910491943,0.027499854564666748,0.5603657364845276,451.48077392578125,1.0000003576278687,1.0677803754806519,-0.01635809987783432,0.00132683664560318,-0.0176849365234375,-12.563020706176758,1.0,0.7358753681182861,2.6624200017977273e-06,-3.450156873441301e-05,3.716398714459501e-05,4.711077690124512,33.16300964355469,5.056241512298584,0.005601969081908464,0.007830620743334293,-0.0022286518942564726,12.906936645507812,0.9999997019767761,2.2390432357788086,4.4710042857332155e-05,8.700363105162978e-05,-4.229358455631882e-05,26.371055603027344,18.30233383178711,3.163637638092041,-0.002279765671119094,-0.0028592348098754883,0.0005794690223410726,-1.7508599758148193,1.0000004768371582,6.580945014953613,2.645731210708618,0.0440521240234375,2.6016790866851807,2031.9215087890625,1.0,3.320402145385742,-0.1411498337984085,-0.016657747328281403,-0.1244920864701271,-108.40306854248047,1.0000001192092896,0.79087895154953,0.0023241667076945305,3.485172055661678e-05,0.0022893149871379137,5483.3974609375,14.664888381958008,3.1052520275115967,-1.1553038358688354,-0.026617050170898438,-1.128686785697937,-3549.09326171875,0.9999998211860657,0.87136310338974,-2.2551575966645032e-05,-3.238355930079706e-05,9.831983334152028e-06,-53.205841064453125,117.5916748046875,5.056982040405273,-0.0033348810393363237,-0.002832578495144844,-0.0005023026606068015,-2.5611886978149414,0.9999998807907104,1.635875940322876,0.7173541188240051,0.026915013790130615,0.6904391050338745,550.927978515625,1.000000238418579,1.037388801574707,-0.022231122478842735,-1.539476215839386e-05,-0.02221572771668434,-17.073501586914062,1.0,0.74960857629776,-2.69044867309276e-05,3.433071469771676e-05,-6.123520142864436e-05,-47.60673522949219,30.447223663330078,4.663120269775391,-0.0010812466498464346,-0.006164738908410072,0.005083492025732994,-2.49119234085083,0.9999997615814209,1.5372899770736694,1.0474164810148068e-05,4.50873703812249e-05,-3.4613207390066236e-05,6.177913665771484,23.25429916381836,6.222280979156494,-0.002092761220410466,0.010715802200138569,-0.012808563187718391,-1.6072406768798828,1.000000238418579,14.586971282958984,8.609006881713867,0.03448772430419922,8.574519157409668,6611.71728515625,1.0000001192092896,7.8995890617370605,-0.10614398866891861,0.030273564159870148,-0.13641755282878876,-81.51858520507812,0.9999997615814209,1.1122667789459229,-0.00030094696558080614,3.1728704925626516e-06,-0.0003041198360733688,-710.02294921875,11.627076148986816,1.9443092346191406,-1.2904744148254395,0.012772560119628906,-1.3032469749450684,-3964.33740234375,1.0,0.7276777625083923,-0.0004017982864752412,-0.0002000486565520987,-0.0002017496299231425,-947.9610595703125,72.28042602539062,7.420944690704346,-0.007675269152969122,-0.005716010462492704,-0.0019592586904764175,-5.894606590270996,1.0,2.0571465492248535,0.8282250761985779,0.023759186267852783,0.8044658899307251,636.0768432617188,1.0,3.893324375152588,-0.024058042094111443,-0.001773543655872345,-0.022284498438239098,-18.47657585144043,1.000000238418579,0.7438445687294006,-7.47911908547394e-05,-5.471716576721519e-06,-6.931947427801788e-05,-132.34091186523438,15.261357307434082,3.43228816986084,0.00035464123357087374,0.0008821881492622197,-0.0005275469156913459,0.8170933723449707,1.0,1.4390751123428345,2.5840006856014952e-05,-6.279078661464155e-07,2.6467914722161368e-05,15.241056442260742,14.306317329406738,23.730600357055664,-0.005156268831342459,0.02935507707297802,-0.034511346369981766,-3.9600143432617188,0.9999998807907104,2.1246092319488525,0.9764451384544373,0.006029367446899414,0.9704157710075378,749.9098510742188,1.0000001192092896,1.8509482145309448,-0.004048585891723633,0.0001520882360637188,-0.004200674127787352,-3.10931396484375,1.0000001192092896,0.47122374176979065,-0.0011873138137161732,2.0708655938506126e-05,-0.0012080224696546793,-2801.224853515625,12.372803688049316,2.0371031761169434,-1.1655207872390747,0.009941339492797852,-1.1754621267318726,-3580.47998046875,1.0,1.2616993188858032,2.494738691893872e-05,-9.615624003345147e-05,0.00012110362877137959,58.85826873779297,39.19837951660156,12.530738830566406,-0.02568148262798786,-0.005153343081474304,-0.020528139546513557,-19.723379135131836,1.0,3.9507193565368652,1.4057422876358032,0.0293121337890625,1.3764301538467407,1079.610107421875,1.0,4.718362808227539,-0.03459302708506584,0.00804830715060234,-0.04264133423566818,-26.56744384765625,1.0,0.2947191298007965,-0.0013154130429029465,-0.00048012472689151764,-0.0008352883160114288,-32.32759094238281,8.579174995422363,0.04514465481042862,-0.020117491483688354,-0.0061999596655368805,-0.013917531818151474,-0.6437597274780273,1.0,id-00000001,classification:vit_base_patch32_224,False
0,9.174429893493652,-0.009380451403558254,0.013830927200615406,-0.02321137860417366,-7.20418643951416,1.0,14.44754695892334,0.0018889008788391948,0.0026642228476703167,-0.0007753219688311219,94.29393005371094,0.9999990463256836,0.37933680415153503,2.7935066100326367e-05,-2.3113296265364625e-05,5.104836236569099e-05,65.90708923339844,52.68233871459961,7.261378765106201,0.011673502624034882,-0.007201990112662315,0.018875492736697197,8.965250015258789,1.000000238418579,1.1004835367202759,0.35136449337005615,0.11927863955497742,0.23208585381507874,269.8479309082031,1.000000238418579,1.4042119979858398,0.0003449672367423773,0.0001461529463995248,0.00019881429034285247,0.26493483781814575,1.0,1.8454663753509521,-3.3503860322525725e-05,-3.1957970350049436e-05,-1.5458904272236396e-06,-59.284141540527344,17.07453727722168,4.644752502441406,-0.005852540954947472,-0.006157645024359226,0.0003051042731385678,-13.484253883361816,1.0,1.1208866834640503,-8.412593160755932e-05,-9.992901323130354e-05,1.5803083442733623e-05,-49.6194953918457,18.533267974853516,3.4852612018585205,0.009965096600353718,-0.0062428852543234825,0.0162079818546772,7.653194427490234,0.9999998211860657,3.188812494277954,0.9610278606414795,0.35746389627456665,0.6035639643669128,738.0693969726562,0.9999997019767761,1.5767648220062256,0.006800154689699411,0.005737065803259611,0.0010630887700244784,5.2225189208984375,1.0000003576278687,0.7030749917030334,2.9565009754151106e-05,-7.933920278446749e-05,0.0001089042125386186,69.75260925292969,21.994075775146484,0.6104550361633301,-1.6552839279174805,-0.1542067527770996,-1.5010771751403809,-5085.0322265625,1.0,0.7560216188430786,-0.00014015499618835747,4.218373214825988e-05,-0.00018233872833661735,-330.6671142578125,29.72483253479004,4.726125717163086,0.04022759571671486,-0.02055542916059494,0.0607830248773098,30.894794464111328,0.9999997615814209,0.7914339303970337,0.3185776174068451,-0.028221100568771362,0.34679871797561646,244.66761779785156,1.0000001192092896,3.960153102874756,0.00664374278858304,0.007082285359501839,-0.00043854236719198525,5.1023945808410645,1.0000001192092896,0.9900735020637512,-7.049061241559684e-05,-2.0446292182896286e-05,-5.0044320232700557e-05,-124.73117065429688,43.81926727294922,5.596959114074707,0.01981986314058304,0.015716250985860825,0.0041036116890609264,45.66496276855469,0.9999997019767761,0.7136018872261047,1.8837261450244114e-05,2.3690176021773368e-05,-4.852915481023956e-06,11.110669136047363,72.00196075439453,2.593315839767456,0.011017671786248684,0.006219959817826748,0.004797711968421936,8.46157169342041,1.0,1.2291007041931152,0.49547266960144043,-0.038596928119659424,0.5340695977210999,380.52301025390625,0.9999998807907104,2.9281246662139893,0.004939313977956772,0.006446248851716518,-0.0015069349901750684,3.793393135070801,1.0000004768371582,0.6266829967498779,-1.173431064671604e-05,-0.00011356158938724548,0.00010182728146901354,-27.684711456298828,66.20565795898438,0.3254931569099426,-1.2624623775482178,-0.17092502117156982,-1.091537356376648,-3878.284423828125,1.0,0.827652096748352,5.2938466978957877e-05,-3.831759750028141e-05,9.125606447923928e-05,124.89751434326172,66.78196716308594,1.6062005758285522,0.014464550651609898,-0.012690669856965542,0.02715522050857544,11.10877513885498,1.0,0.8985953330993652,0.436751127243042,-0.027521729469299316,0.4642728567123413,335.42486572265625,0.9999998211860657,4.635253429412842,0.0007615534705109894,0.0006239168578758836,0.00013763661263510585,0.5848730802536011,1.0,0.5533149242401123,1.5502229871344753e-05,-5.985915777273476e-06,2.148814564861823e-05,27.430763244628906,78.8229751586914,4.48050594329834,0.010894727893173695,0.01042531244456768,0.0004694157396443188,25.10145378112793,1.000000238418579,0.697222888469696,-6.3851402956061065e-06,7.18626324669458e-06,-1.3571403542300686e-05,-3.766108989715576,99.4031753540039,1.7998783588409424,0.00793433841317892,-0.0057091061025857925,0.013643444515764713,6.093571662902832,0.9999997615814209,1.1852586269378662,0.5935965776443481,-0.051155030727386475,0.6447516083717346,455.8821716308594,1.000000238418579,2.181997299194336,-0.005547368433326483,0.001960944849997759,-0.007508313283324242,-4.260378837585449,0.9999997615814209,0.904233992099762,-0.0002821529924403876,-1.6691425116732717e-05,-0.0002654615673236549,-665.6824340820312,92.2358169555664,0.21644333004951477,-1.138474941253662,-0.1591464877128601,-0.979328453540802,-3497.39501953125,1.0,0.8867911100387573,1.7525619114167057e-05,1.1549819646461401e-05,5.975799467705656e-06,41.348121643066406,85.50232696533203,1.0889945030212402,0.0038748320657759905,-0.01908923126757145,0.02296406403183937,2.9758710861206055,1.000000238418579,1.246956706047058,0.5311437249183655,-0.02376246452331543,0.5549061894416809,407.91839599609375,0.9999998807907104,5.143085479736328,-0.0034788968041539192,0.003196374513208866,-0.006675271317362785,-2.67179274559021,1.000000238418579,0.5692183971405029,-1.590527426742483e-05,7.49726859794464e-06,-2.340254286536947e-05,-28.143936157226562,97.07646179199219,3.654632091522217,-0.01772581785917282,-0.01551495585590601,-0.002210862236097455,-40.84028625488281,1.0,0.7965209484100342,-2.8801634925912367e-06,-4.586584327626042e-05,4.298568092053756e-05,-1.6987895965576172,92.17583465576172,0.9146421551704407,0.008049801923334599,-0.011796238832175732,0.01984604075551033,6.182248115539551,1.000000238418579,1.4658503532409668,0.5866237282752991,-0.025928974151611328,0.6125527024269104,450.52703857421875,0.9999997615814209,2.11090087890625,-0.008617274463176727,0.003786287270486355,-0.012403561733663082,-6.618066787719727,1.0,0.7768971920013428,-0.0002823152462951839,-8.246091601904482e-05,-0.00019985433027613908,-666.0652465820312,76.70638275146484,0.16092683374881744,-1.1837061643600464,-0.05743813514709473,-1.1262680292129517,-3636.34521484375,1.0,0.8559938669204712,-1.1836906196549535e-05,-3.164407826261595e-05,1.980717024707701e-05,-27.92676544189453,87.83433532714844,0.9124350547790527,0.005029906984418631,-0.010978052392601967,0.016007959842681885,3.862968683242798,0.9999997615814209,1.4224311113357544,0.5625953078269958,-0.018528878688812256,0.5811241865158081,432.07318115234375,0.9999997615814209,5.982358932495117,-0.004457428585737944,0.005040422547608614,-0.009497851133346558,-3.423305034637451,0.9999997019767761,0.5896723866462708,-1.9555342078092508e-05,-8.566162250644993e-06,-1.0989179827447515e-05,-34.602630615234375,112.59015655517578,5.349936008453369,0.007067249156534672,0.002449176274240017,0.004618072882294655,16.282941818237305,1.0000003576278687,0.9095374345779419,1.0561754606897011e-05,4.44570068793837e-05,-3.389525227248669e-05,6.229576110839844,90.39130401611328,0.9652693867683411,0.010049461387097836,-0.021464135497808456,0.03151359781622887,7.717986106872559,1.0000005960464478,1.5679830312728882,0.5884183049201965,-0.012807846069335938,0.6012261509895325,451.9052429199219,1.000000238418579,2.094611406326294,-0.008586780168116093,0.005087146535515785,-0.013673926703631878,-6.594647407531738,0.9999999403953552,0.7327888607978821,-0.0002531765785533935,-9.477755520492792e-05,-0.00015839902334846556,-597.3184814453125,64.44285583496094,0.15900962054729462,-1.201351284980774,-0.017562508583068848,-1.183788776397705,-3690.55126953125,1.0,1.2078237533569336,-1.1764851478801575e-05,-2.3626460460945964e-05,1.1861608072649688e-05,-27.75676727294922,50.81291961669922,0.9405671954154968,0.007294294890016317,-0.008198507130146027,0.015492802485823631,5.602018356323242,0.9999997615814209,1.254817008972168,0.526563823223114,-0.014731109142303467,0.5412949323654175,404.4010314941406,1.0,5.090607643127441,-0.005702955648303032,0.00724012590944767,-0.012943081557750702,-4.3798699378967285,0.9999998807907104,0.6977596879005432,-3.9365809243463445e-06,2.7416448574513197e-05,-3.135302904411219e-05,-6.965670108795166,99.27146911621094,4.671658515930176,-0.01066925935447216,-0.008171108551323414,-0.002498150570318103,-24.581974029541016,0.9999997615814209,0.4734175205230713,-6.6792031248041894e-06,4.428807369549759e-05,-5.0967275456059724e-05,-3.939554214477539,81.9720687866211,0.981919527053833,0.0076482598669826984,-0.01680813729763031,0.02445639669895172,5.873863697052002,1.0,1.2600696086883545,0.6179811358451843,-0.007836222648620605,0.6258173584938049,474.6094970703125,1.0,2.138671636581421,-0.013517498038709164,0.0033016903325915337,-0.016819188371300697,-10.381438255310059,0.9999997615814209,0.5631517767906189,-3.197335172444582e-05,-7.754108810331672e-05,4.556774001684971e-05,-75.43460083007812,89.41931915283203,0.1459876149892807,-1.2021992206573486,-0.023343801498413086,-1.1788554191589355,-3693.156005859375,0.9999997019767761,1.251582384109497,-1.1613996321102604e-05,-5.247122680884786e-05,4.0857230487745255e-05,-27.400856018066406,102.32417297363281,0.9844234585762024,0.004915300756692886,-0.01759050227701664,0.022505803033709526,3.7749509811401367,1.0,1.4543489217758179,0.5468510985374451,-0.015279769897460938,0.562130868434906,419.98162841796875,1.0,4.419631004333496,-0.007075141649693251,0.008080655708909035,-0.015155797824263573,-5.433708667755127,1.0000003576278687,0.7582058906555176,2.958411641884595e-06,-5.882422556169331e-05,6.17826372035779e-05,5.234826564788818,90.74468231201172,4.337240219116211,0.008154157549142838,0.006667408160865307,0.0014867492718622088,18.787179946899414,0.9999998211860657,0.4664424657821655,5.451147444546223e-07,-5.068363407190191e-06,5.613478151644813e-06,0.3215217590332031,88.66294860839844,0.9781020879745483,0.007014577742666006,-0.01740245521068573,0.024417033419013023,5.387195587158203,1.0,1.3898988962173462,0.6659327745437622,-0.0052280426025390625,0.6711608171463013,511.4363708496094,1.0,1.8266205787658691,-0.016891369596123695,0.0031040478497743607,-0.019995417445898056,-12.97257137298584,1.000000238418579,1.4299559593200684,0.00020499182573985308,-1.96536275325343e-05,0.00022464545327238739,483.6363830566406,83.59993743896484,0.809872567653656,-1.1960898637771606,0.006091952323913574,-1.2021818161010742,-3674.387939453125,1.000000238418579,1.6101857423782349,-4.728757630800828e-05,-6.385631422745064e-05,1.656873973843176e-05,-111.56539154052734,105.62110900878906,1.0686094760894775,0.0026950808241963387,-0.010455816052854061,0.0131508968770504,2.069822072982788,1.0,1.2678343057632446,0.5826398730278015,-0.011182188987731934,0.5938220620155334,447.4674072265625,0.9999997615814209,4.500373840332031,-0.006843127775937319,0.010495245456695557,-0.017338372766971588,-5.25552225112915,1.0000003576278687,0.6248645186424255,2.4674818632774986e-05,-3.827675391221419e-05,6.295157072599977e-05,43.661399841308594,102.04647064208984,3.880553960800171,-0.014101650565862656,-0.013217879459261894,-0.000883771397639066,-32.490203857421875,1.0,0.4249364137649536,-2.128282176272478e-06,-6.364902219502255e-05,6.152073910925537e-05,-1.2553119659423828,79.85294342041016,0.8042857646942139,0.0030673707369714975,-0.020299850031733513,0.023367220535874367,2.355740785598755,0.9999997615814209,1.509947419166565,0.9908251166343689,-0.009488523006439209,1.000313639640808,760.9536743164062,1.0,0.8364794254302979,-0.030554061755537987,-0.0021630916744470596,-0.028390970081090927,-23.465518951416016,1.0000001192092896,0.7120169401168823,0.000741375086363405,7.380516035482287e-05,0.0006675699260085821,1749.123291015625,47.99441146850586,4.382369041442871,-1.1970999240875244,0.0063343048095703125,-1.2034342288970947,-3677.490966796875,0.9999998211860657,1.985983967781067,4.901293141301721e-05,1.6979687643470243e-05,3.203324376954697e-05,115.63601684570312,60.09253692626953,1.042563796043396,-0.002947410801425576,-0.008305944502353668,0.005358533468097448,-2.2636115550994873,1.0,1.1222872734069824,0.6194608807563782,-0.011873126029968262,0.6313340067863464,475.7459411621094,1.0,2.8349685668945312,-0.007363529410213232,0.006293545011430979,-0.01365707442164421,-5.655190467834473,0.9999998211860657,0.6583735942840576,-2.262733323732391e-05,-1.1191516932740342e-05,-1.1435816304583568e-05,-40.03843307495117,114.00202941894531,4.881351947784424,0.005045908037573099,0.0030194532591849566,0.0020264547783881426,11.625772476196289,1.0000003576278687,0.603476881980896,1.4182652421368402e-06,-4.2262156057404354e-05,4.368042209534906e-05,0.8365268707275391,67.2428970336914,2.018340587615967,-0.004447618965059519,-0.014693355187773705,0.010245735757052898,-3.415771484375,1.0,3.6577179431915283,1.9707751274108887,-0.003279566764831543,1.9740546941757202,1513.5552978515625,1.0,2.290586471557617,-0.0690016821026802,-0.010906532406806946,-0.05809514969587326,-52.99329376220703,0.9999998211860657,0.8501864671707153,0.001482935156673193,3.740284591913223e-05,0.0014455323107540607,3498.68310546875,32.671478271484375,3.007906198501587,-1.1244419813156128,-0.05242049694061279,-1.072021484375,-3454.28564453125,1.000000238418579,1.9820307493209839,3.2166382879950106e-05,-4.3850574002135545e-05,7.601695688208565e-05,75.8900146484375,100.41927337646484,2.9124813079833984,-0.004700581077486277,-0.022071106359362602,0.017370525747537613,-3.61004638671875,1.0,1.2519283294677734,0.7064681053161621,0.004464924335479736,0.7020031809806824,542.5675048828125,1.0,0.9562341570854187,-0.01197659969329834,0.0021968837827444077,-0.014173483476042747,-9.198028564453125,0.9999998211860657,0.5681560635566711,8.699641512066592e-06,4.655760676541831e-06,4.04388083552476e-06,15.39377212524414,115.75299835205078,4.87839412689209,0.006072406657040119,0.0027717147022485733,0.003300691954791546,13.990824699401855,1.0000001192092896,0.7994564175605774,-8.938491191656794e-06,1.7992701032198966e-05,-2.6931191314361058e-05,-5.272136688232422,82.7265625,2.6676113605499268,-0.004081874620169401,-0.0006772037595510483,-0.003404670860618353,-3.1348798274993896,1.0000001192092896,6.273211479187012,3.20587158203125,0.01883673667907715,3.187034845352173,2462.109375,0.9999998211860657,3.0290896892547607,-0.10853371024131775,-0.008670702576637268,-0.09986300766468048,-83.35388946533203,0.9999997615814209,0.443549245595932,0.0019988075364381075,5.3564668633043766e-05,0.0019452428678050637,4715.77880859375,21.835206985473633,3.121938705444336,-1.1442774534225464,-0.02467036247253418,-1.1196070909500122,-3515.22021484375,0.9999998211860657,0.8581532835960388,-3.698742148117162e-05,-3.559610195225105e-05,-1.3913197562942514e-06,-87.26427459716797,194.41241455078125,4.608332633972168,-0.0034466180950403214,0.004462535493075848,-0.007909153588116169,-2.647002696990967,1.0,1.336247205734253,0.8558540344238281,0.00019472837448120117,0.8556593060493469,657.2958984375,1.0,1.2319673299789429,-0.019923461601138115,-0.003537740558385849,-0.016385721042752266,-15.30121898651123,1.000000238418579,0.538720965385437,-1.4284278222476132e-06,-1.7936624772119103e-06,3.6523471180771594e-07,-2.5275630950927734,108.94056701660156,4.399576663970947,-0.002086102031171322,-0.0037813172675669193,0.0016952151199802756,-4.8063788414001465,0.9999998211860657,0.5312451720237732,-9.25003769225441e-06,0.000155744724906981,-0.0001649947662372142,-5.455894470214844,142.45306396484375,7.462211608886719,-0.00265175080858171,0.010765045881271362,-0.013416796922683716,-2.0365445613861084,1.0000003576278687,14.393120765686035,9.270058631896973,-0.015645980834960938,9.285704612731934,7119.4052734375,1.000000238418579,6.938234806060791,-0.0984129011631012,0.030732721090316772,-0.12914562225341797,-75.58110809326172,1.0,1.0754550695419312,-0.00016725430032238364,3.351521445438266e-05,-0.0002007695147767663,-394.6023864746094,12.014578819274902,1.9670261144638062,-1.2900753021240234,0.012638568878173828,-1.3027138710021973,-3963.111328125,1.0,0.7348637580871582,-0.0003901320742443204,-0.00021725412807427347,-0.00017287794617004693,-920.43701171875,67.25064086914062,6.999125957489014,-0.008400185965001583,0.011940582655370235,-0.02034076862037182,-6.451342582702637,1.0,1.7582114934921265,0.9591328501701355,0.0023602843284606934,0.9567725658416748,736.614013671875,0.9999997615814209,3.8402905464172363,-0.015002979896962643,-0.003983198665082455,-0.011019781231880188,-11.52228832244873,0.9999998211860657,0.6413903832435608,-3.27717098116409e-05,-8.247936420957558e-06,-2.4523773390683345e-05,-57.98862075805664,79.09607696533203,3.1260182857513428,0.003081600647419691,0.0012822755379602313,0.0017993251094594598,7.100008010864258,1.0,0.7603952288627625,1.2971464457223192e-05,6.601092172786593e-05,-5.303945727064274e-05,7.650880813598633,31.69295310974121,24.698341369628906,-0.007383468095213175,0.030776606872677803,-0.03816007450222969,-5.670503616333008,1.0,2.1491141319274902,1.2416434288024902,0.012690901756286621,1.2289525270462036,953.5821533203125,1.0,2.3191187381744385,-0.008033566176891327,0.0010632826015353203,-0.009096848778426647,-6.169778823852539,1.0,0.32684776186943054,-0.00023411124129779637,6.325033609755337e-06,-0.0002404362749075517,-552.3377075195312,56.63827133178711,2.207732915878296,-1.137609839439392,0.0071010589599609375,-1.144710898399353,-3494.737548828125,1.0,1.2714548110961914,9.479371510678902e-05,-0.00010178551747230813,0.00019657923257909715,223.6464385986328,38.43010330200195,13.442724227905273,-0.027955345809459686,-0.0012143012136220932,-0.026741044595837593,-21.46970558166504,0.9999997019767761,3.917011022567749,1.6677583456039429,0.04088914394378662,1.6268692016601562,1280.83837890625,1.0,4.688666343688965,-0.023821944370865822,0.015263492241501808,-0.03908543661236763,-18.29525375366211,1.0,0.05841115862131119,-0.00029103641281835735,0.0007169540040194988,-0.0010079904459416866,-1.3410958051681519,3.3516931533813477,0.038421619683504105,0.0030737679917365313,0.00657466147094965,-0.003500893712043762,0.018442608416080475,0.9999997615814209,id-00000007,classification:vit_base_patch32_224,False
0,5.287234783172607,-0.009690993465483189,0.008706792257726192,-0.01839778572320938,-7.442683219909668,1.0,8.494718551635742,0.0019909683614969254,0.0022644291166216135,-0.0002734607260208577,99.38914489746094,0.9999995827674866,0.4815865159034729,0.0003553877759259194,6.549395038746297e-05,0.00028989382553845644,838.4649658203125,25.92957878112793,6.295745372772217,0.01214959379285574,0.004264176823198795,0.007885416969656944,9.330887794494629,1.000000238418579,0.440311998128891,0.11752931028604507,-0.004575416445732117,0.12210472673177719,90.26251220703125,1.0,0.9878939390182495,-0.0006188174593262374,-0.00014829722931608558,-0.00047052023001015186,-0.47525179386138916,1.0,1.8444254398345947,-4.796735811396502e-05,-7.687901961617172e-05,2.8911661502206698e-05,-84.87689971923828,13.796542167663574,2.6604835987091064,-0.0042364876717329025,-0.004681405611336231,0.000444918085122481,-9.76086711883545,0.9999997019767761,1.6532983779907227,-7.062652730382979e-05,-6.663508975179866e-05,-3.991439825767884e-06,-41.65721893310547,15.798750877380371,2.7896952629089355,0.00633895443752408,0.00018562935292720795,0.006153325084596872,4.868317127227783,1.0,1.249061107635498,0.4283955991268158,0.08931320905685425,0.33908239006996155,329.0078125,1.0,1.0497496128082275,0.005745962727814913,0.005572914145886898,0.00017304862558376044,4.412899494171143,1.0,0.9538364410400391,-0.0007962621166370809,-1.2592761777341366e-05,-0.0007836693548597395,-1878.6180419921875,7.706751823425293,0.3203538954257965,-0.9376541972160339,-0.08182936906814575,-0.8558248281478882,-2880.4736328125,1.0,1.3193045854568481,-0.0006326379952952266,0.00013932614820078015,-0.0007719641434960067,-1492.580322265625,20.142887115478516,2.924471616744995,0.019017959013581276,-0.010423330590128899,0.029441289603710175,14.605792045593262,1.0000003576278687,0.7056099772453308,0.09704914689064026,0.022845402359962463,0.0742037445306778,74.53374481201172,1.0,2.2263965606689453,0.0011511897901073098,0.0012746738502755761,-0.0001234840601682663,0.8841137290000916,0.9999997615814209,1.406327724456787,4.109464953216957e-06,-6.214227323653176e-05,6.625174137298018e-05,7.271583557128906,12.031280517578125,2.961162567138672,0.010678691789507866,0.009703812189400196,0.0009748798329383135,24.60370635986328,1.000000238418579,1.0758544206619263,5.961822466815647e-07,8.593875827500597e-05,-8.534257358405739e-05,0.3516426086425781,23.150104522705078,2.352976083755493,-0.0008022591355256736,-0.0029288819059729576,0.002126622712239623,-0.6161350011825562,1.0,0.9619506597518921,0.20139305293560028,0.02547191083431244,0.17592114210128784,154.66986083984375,1.0,1.4096382856369019,0.004112031776458025,0.004157911520451307,-4.5879758545197546e-05,3.1580402851104736,1.0000003576278687,1.0779507160186768,0.00019143393728882074,-9.097348083741963e-05,0.00028240741812624037,451.6493225097656,18.754186630249023,0.3124956786632538,-0.7440840601921082,-0.09443908929824829,-0.6496449708938599,-2285.826171875,0.9999998807907104,1.2878128290176392,0.00039308692794293165,0.00030152453109622,9.156238957075402e-05,927.408447265625,19.25037956237793,1.6649994850158691,0.0027674082666635513,-0.011639289557933807,0.014406697824597359,2.1253695487976074,1.0,1.1621190309524536,0.1269538849592209,0.020979851484298706,0.10597403347492218,97.50057983398438,1.0,2.379035472869873,1.7915706848725677e-05,0.0004755884874612093,-0.0004576727806124836,0.01375926285982132,1.0000001192092896,0.8477449417114258,-4.971973612555303e-05,8.634688856545836e-05,-0.00013606662105303258,-87.9776840209961,16.022790908813477,2.600130319595337,0.003417330328375101,0.0010574858170002699,0.002359844511374831,7.873528957366943,1.0000001192092896,0.8887442350387573,-1.4806014405621681e-05,-7.763784378767014e-05,6.283183029154316e-05,-8.732942581176758,29.760906219482422,1.8484781980514526,-0.002384994411841035,-0.0069172317162156105,0.004532237071543932,-1.83167564868927,1.0000001192092896,1.2082515954971313,0.21981285512447357,0.014200299978256226,0.20561255514621735,168.81626892089844,1.0,1.4237875938415527,0.0015924470499157906,0.0022377343848347664,-0.0006452873349189758,1.2229993343353271,0.9999997615814209,0.8929263353347778,-0.00036143657052889466,-1.0509684216231108e-06,-0.00036038560210727155,-852.73583984375,27.473119735717773,-0.027692655101418495,-0.673276424407959,-0.10211586952209473,-0.5711605548858643,-2068.30517578125,1.0,1.4578337669372559,-1.7136924725491554e-05,0.00013118292554281652,-0.0001483198575442657,-40.43107604980469,28.240188598632812,1.0771121978759766,-0.0009224129025824368,-0.004278684966266155,0.0033562718890607357,-0.7084131240844727,1.0000003576278687,1.1163358688354492,0.14919961988925934,0.020670339465141296,0.12852928042411804,114.58531188964844,1.0,2.7138280868530273,-0.0005752277793362737,0.0006476911948993802,-0.0012229189742356539,-0.4417749345302582,1.000000238418579,0.9484368562698364,-1.6982334273052402e-05,-6.0482561821118e-06,-1.0934078090940602e-05,-30.04976463317871,32.239620208740234,1.8587303161621094,-0.007941726595163345,-0.006951121147722006,-0.0009906054474413395,-18.29773712158203,1.0,0.9563384652137756,2.6131201593670994e-05,-5.45791772310622e-06,3.1589119316777214e-05,15.412810325622559,32.20732116699219,1.1808580160140991,-0.00032044295221567154,-0.008429347537457943,0.008108904585242271,-0.24610018730163574,1.000000238418579,1.2621961832046509,0.18160738050937653,0.008126899600028992,0.17348048090934753,139.47447204589844,1.0000001192092896,1.1039234399795532,3.913091495633125e-05,0.0013772425008937716,-0.0013381115859374404,0.030052542686462402,1.0,1.1709762811660767,-0.00024008045147638768,-0.00014225317863747478,-9.782726556295529e-05,-566.4208374023438,26.37186050415039,-0.01800466515123844,-0.7033259272575378,-0.04720836877822876,-0.6561175584793091,-2160.6171875,1.0,1.0908527374267578,-0.00011508085299283266,0.00019180233357474208,-0.00030688318656757474,-271.5097961425781,21.064756393432617,0.8455262780189514,0.0025012679398059845,-0.006199047900736332,0.008700315840542316,1.920973777770996,1.0,0.9979420900344849,0.13752876222133636,0.01542346179485321,0.12210530042648315,105.62208557128906,1.0,3.0593314170837402,0.0011894517811015248,0.0036241933703422546,-0.0024347417056560516,0.9134989976882935,1.0,0.9887418746948242,-1.3088884770695586e-05,-5.56574814254418e-05,4.256859756424092e-05,-23.160415649414062,39.796600341796875,2.8006856441497803,-0.0013824179768562317,-0.0004151951870881021,-0.0009672227897681296,-3.185091018676758,0.9999999403953552,0.7275413870811462,0.00010554334585322067,9.525812492938712e-05,1.0285220923833549e-05,62.25199890136719,25.836538314819336,0.8303900361061096,0.002762822201475501,-0.013247139751911163,0.016009962186217308,2.12184739112854,0.9999996423721313,1.4329365491867065,0.13653255999088287,0.012942284345626831,0.12359027564525604,104.85700988769531,0.9999996423721313,1.3083643913269043,0.0015039335703477263,0.0025268220342695713,-0.0010228885803371668,1.1550209522247314,0.9999997615814209,0.8817481398582458,-0.00023867549316491932,5.4248448577709496e-05,-0.0002929239417426288,-563.1061401367188,13.009455680847168,-0.011946397833526134,-0.7184076905250549,-0.02691096067428589,-0.691496729850769,-2206.948486328125,1.000000238418579,1.1120551824569702,-0.00039092139923013747,-4.059248021803796e-05,-0.0003503289190120995,-922.29931640625,12.956382751464844,0.9322576522827148,0.005622354801744223,-0.007167852949351072,0.012790207751095295,4.317968368530273,1.0,1.1216392517089844,0.13814036548137665,0.015276581048965454,0.1228637844324112,106.09180450439453,0.9999998211860657,2.6312179565429688,0.0005246887449175119,0.0032180389389395714,-0.0026933501940220594,0.40296095609664917,1.0,0.9104840755462646,6.482927710749209e-05,-6.672734161838889e-05,0.00013155661872588098,114.71359252929688,37.312469482421875,2.6956839561462402,-0.006276169791817665,-0.0014564511366188526,-0.0048197186551988125,-14.460294723510742,1.0000001192092896,0.8047325611114502,-7.349493444053223e-06,9.203681838698685e-05,-9.938631410477683e-05,-4.334907531738281,24.649839401245117,1.0418140888214111,0.0029189910273998976,-0.011420742608606815,0.014339733868837357,2.2417850494384766,1.000000238418579,1.2078814506530762,0.14840702712535858,0.013161271810531616,0.13524575531482697,113.97659301757812,1.0,1.7473766803741455,-0.0007807242800481617,0.0011035166680812836,-0.0018842408899217844,-0.5995962619781494,1.0000003576278687,1.008880615234375,0.0006326501606963575,-0.0001253914670087397,0.0007580416277050972,1492.6090087890625,16.317657470703125,-0.11828886717557907,-0.7168974876403809,-0.02902454137802124,-0.6878729462623596,-2202.30908203125,1.0,1.2804555892944336,-0.0001859902695287019,-4.263318260200322e-05,-0.00014335708692669868,-438.80609130859375,15.729744911193848,0.9461448192596436,0.003748370101675391,-0.007197416387498379,0.010945786722004414,2.8787481784820557,1.0000001192092896,1.2022849321365356,0.14667494595050812,0.016411200165748596,0.13026374578475952,112.6463623046875,1.000000238418579,2.331038236618042,0.0008184069884009659,0.00243094889447093,-0.0016125418478623033,0.628536581993103,0.9999998211860657,0.7888455986976624,2.8267773814150132e-05,0.0001061756192939356,-7.790784729877487e-05,50.01903533935547,33.8577766418457,2.4653470516204834,-0.0011759389890357852,0.0019908398389816284,-0.003166778711602092,-2.7093634605407715,1.0000001192092896,0.7470110058784485,-0.00010517727059777826,-1.2036594853270799e-05,-9.314067574450746e-05,-62.03607940673828,22.094383239746094,0.8815582990646362,0.0042440989054739475,-0.01471577025949955,0.01895986869931221,3.259467840194702,1.0,1.267595887184143,0.1268378645181656,0.022046968340873718,0.10479089617729187,97.41148376464844,1.000000238418579,1.6293256282806396,0.0002733305736910552,0.0017956284573301673,-0.0015222978545352817,0.20991787314414978,1.0,0.8941434025764465,0.0014522960409522057,-0.00014022376853972673,0.0015925198094919324,3426.396240234375,14.47130298614502,0.5013986825942993,-0.7078766226768494,-0.010178685188293457,-0.6976979374885559,-2174.596923828125,0.9999998807907104,1.4023280143737793,-0.0003528114757500589,-0.00016889053222257644,-0.00018392094352748245,-832.38671875,10.87043571472168,0.8622643947601318,0.003768340451642871,-0.0030583159532397985,0.0068266564048826694,2.89408540725708,1.0,1.1321266889572144,0.16882358491420746,0.017964765429496765,0.1508588194847107,129.65650939941406,0.9999997615814209,2.4303805828094482,0.0010488538537174463,0.004885016940534115,-0.0038361630868166685,0.8055197596549988,1.000000238418579,0.7036720514297485,2.6579853511066176e-05,-1.0120586011908017e-05,3.670043952297419e-05,47.03230667114258,32.00503158569336,2.186718702316284,-0.005681523121893406,-0.00425178837031126,-0.0014297348679974675,-13.090229034423828,1.0,1.0706008672714233,8.02261201897636e-05,0.00022572513262275606,-0.00014549901243299246,47.31929016113281,16.387603759765625,1.1486068964004517,0.0035081396345049143,-0.011241583153605461,0.014749722555279732,2.694251298904419,1.000000238418579,1.3197509050369263,0.2084304690361023,0.022122934460639954,0.18630753457546234,160.07460021972656,1.0000001192092896,1.041501522064209,-0.016034750267863274,-0.009014822542667389,-0.007019927259534597,-12.314688682556152,1.0,1.0333131551742554,0.001601525698788464,-0.00014533242210745811,0.0017468581208959222,3778.47314453125,12.887347221374512,2.1615967750549316,-0.6498752236366272,0.0003336668014526367,-0.6502088904380798,-1996.4166259765625,0.9999995827674866,2.804793119430542,0.00014547756290994585,0.00010133188334293664,4.414567956700921e-05,343.2246398925781,17.115890502929688,0.568846583366394,-0.004600033164024353,-0.0008651090320199728,-0.0037349241320043802,-3.532825469970703,1.0,0.6928417086601257,0.2089604139328003,0.009970739483833313,0.19898967444896698,160.48159790039062,1.0000001192092896,1.6294145584106445,0.0030660589691251516,0.0027611032128334045,0.0003049556980840862,2.3547332286834717,1.0,0.5396848320960999,-7.406001532217488e-05,-1.4913963241269812e-05,-5.9146052080905065e-05,-131.047119140625,11.727816581726074,2.562678337097168,0.002689971821382642,0.003673550672829151,-0.0009835788514465094,6.197695255279541,1.0,1.7461658716201782,0.000195925502339378,7.043151708785444e-05,0.00012549398525152355,115.56156158447266,5.659726619720459,1.101775050163269,-0.00676265312358737,-0.002148011699318886,-0.004614641424268484,-5.1937174797058105,1.000000238418579,2.6385998725891113,0.3453804552555084,0.04028582572937012,0.3050946295261383,265.252197265625,1.0,2.313384532928467,-0.012214981950819492,-0.011444085277616978,-0.0007708962657488883,-9.38110637664795,1.0000001192092896,0.7833746671676636,0.0024067724589258432,-5.115708336234093e-05,0.002457929542288184,5678.28857421875,8.793792724609375,1.4957001209259033,-0.6031786799430847,-0.027314424514770508,-0.5758642554283142,-1852.96484375,1.0,2.286120653152466,-6.711391324643046e-05,8.887429430615157e-05,-0.00015598820755258203,-158.34158325195312,28.89725685119629,1.4633952379226685,-0.008570671081542969,-0.010245433077216148,0.0016747618792578578,-6.582275390625,1.0000001192092896,1.0314604043960571,0.32369786500930786,0.025667816400527954,0.2980300486087799,248.59996032714844,1.000000238418579,0.5587984919548035,0.006086232606321573,-0.00010862573981285095,0.006194858346134424,4.674226760864258,0.9999998211860657,0.6957433223724365,4.6698663936695084e-05,0.00013056761235930026,-8.386894478462636e-05,82.6319808959961,17.199100494384766,2.674021005630493,0.0033938782289624214,0.0005769606214016676,0.002816917607560754,7.81949520111084,1.000000238418579,1.6503183841705322,0.0001771136448951438,-5.9205631259828806e-05,0.0002363192761549726,104.46588134765625,15.344943046569824,1.4725123643875122,-0.0087524289265275,-0.004504527430981398,-0.0042479014955461025,-6.721865653991699,1.0000001192092896,4.064294815063477,0.8051555752754211,0.03251403570175171,0.7726415395736694,618.3594970703125,1.000000238418579,2.354098320007324,-0.011384879238903522,-0.0033615007996559143,-0.008023378439247608,-8.743587493896484,1.000000238418579,0.6171643733978271,0.0023598098196089268,-4.713633097708225e-05,0.002406946150586009,5567.48974609375,10.720783233642578,1.5703649520874023,-0.6020327210426331,-0.014209210872650146,-0.5878235101699829,-1849.444580078125,0.9999997019767761,1.4567779302597046,0.00011699056631186977,7.228476897580549e-05,4.470579733606428e-05,276.015380859375,26.324811935424805,2.3941938877105713,-0.009482981637120247,-0.0009915027767419815,-0.008491478860378265,-7.28292989730835,1.0000001192092896,1.2560869455337524,0.36103740334510803,0.009895026683807373,0.35114237666130066,277.2767333984375,1.0,0.7216636538505554,0.009958620183169842,0.0013517644256353378,0.008606855757534504,7.648220062255859,1.0000001192092896,0.6860601902008057,-7.472600555047393e-05,-3.989587276009843e-05,-3.48301327903755e-05,-132.22557067871094,17.367170333862305,2.4881324768066406,-0.0027838125824928284,-0.004924569744616747,0.0021407571621239185,-6.413904190063477,0.9999998211860657,1.1857432126998901,-9.291717287851498e-05,1.9642830011434853e-05,-0.00011256000288994983,-54.804779052734375,16.930343627929688,5.1178388595581055,-0.005993402097374201,0.009787829592823982,-0.015781231224536896,-4.602932929992676,0.9999999403953552,7.749939918518066,3.683436393737793,0.08523941040039062,3.5981969833374023,2828.879150390625,1.0,4.803271293640137,0.010196715593338013,0.03299685940146446,-0.02280014380812645,7.831077575683594,0.9999998211860657,0.65511554479599,0.0003397228429093957,7.445795927196741e-05,0.0002652648836374283,801.5067138671875,12.289982795715332,0.9919765591621399,-0.670271098613739,0.006013691425323486,-0.6762847900390625,-2059.07275390625,1.0,0.8533754348754883,-1.716164842946455e-05,1.7702543118502945e-05,-3.4864191547967494e-05,-40.489410400390625,37.18577575683594,3.511986255645752,-0.00862553995102644,0.0014439607039093971,-0.010069500654935837,-6.624414443969727,1.0,1.193227767944336,0.40412190556526184,0.002029925584793091,0.40209197998046875,310.3656311035156,1.0,1.8839282989501953,0.012154728174209595,-0.00027148984372615814,0.012426218017935753,9.334831237792969,1.0,0.6647276282310486,-3.738659870577976e-05,1.0278745321556926e-06,-3.8414473237935454e-05,-66.154541015625,11.370009422302246,1.7796651124954224,0.0001384597271680832,-0.0011533446377143264,0.0012918043648824096,0.31901121139526367,1.0000001192092896,1.1485958099365234,-0.0002119701384799555,0.00012205464008729905,-0.00033402477856725454,-125.02507781982422,12.128101348876953,13.40210247039795,-0.006237856578081846,0.01453917846083641,-0.020777035504579544,-4.790673732757568,1.0000001192092896,1.3086016178131104,0.4474506080150604,-0.012299835681915283,0.4597504436969757,343.6420593261719,1.0000001192092896,1.1056807041168213,0.004146377090364695,0.007109493017196655,-0.002963115694001317,3.184417724609375,1.0,0.5841357707977295,0.002406748943030834,-0.00012759189121425152,0.0025343408342450857,5678.2333984375,3.1875107288360596,1.0872266292572021,-0.6204221248626709,0.008795678615570068,-0.629217803478241,-1905.936767578125,1.000000238418579,1.3585536479949951,0.00022271389025263488,-0.00018205487867817283,0.0004047687689308077,525.447998046875,6.872045040130615,7.609287738800049,-0.017254779115319252,-0.0056165773421525955,-0.011638201773166656,-13.251669883728027,1.0,2.1832563877105713,0.5056674480438232,0.02336791157722473,0.4822995364665985,388.35260009765625,1.0,2.14860463142395,0.013357192277908325,0.007292977999895811,0.006064214278012514,10.258323669433594,1.0,0.4640144407749176,0.008242473006248474,0.00033914390951395035,0.007903329096734524,215.22744750976562,6.684340000152588,0.09045185893774033,-0.025855716317892075,-0.0033481530845165253,-0.02250756323337555,-0.8790943622589111,1.0,id-00000012,classification:vit_base_patch32_224,True
0,9.895503044128418,-0.014734015800058842,0.006787712685763836,-0.021521728485822678,-11.31572437286377,1.0,16.400470733642578,0.00453463988378644,0.005515942350029945,-0.0009813022334128618,226.36923217773438,0.9999992847442627,0.9819225668907166,0.0003748467133846134,-0.0006944496417418122,0.001069296384230256,884.3743286132812,37.387794494628906,11.163744926452637,0.025985628366470337,-0.008382853120565414,0.03436848148703575,19.95696258544922,1.0,0.6327582001686096,0.21175189316272736,0.027474865317344666,0.1842770278453827,162.62545776367188,1.0000001192092896,1.733439326286316,0.00098653812892735,0.0017477544024586678,-0.0007612162735313177,0.7576612830162048,0.9999998211860657,3.3002727031707764,2.556621802796144e-05,-0.00013294779637362808,0.00015851401258260012,45.23870849609375,27.173416137695312,4.669149398803711,-0.0025458666495978832,-0.0018695532344281673,-0.000676313356962055,-5.8656768798828125,1.0000001192092896,5.388082981109619,4.670594717026688e-05,-0.00020648815552704036,0.00025319409905932844,27.548288345336914,5.353243827819824,5.898146629333496,0.023232199251651764,-0.01383865624666214,0.037070855498313904,17.842329025268555,0.9999998807907104,2.455366849899292,0.8025792241096497,0.2208472490310669,0.5817319750785828,616.380859375,1.0000001192092896,2.1745996475219727,0.007059210445731878,0.0067234523594379425,0.0003357579989824444,5.421473503112793,1.0000001192092896,2.133014678955078,-0.002025922294706106,-7.728149648755789e-05,-0.0019486407982185483,-4779.75048828125,12.841214179992676,0.6005551815032959,-1.7604526281356812,-0.1430516242980957,-1.6174010038375854,-5408.1103515625,1.0,3.2909178733825684,-0.0010702788131311536,0.00046211795415729284,-0.0015323967672884464,-2525.1044921875,19.094444274902344,5.712489128112793,0.04341312125325203,-0.012455299496650696,0.055868420749902725,33.341278076171875,1.0,1.161239504814148,0.1469481736421585,0.04054918885231018,0.10639898478984833,112.856201171875,0.9999998807907104,4.09713077545166,0.004162903875112534,0.004748879000544548,-0.0005859751254320145,3.197110176086426,0.9999995827674866,2.871021032333374,-0.00017682919860817492,-1.399227767251432e-05,-0.0001628369209356606,-312.8943176269531,32.86790084838867,5.1424713134765625,0.021149752661585808,0.018466807901859283,0.0026829440612345934,48.72903060913086,1.0,3.8073370456695557,-3.3289354178123176e-05,0.00011069877655245364,-0.0001439881307305768,-19.63486099243164,15.588310241699219,3.021023750305176,0.009891928173601627,0.00148006621748209,0.008411861956119537,7.597001075744629,1.000000238418579,1.5950740575790405,0.33524665236473083,0.015281230211257935,0.3199654221534729,257.46942138671875,1.0000001192092896,2.9193906784057617,0.004314832855015993,0.005777955986559391,-0.0014631233643740416,3.313791513442993,1.0,1.6602007150650024,-0.0004543622781056911,-0.00018679775530472398,-0.0002675645228009671,-1071.97509765625,40.594703674316406,0.44280967116355896,-1.375278115272522,-0.18831372261047363,-1.1869643926620483,-4224.8544921875,1.0,4.085710048675537,0.00022153287136461586,0.0005481948610395193,-0.0003266619751229882,522.66162109375,18.769664764404297,2.391206979751587,0.01418644841760397,-0.023495040833950043,0.03768149018287659,10.89519214630127,1.0,1.9231055974960327,0.2203981727361679,0.03193795680999756,0.18846021592617035,169.2657928466797,1.0,4.687119960784912,0.0011919253738597035,0.0029064847622066736,-0.00171455938834697,0.9153987169265747,1.000000238418579,1.438297986984253,5.956299355602823e-05,-0.00010075235331896693,0.00016031535051297396,105.39505004882812,39.794212341308594,4.005728721618652,-0.0011949961772188544,-0.0007739592110738158,-0.00042103693704120815,-2.7532711029052734,1.0,3.337968587875366,-3.694172846735455e-05,0.00019895052537322044,-0.0002358922502025962,-21.78911781311035,23.74968147277832,2.6244843006134033,0.005498462822288275,-0.012528659775853157,0.01802712306380272,4.2228193283081055,1.0,2.257913827896118,0.3958386480808258,-0.001655489206314087,0.3974941372871399,304.00408935546875,1.0,2.32205867767334,0.0011602143058553338,0.0022956719622015953,-0.0011354575399309397,0.891044557094574,0.9999998211860657,2.164454460144043,-0.0007192561752162874,8.620135486125946e-05,-0.0008054575300775468,-1696.938232421875,30.523313522338867,1.5648119449615479,-1.265251636505127,-0.19859254360198975,-1.0666590929031372,-3886.85302734375,1.0,2.878262996673584,0.00028328661574050784,0.00016338579007424414,0.00011990081839030609,668.3569946289062,28.6395263671875,1.5121469497680664,0.0026008770801126957,-0.015607193112373352,0.01820806972682476,1.9974735975265503,1.000000238418579,1.7673555612564087,0.2568966746330261,0.03216071426868439,0.22473596036434174,197.29664611816406,1.0,5.333654403686523,-9.842682629823685e-06,0.003007591003552079,-0.003017433686181903,-0.00755918025970459,1.0,1.460536003112793,1.2834129847760778e-05,2.8945898520760238e-05,-1.6111769582494162e-05,22.709632873535156,36.43122482299805,4.314513206481934,-0.01708413101732731,-0.0129125090315938,-0.004171621985733509,-39.361839294433594,0.9999995827674866,4.091456890106201,-2.5660743631306104e-05,0.00014141613792162389,-0.0001670768833719194,-15.135322570800781,10.90291976928711,1.5418627262115479,0.00453362800180912,-0.014667665585875511,0.01920129358768463,3.4818263053894043,0.9999997019767761,2.29010009765625,0.3452267646789551,0.02149137854576111,0.32373538613319397,265.1341552734375,1.000000238418579,2.1506457328796387,-0.0033706265967339277,0.002103017410263419,-0.005473644006997347,-2.5886411666870117,1.0000003576278687,1.5764726400375366,-0.0009316173964180052,-8.72919918037951e-05,-0.0008443254046142101,-2197.961181640625,26.87351417541504,0.8723964691162109,-1.3187819719314575,-0.10754776000976562,-1.211234211921692,-4051.29833984375,1.0,3.3813977241516113,-0.0003756127553060651,0.000303665641695261,-0.0006792783970013261,-886.181640625,23.703516006469727,1.300695776939392,0.008291010744869709,-0.016667358577251434,0.02495836839079857,6.367496490478516,0.9999997019767761,1.8273274898529053,0.24128498136997223,0.02572914958000183,0.2155558317899704,185.30686950683594,1.0,6.1833977699279785,0.0006571857375092804,0.0048022461123764515,-0.004145060200244188,0.5047186613082886,1.0,1.6615689992904663,-0.00013224493886809796,-0.00019993807654827833,6.769313040422276e-05,-234.00372314453125,45.540504455566406,5.998329162597656,0.005270237103104591,-0.0007768562063574791,0.0060470933094620705,12.14262580871582,1.000000238418579,3.4601612091064453,-9.460401997785084e-06,0.00039388571167364717,-0.00040334611549042165,-5.579972267150879,10.55291748046875,1.2843605279922485,0.013269552029669285,-0.02263154461979866,0.03590109571814537,10.19101619720459,0.9999999403953552,2.5429487228393555,0.306347519159317,0.01573169231414795,0.29061582684516907,235.27490234375,1.000000238418579,2.158465623855591,-0.003064797492697835,0.001409993739798665,-0.0044747912324965,-2.353764533996582,0.9999998211860657,1.8741110563278198,-0.001045714016072452,-0.00034190627047792077,-0.0007038077455945313,-2467.14892578125,19.33885955810547,-0.11116060614585876,-1.3415361642837524,-0.06445431709289551,-1.277081847190857,-4121.19921875,1.0,4.288165092468262,-0.0009643294615671039,0.000568595714867115,-0.0015329251764342189,-2275.138671875,19.985570907592773,1.3050289154052734,0.013810604810714722,-0.018832534551620483,0.032643139362335205,10.606544494628906,1.0,2.0118327140808105,0.2401363104581833,0.02853676676750183,0.21159954369068146,184.4246826171875,0.9999997615814209,5.209301948547363,-0.0005009498563595116,0.004120055120438337,-0.004621005151420832,-0.3847295045852661,1.000000238418579,1.4810240268707275,-2.042686173808761e-05,4.128532236791216e-05,-6.171218410599977e-05,-36.14476013183594,41.833892822265625,5.062593460083008,-0.014766482636332512,-0.00602321233600378,-0.008743270300328732,-34.021976470947266,0.9999999403953552,3.199685573577881,-8.625628834124655e-05,0.0003510896931402385,-0.0004373459960334003,-50.87602996826172,11.354515075683594,1.3186248540878296,0.013972635380923748,-0.021352142095565796,0.03532477840781212,10.73098373413086,1.0,2.0243747234344482,0.35535016655921936,0.02757948637008667,0.3277706801891327,272.908935546875,1.000000238418579,2.311878204345703,-0.006904759909957647,7.735658437013626e-05,-0.006982116494327784,-5.302855491638184,1.000000238418579,1.8388140201568604,0.00041827638051472604,-0.00011669183732010424,0.0005349682178348303,986.8377685546875,26.781408309936523,-0.1208149790763855,-1.326468825340271,-0.05472707748413086,-1.2717417478561401,-4074.912109375,1.0,3.1701207160949707,-0.0008537555113434792,0.0003832310903817415,-0.0012369866017252207,-2014.261962890625,28.124513626098633,1.3104652166366577,0.013119976967573166,-0.014940133318305016,0.02806011028587818,10.076142311096191,0.9999998807907104,2.106961250305176,0.2788832485675812,0.0221061110496521,0.2567771375179291,214.18234252929688,0.9999998211860657,4.544958114624023,-0.00225322344340384,0.004925518296658993,-0.007178741507232189,-1.730475664138794,1.0000003576278687,1.642130732536316,8.096396049950272e-05,-7.810897659510374e-05,0.00015907293709460646,143.26345825195312,41.14602279663086,4.86117696762085,0.013194486498832703,0.008352814242243767,0.004841672722250223,30.400096893310547,1.0,3.4398200511932373,0.00012551802501548082,-1.0571617167443037e-05,0.00013608964218292385,74.0335464477539,12.680123329162598,1.267480492591858,0.013047069311141968,-0.015696756541728973,0.02874382585287094,10.020149230957031,1.0,2.0531063079833984,0.4057575762271881,0.027769863605499268,0.37798771262168884,311.621826171875,0.9999998807907104,2.4486677646636963,-0.009116771630942822,0.0008067041635513306,-0.009923475794494152,-7.001680374145508,1.0000001192092896,1.8203603029251099,0.001426428440026939,-0.0002086979802697897,0.0016351264202967286,3365.366943359375,20.49871253967285,2.590752363204956,-1.3010655641555786,-0.030029892921447754,-1.2710356712341309,-3996.87353515625,1.0,2.7397072315216064,-0.00037260164390318096,0.00030979784787632525,-0.0006823994917795062,-879.0775756835938,26.789045333862305,1.3005859851837158,0.010242315009236336,-0.007845098152756691,0.018087413161993027,7.866097927093506,0.9999998211860657,1.99984872341156,0.3343071937561035,0.04167991876602173,0.2926272749900818,256.7479248046875,1.0,4.640919208526611,-0.0015614069998264313,0.00544240977615118,-0.0070038167759776115,-1.1991605758666992,1.000000238418579,1.5656102895736694,-3.1078474421519786e-05,-9.27929359022528e-05,6.171446148073301e-05,-54.99249267578125,44.70512390136719,4.105042934417725,-0.005588372703641653,-0.007824362255632877,0.0022359893191605806,-12.8756103515625,0.9999998807907104,3.8062286376953125,-0.00010816384747158736,-0.00014122719585429877,3.306335202069022e-05,-63.79763412475586,9.229606628417969,1.3881596326828003,0.008741526864469051,-0.030207376927137375,0.038948904722929,6.7134928703308105,0.9999998211860657,2.060889959335327,0.5657748579978943,0.016550779342651367,0.5492240786552429,434.5151062011719,1.0,1.0911000967025757,-0.024470115080475807,-0.007253030315041542,-0.017217084765434265,-18.793048858642578,1.0,1.4521809816360474,0.0035740456078201532,-0.0004989623557776213,0.0040730079635977745,8432.2314453125,11.477438926696777,4.651099681854248,-1.2608634233474731,0.006201028823852539,-1.2670644521713257,-3873.37255859375,0.9999998211860657,3.3512017726898193,-0.00017632314120419323,0.00031602944363839924,-0.0004923525848425925,-415.99847412109375,20.97214698791504,1.590579867362976,0.0018142802873626351,-0.01964115910232067,0.021455438807606697,1.3933672904968262,1.0000001192092896,1.6462583541870117,0.4382284879684448,0.034360408782958984,0.40386807918548584,336.5594787597656,1.0000001192092896,3.00830078125,-0.006059152539819479,0.006574767176061869,-0.012633919715881348,-4.65342903137207,1.0,1.2893682718276978,2.3074746422935277e-05,-8.74457837198861e-05,0.00011052053014282137,40.830116271972656,40.95159912109375,6.790208339691162,0.035184815526008606,0.01515885628759861,0.020025959238409996,81.06581115722656,1.000000238418579,4.307801723480225,5.1988536142744124e-05,-0.0001992937905015424,0.0002512823266442865,30.664085388183594,6.383073806762695,2.730956792831421,-0.00020454295736271888,-0.016571704298257828,0.01636716164648533,-0.1570889949798584,1.0,5.145807266235352,1.0620330572128296,0.0465545654296875,1.015478491783142,815.641357421875,1.0,3.248918056488037,-0.06378286331892014,-0.02641013264656067,-0.03737273067235947,-48.9852409362793,0.9999997615814209,1.3493424654006958,0.002584659494459629,-1.763063482940197e-05,0.002602290129289031,6097.9765625,14.177129745483398,2.9530110359191895,-1.1456984281539917,-0.05873143672943115,-1.0869669914245605,-3519.585693359375,0.9999998211860657,2.0604281425476074,7.715210085734725e-05,-2.6588495529722422e-05,0.00010374059638706967,182.02464294433594,40.42513656616211,3.5734684467315674,-0.0017471477622166276,-0.03767833858728409,0.035931192338466644,-1.3418095111846924,1.0,1.8342876434326172,0.5550915598869324,0.05160164833068848,0.5034899115562439,426.3103332519531,1.000000238418579,1.091140866279602,-0.013940871693193913,0.003430240787565708,-0.01737111248075962,-10.706589698791504,1.000000238418579,1.101540446281433,-2.7002599381376058e-05,1.1921845725737512e-05,-3.892444510711357e-05,-47.78034210205078,32.1856803894043,6.505004405975342,-0.004264816641807556,-0.0006835330277681351,-0.003581283614039421,-9.82613754272461,0.9999997019767761,4.801553726196289,-6.406597822206095e-05,-3.0504539608955383e-05,-3.3561438613105565e-05,-37.78765106201172,10.833539962768555,3.7856037616729736,-0.0021311675664037466,-0.007298682816326618,0.005167515482753515,-1.6367366313934326,1.0000005960464478,7.442882061004639,1.9300737380981445,0.05375683307647705,1.8763169050216675,1482.296630859375,1.0,3.810357093811035,-0.1090654656291008,-0.04298537224531174,-0.06608009338378906,-83.76227569580078,1.0,1.042786955833435,0.002560221590101719,-1.5347497537732124e-05,0.002575569087639451,6040.3203125,24.02084732055664,3.052473306655884,-1.1514815092086792,-0.029786229133605957,-1.1216952800750732,-3537.35107421875,1.0,1.8751957416534424,5.6466858950443566e-05,3.092358383582905e-05,2.5543275114614516e-05,133.22203063964844,35.71664810180664,5.491718292236328,-0.0019885683432221413,-0.008619163185358047,0.006630594376474619,-1.5272204875946045,1.0,2.0623538494110107,0.6545637249946594,0.0511474609375,0.6034162640571594,502.7049255371094,1.000000238418579,1.1750867366790771,-0.020150624215602875,-0.0005226191133260727,-0.019628005102276802,-15.475679397583008,0.9999996423721313,1.1735169887542725,-4.9765807489166036e-05,-2.149033207388129e-05,-2.8275475415284745e-05,-88.0592041015625,38.3284912109375,4.663295745849609,0.0018649896373972297,-0.0034884470514953136,0.005353436805307865,4.29693603515625,1.000000238418579,3.143758535385132,6.769949686713517e-05,-0.00022449286188930273,0.0002921923587564379,39.930789947509766,21.95933723449707,3.8446884155273438,-0.0009976914152503014,-0.00011186802294105291,-0.0008858233923092484,-0.7662270069122314,1.0000003576278687,15.774821281433105,7.639194488525391,0.08877992630004883,7.550414562225342,5866.9013671875,0.9999999403953552,9.387242317199707,-0.16924519836902618,-0.009829223155975342,-0.15941597521305084,-129.98031616210938,1.0,1.0081020593643188,-0.00026828929549083114,-2.500429400242865e-05,-0.00024328500148840249,-632.973876953125,15.376609802246094,1.9315757751464844,-1.2823253870010376,0.007768750190734863,-1.2900941371917725,-3939.3037109375,1.0,2.569490909576416,-0.000370566442143172,-0.00015510278171859682,-0.0002154636604245752,-874.2759399414062,36.45987319946289,7.6750569343566895,-0.0036767206620424986,-0.006536961533129215,0.0028602408710867167,-2.823721408843994,1.000000238418579,2.2121753692626953,0.7437612414360046,0.03561526536941528,0.7081459760665894,571.2086181640625,0.9999998211860657,3.906846284866333,-0.02024967037141323,-0.0020728521049022675,-0.018176818266510963,-15.551746368408203,0.9999997615814209,1.1619356870651245,-4.6471363020827994e-05,6.928667426109314e-05,-0.00011575804091989994,-82.22977447509766,30.8314266204834,3.8097712993621826,0.001612461288459599,0.005143770948052406,-0.0035313095431774855,3.7151107788085938,1.000000238418579,2.8456737995147705,-6.173724614200182e-06,8.892470941646025e-05,-9.509843221167102e-05,-3.6414108276367188,16.962493896484375,21.644655227661133,-0.0006294967606663704,0.03200368955731392,-0.032633185386657715,-0.48345351219177246,1.0000003576278687,2.5989830493927,0.4967544972896576,0.02969878911972046,0.46705570816993713,381.5074462890625,1.0000004768371582,2.431349277496338,-0.012230053544044495,-0.009408657439053059,-0.002821396104991436,-9.392681121826172,1.0,1.1161061525344849,-0.001120314234867692,-1.3131881132721901e-05,-0.00110718235373497,-2643.15283203125,14.69180679321289,1.9035451412200928,-1.1664289236068726,0.006815671920776367,-1.173244595527649,-3583.26953125,1.0,3.0883774757385254,0.00019925273954868317,3.493935219012201e-05,0.00016431338735856116,470.09619140625,16.489717483520508,10.756499290466309,-0.020823083817958832,-0.000551074743270874,-0.020272009074687958,-15.992128372192383,1.0,4.6420087814331055,1.2446962594985962,0.041817665100097656,1.2028785943984985,955.9267578125,1.0000001192092896,4.647675037384033,-0.03216485679149628,-0.0005698800086975098,-0.03159497678279877,-24.70261001586914,0.9999997019767761,0.6329018473625183,-0.004963348153978586,7.868325337767601e-05,-0.005042031407356262,-499.3525085449219,12.06507396697998,0.13246409595012665,-0.17454096674919128,-0.0023923367261886597,-0.17214863002300262,-22.864866256713867,1.0,id-00000017,classification:vit_base_patch32_224,False
0,10.621271133422852,-0.019669998437166214,0.00375949963927269,-0.023429498076438904,-15.106558799743652,1.0000003576278687,18.08406639099121,0.0027914480306208134,0.00557842617854476,-0.0027869781479239464,139.34909057617188,0.9999998211860657,1.826967716217041,0.0008584890165366232,-4.941242514178157e-05,0.0009079014416784048,2025.4296875,13.721900939941406,11.208569526672363,-0.006427799817174673,0.005447690840810537,-0.01187549065798521,-4.936550140380859,1.0,1.0363447666168213,0.0871707871556282,0.05101466178894043,0.036156125366687775,66.9471664428711,0.9999998807907104,1.6600290536880493,9.335662616649643e-05,0.00021699588978663087,-0.00012363925634417683,0.0716978907585144,1.0000001192092896,3.3299245834350586,-3.8020036754460307e-06,-1.3029268302489072e-05,9.227264854416717e-06,-6.7275390625,28.810226440429688,4.898027420043945,-0.0015098319854587317,-0.0034584617242217064,0.0019486297387629747,-3.4786529541015625,1.0000001192092896,6.24666690826416,7.033542351564392e-05,-7.674062362639233e-05,0.00014707604714203626,41.48551940917969,4.5605902671813965,7.408653736114502,0.010021406225860119,-0.015920229256153107,0.02594163455069065,7.696439743041992,1.0,2.2011396884918213,0.548492968082428,0.19002029299736023,0.35847267508506775,421.2425842285156,1.0,1.7093873023986816,0.010773226618766785,0.009605375118553638,0.0011678511509671807,8.27383804321289,1.0,2.8239340782165527,-0.003100275993347168,-0.00020682765170931816,-0.00289344834163785,-7314.46875,8.335352897644043,0.6645901799201965,-1.8857084512710571,-0.09901547431945801,-1.7866929769515991,-5792.896484375,1.0000001192092896,2.53552508354187,-0.00042641896288841963,0.0001357636065222323,-0.0005621825694106519,-1006.048583984375,28.660118103027344,5.385786056518555,0.03815847262740135,-0.0005430653691291809,0.03870153799653053,29.305706024169922,1.0000004768371582,1.4787527322769165,0.12386874109506607,0.08708283305168152,0.03678590804338455,95.13119506835938,1.0000001192092896,4.057848930358887,0.0037290339823812246,0.003780847415328026,-5.181336746318266e-05,2.8638980388641357,1.000000238418579,2.529188394546509,0.0002452363260090351,1.9157887436449528e-05,0.00022607843857258558,433.9388122558594,32.162574768066406,5.164907932281494,0.015484045259654522,0.01433426421135664,0.0011497806990519166,35.67523956298828,1.0000001192092896,4.627608299255371,0.0005050151376053691,0.00015702229575254023,0.00034799284185282886,297.87005615234375,12.248470306396484,3.4315993785858154,0.004974317271262407,0.003734287340193987,0.0012400299310684204,3.8202757835388184,1.0,2.1275575160980225,0.29686981439590454,0.13127590715885162,0.16559390723705292,227.9960174560547,1.0000001192092896,2.8555662631988525,0.005389453377574682,0.005768559407442808,-0.0003791058552451432,4.139100074768066,1.0,2.9853975772857666,-0.00024184973153751343,-0.00021011073840782046,-3.1739000405650586e-05,-570.5950927734375,23.026199340820312,0.7555282115936279,-1.487660527229309,-0.16053617000579834,-1.3271243572235107,-4570.09326171875,0.9999998807907104,3.4494121074676514,0.0012568013044074178,0.0001231508795171976,0.0011336504248902202,2965.166259765625,13.79261302947998,3.017612934112549,0.008193573914468288,-0.016579419374465942,0.024772994220256805,6.292664527893066,1.0,2.9668149948120117,0.17070235311985016,0.054947152733802795,0.11575520038604736,131.0994110107422,1.000000238418579,4.632806301116943,0.00409375736489892,0.004186602775007486,-9.284519910579547e-05,3.14400577545166,0.9999997615814209,2.1480658054351807,4.102539605810307e-05,2.1537611246458255e-05,1.9487784811644815e-05,72.59329223632812,35.69847106933594,3.791832447052002,0.006038992665708065,0.007519751787185669,-0.0014807592378929257,13.913839340209961,1.0,3.942939043045044,0.0002584734174888581,-0.00021029377239756286,0.00046876718988642097,152.45382690429688,22.242801666259766,3.166301965713501,-0.005059159826487303,-0.007211005315184593,0.0021518454886972904,-3.885434865951538,1.0,2.4025721549987793,0.3277769088745117,0.06275627017021179,0.2650206387042999,251.732666015625,1.000000238418579,2.311953067779541,0.0047564259730279446,0.004282236099243164,0.0004741898737847805,3.652935028076172,1.0,2.2094106674194336,-0.0008770455024205148,-0.0002415849594399333,-0.0006354605429805815,-2069.2099609375,30.122650146484375,1.8772690296173096,-1.320492148399353,-0.17198479175567627,-1.1485073566436768,-4056.5517578125,0.9999996423721313,3.1512739658355713,-0.0005396343767642975,0.00022455980069935322,-0.0007641941774636507,-1273.1572265625,22.375364303588867,2.224649429321289,0.003693109378218651,-0.013365574181079865,0.017058683559298515,2.836308002471924,1.0000001192092896,1.7859963178634644,0.17156541347503662,0.036116018891334534,0.1354493945837021,131.76223754882812,1.0000001192092896,5.0575690269470215,0.0033464215230196714,0.004676086362451315,-0.0013296649558469653,2.570051670074463,1.0,1.8391880989074707,2.571933509898372e-05,3.405439929338172e-05,-8.335064194398e-06,45.5096435546875,30.560094833374023,3.940779447555542,-0.0002660540340002626,-0.013469564728438854,0.013203511014580727,-0.6129884719848633,1.0,4.455837249755859,-6.000525536364876e-05,-0.00012414739467203617,6.414214294636622e-05,-35.392539978027344,9.341117858886719,2.404542922973633,0.0008762075449340045,-0.020733583718538284,0.02160979062318802,0.6729273796081543,1.0000001192092896,2.5433096885681152,0.31663820147514343,0.04258868098258972,0.2740495204925537,243.1781463623047,1.0,2.0483639240264893,0.0026471177116036415,0.003436208236962557,-0.0007890904671512544,2.0329864025115967,1.0,2.4745843410491943,0.000602513609919697,-7.96397216618061e-06,0.0006104775820858777,1421.5079345703125,21.25151252746582,2.135793685913086,-1.3739728927612305,-0.03939247131347656,-1.334580421447754,-4220.8447265625,1.000000238418579,3.2416651248931885,1.897577749332413e-05,0.0003854993265122175,-0.0003665235417429358,44.76947784423828,22.191818237304688,1.2499620914459229,0.013935863971710205,-0.017466384917497635,0.03140224888920784,10.702743530273438,1.0,1.8744183778762817,0.21017949283123016,0.03047044575214386,0.1797090470790863,161.4178466796875,0.9999998807907104,6.010683536529541,0.002598717575892806,0.004323778674006462,-0.0017250612145289779,1.9958150386810303,0.9999997019767761,1.6158586740493774,6.941112951608375e-05,8.451670146314427e-05,-1.510557467554463e-05,122.82105255126953,29.68282699584961,5.69866943359375,0.00491110747680068,0.017642846331000328,-0.012731739319860935,11.315191268920898,1.0,4.646352291107178,-0.00027844018768519163,0.0005754965823143721,-0.0008539367699995637,-164.23069763183594,6.121238708496094,1.2944687604904175,0.014538968913257122,-0.022722091525793076,0.03726106137037277,11.16592788696289,1.0000001192092896,2.95491886138916,0.34953072667121887,0.04189878702163696,0.3076319396495819,268.4396057128906,1.000000238418579,2.0862834453582764,-0.00020087060693185776,0.003863490419462323,-0.004064361099153757,-0.15426862239837646,1.0,1.6677035093307495,-0.0008910896722227335,-0.0001587567967362702,-0.0007323328754864633,-2102.34423828125,10.49659538269043,1.7896442413330078,-1.4337105751037598,0.003243088722229004,-1.4369536638259888,-4404.35888671875,1.000000238418579,3.055634021759033,-0.0004929981078021228,0.00039381004171445966,-0.0008868081495165825,-1163.12841796875,19.782629013061523,1.0421348810195923,0.02276364527642727,-0.024188557639718056,0.046952202916145325,17.482479095458984,1.0,1.9120819568634033,0.2174089550971985,0.02445569634437561,0.19295325875282288,166.97007751464844,1.0000001192092896,5.106942176818848,-0.0007922151708044112,0.003102224553003907,-0.0038944396656006575,-0.608421266078949,1.0,1.4091876745224,1.7730269973981194e-05,-8.75914774951525e-05,0.0001053217492881231,31.373214721679688,31.97945213317871,4.991754531860352,-0.018862171098589897,-0.004975571297109127,-0.01388659980148077,-43.45844268798828,1.000000238418579,4.353851795196533,-0.000317171448841691,0.00011684326454997063,-0.00043401471339166164,-187.07533264160156,8.60141658782959,1.0933945178985596,0.020816398784518242,-0.032412730157375336,0.05322913080453873,15.986994743347168,1.000000238418579,2.2534687519073486,0.38895943760871887,0.029088586568832397,0.3598708510398865,298.7208557128906,1.000000238418579,2.2824811935424805,-0.0060185925103724,0.0012323078699409962,-0.0072509003803133965,-4.622279167175293,1.0000001192092896,1.4446144104003906,0.0006917219143360853,-0.00026417517801746726,0.0009558970923535526,1631.9766845703125,9.535762786865234,0.7450656294822693,-1.4569472074508667,5.125999450683594e-05,-1.4569984674453735,-4475.74169921875,1.0,2.023466110229492,-0.0007705764728598297,-7.908424595370889e-05,-0.0006914922269061208,-1818.0179443359375,18.609373092651367,1.0443344116210938,0.02418728731572628,-0.018173346295952797,0.04236063361167908,18.575836181640625,1.0000001192092896,2.3128514289855957,0.23985999822616577,0.033297330141067505,0.20656266808509827,184.2124786376953,1.0,4.487523555755615,-0.0007742870948277414,0.004160149954259396,-0.004934437107294798,-0.5946524739265442,1.0,1.5128228664398193,0.00021375420328695327,-3.8418787880800664e-05,0.00025217299116775393,378.2320861816406,31.365114212036133,5.2158403396606445,0.010445790365338326,0.01303430087864399,-0.0025885100476443768,24.067100524902344,1.0000001192092896,4.439949035644531,-0.00019381345191504806,0.0003439434221945703,-0.0005377568886615336,-114.31582641601562,10.33821964263916,1.011204481124878,0.017338622361421585,-0.03130616992712021,0.048644792288541794,13.316061973571777,1.0000003576278687,2.5797877311706543,0.413319855928421,0.02339830994606018,0.38992154598236084,317.4296569824219,1.0,2.099163770675659,-0.009435874409973621,0.001264345832169056,-0.010700220242142677,-7.246751308441162,1.0000001192092896,1.5808944702148438,0.0011840328807011247,-0.0003812212962657213,0.001565254176966846,2793.484130859375,4.205103397369385,2.1930811405181885,-1.3511894941329956,0.0018041133880615234,-1.3529936075210571,-4150.85400390625,0.9999997615814209,1.808197021484375,-0.0006692199385724962,0.00019954016897827387,-0.00086876010755077,-1578.887939453125,12.196961402893066,1.2685439586639404,0.014503330923616886,-0.017419785261154175,0.031923115253448486,11.138558387756348,1.000000238418579,1.8472263813018799,0.26667118072509766,0.02697332203388214,0.23969785869121552,204.803466796875,1.0,4.572754859924316,-0.0013496093451976776,0.004311974160373211,-0.0056615835055708885,-1.0364999771118164,1.0,1.8699254989624023,-2.414261871308554e-06,2.7988622605334967e-05,-3.040288356714882e-05,-4.271968841552734,27.14529037475586,4.510114669799805,-0.014967153780162334,-0.013637622818350792,-0.0013295304961502552,-34.48432159423828,1.000000238418579,4.300563335418701,0.0002115425595548004,3.746454603970051e-05,0.00017407801351509988,124.77288055419922,11.720393180847168,1.5345734357833862,0.010739408433437347,-0.032494012266397476,0.043233420699834824,8.247865676879883,1.0000001192092896,1.9020500183105469,0.7924700379371643,-0.012727916240692139,0.8051979541778564,608.6170043945312,1.0,0.7944509387016296,-0.028961239382624626,-0.0035093016922473907,-0.025451937690377235,-22.242231369018555,1.0,1.3951579332351685,0.001691354438662529,-7.357820868492126e-05,0.0017649326473474503,3990.40576171875,4.114704132080078,5.133089542388916,-1.248886227607727,0.007927775382995605,-1.2568140029907227,-3836.57861328125,0.9999997615814209,2.408832550048828,-6.549080717377365e-05,0.00017712591215968132,-0.00024261671933345497,-154.51220703125,13.316119194030762,1.752435326576233,0.005341686308383942,-0.011067399755120277,0.01640908606350422,4.102415084838867,0.9999998807907104,2.1010024547576904,0.36706748604774475,0.02418464422225952,0.34288284182548523,281.9078369140625,1.0,2.901745557785034,-0.0078051649034023285,-0.0005567655898630619,-0.007248399313539267,-5.994366645812988,1.0,1.4217313528060913,4.583186819218099e-05,-9.712767496239394e-05,0.00014295954315457493,81.09820556640625,27.45803451538086,5.463481426239014,-0.0010351701639592648,0.0048129865899682045,-0.005848156753927469,-2.3850321769714355,0.9999998211860657,4.124176502227783,-5.037867231294513e-05,0.00013841580948792398,-0.0001887944818008691,-29.714550018310547,12.218843460083008,2.800271511077881,0.002342678839340806,-0.026721768081188202,0.029064446687698364,1.7991774082183838,0.9999998211860657,3.877370834350586,1.5438226461410522,-0.026010870933532715,1.569833517074585,1185.65576171875,1.0000001192092896,1.8482550382614136,-0.07368198782205582,-0.013838954269886017,-0.0598430335521698,-56.5877685546875,1.0000001192092896,1.2853468656539917,0.0019472060957923532,0.00010370276868343353,0.0018435033271089196,4594.03564453125,5.721266746520996,2.81276273727417,-1.1503933668136597,-0.05236184597015381,-1.0980315208435059,-3534.008544921875,1.0,2.0068066120147705,2.0303316432546126e-06,-2.4833061615936458e-05,2.6863393941312097e-05,4.790153503417969,23.5220947265625,3.658921480178833,0.0027869336772710085,-0.02567995712161064,0.02846689149737358,2.1403651237487793,0.9999997615814209,1.8043584823608398,0.44728854298591614,0.013396471738815308,0.43389207124710083,343.5176086425781,1.0,0.5609452128410339,-0.013617281801998615,-0.003915655426681042,-0.009701626375317574,-10.458072662353516,1.0,1.3424911499023438,-2.909962631747476e-06,5.116964166518301e-05,-5.4079602705314755e-05,-5.149097442626953,27.93453598022461,5.540742874145508,0.014306962490081787,0.0032576434314250946,0.011049319058656693,32.96324157714844,1.0000001192092896,3.3845767974853516,-4.6799385017948225e-05,9.566023072693497e-05,-0.0001424596121069044,-27.60340118408203,17.08344841003418,3.5256080627441406,0.0008615900296717882,-0.01011944655328989,0.010981036350131035,0.6617011427879333,0.9999996423721313,7.058028697967529,2.5122485160827637,-0.01542353630065918,2.527672052383423,1929.4068603515625,1.0,3.3480703830718994,-0.10979267954826355,0.005071088671684265,-0.11486376821994781,-84.3207778930664,1.0,1.4985699653625488,0.003240284277126193,0.0001646028831601143,0.0030756813939660788,7644.78955078125,7.308359622955322,2.986719846725464,-1.1723289489746094,-0.022461652755737305,-1.149867296218872,-3601.39453125,1.0,1.443515658378601,-4.061822983203456e-05,1.5817931853234768e-08,-4.063404776388779e-05,-95.83042907714844,37.62129592895508,5.398663520812988,0.0028850503731518984,-0.0003757462836802006,0.003260796656832099,2.2157187461853027,1.0,1.2577131986618042,0.5407424569129944,-0.013541162014007568,0.554283618927002,415.29022216796875,0.9999995231628418,0.64671391248703,-0.020011581480503082,-0.007062879391014576,-0.012948702089488506,-15.368894577026367,0.9999995827674866,1.2495783567428589,-4.6871373342582956e-05,-7.721263682469726e-05,3.0341267120093107e-05,-82.93758392333984,22.28258514404297,5.031582832336426,-0.0054431757889688015,-0.00815490260720253,0.0027117265854030848,-12.54107666015625,1.0000001192092896,2.008941173553467,-9.712241444503888e-05,0.00019475657609291375,-0.00029187899781391025,-57.28512954711914,19.043481826782227,3.7973616123199463,0.002829940291121602,0.0016083407681435347,0.0012215995229780674,2.173394203186035,1.0,13.801553726196289,8.56039810180664,0.003559112548828125,8.556838989257812,6574.3857421875,1.0000001192092896,7.682206630706787,-0.15176738798618317,0.0709124207496643,-0.22267980873584747,-116.55735778808594,1.0000001192092896,1.1665446758270264,-0.0009255371987819672,-0.00010036479216068983,-0.0008251724066212773,-2183.6162109375,9.200665473937988,1.8668193817138672,-1.287659764289856,0.011901497840881348,-1.2995612621307373,-3955.690673828125,1.0,0.907976508140564,-0.0003916407295037061,-0.00023585620510857552,-0.00015578452439513057,-923.9963989257812,67.67536163330078,7.610624313354492,0.0015875482931733131,-0.009946960024535656,0.011534508317708969,1.2192370891571045,1.0,2.1646652221679688,0.7263619899749756,-0.0062808990478515625,0.7326428890228271,557.8460083007812,1.0,3.8691651821136475,-0.02152443863451481,-0.007890789769589901,-0.013633648864924908,-16.53076934814453,1.0000004768371582,1.5931370258331299,-4.585822898661718e-05,0.0001670369238127023,-0.00021289514552336186,-81.14485168457031,16.18087387084961,3.722452402114868,0.012121118605136871,0.0008715828880667686,0.011249535717070103,27.92705726623535,1.0000003576278687,2.597973108291626,7.073840970406309e-05,-2.6853929739445448e-05,9.759233944350854e-05,41.72321319580078,16.74199676513672,21.005285263061523,-0.006118011195212603,0.02730337530374527,-0.033421386033296585,-4.698632717132568,1.0,2.6209442615509033,1.2298258543014526,-0.007586479187011719,1.2374123334884644,944.5062866210938,1.000000238418579,2.875426769256592,-0.02377338707447052,0.002761309966444969,-0.02653469704091549,-18.25796127319336,1.0,1.5035873651504517,-0.0054731061682105064,7.217191159725189e-05,-0.005545278079807758,-12912.677734375,2.7256557941436768,1.8694332838058472,-1.358657956123352,0.013051509857177734,-1.3717094659805298,-4173.79736328125,1.0000001192092896,1.7351951599121094,-2.0681298337876797e-05,-8.905559661798179e-05,6.8374298280105e-05,-48.793304443359375,21.49077033996582,10.001145362854004,-0.025078261271119118,0.00520864874124527,-0.030286910012364388,-19.26010513305664,1.0,3.980663776397705,0.8297087550163269,0.005195200443267822,0.8245135545730591,637.21630859375,1.0000001192092896,4.684649467468262,-0.02221253514289856,-0.019198482856154442,-0.0030140529852360487,-17.059226989746094,1.000000238418579,0.8886205554008484,-0.0027835615910589695,-0.0021743166726082563,-0.0006092448602430522,-49.16883087158203,8.085407257080078,0.2504342794418335,-0.06285042315721512,-0.06647197157144547,0.0036215493455529213,-1.4455597400665283,0.9999998211860657,id-00000018,classification:vit_base_patch32_224,True
